{"learner":{"attributes":{},"feature_names":["lat","lon","altitude","building_vol","station_numeric","hour_sin","hour_cos","month_sin","month_cos","tmp","rh","wsp"],"feature_types":["float","float","float","float","int","float","float","float","float","float","float","float"],"gradient_booster":{"model":{"gbtree_model_param":{"num_parallel_tree":"1","num_trees":"100"},"iteration_indptr":[0,1,2,3,4,5,6,7,8,9,10,11,12,13,14,15,16,17,18,19,20,21,22,23,24,25,26,27,28,29,30,31,32,33,34,35,36,37,38,39,40,41,42,43,44,45,46,47,48,49,50,51,52,53,54,55,56,57,58,59,60,61,62,63,64,65,66,67,68,69,70,71,72,73,74,75,76,77,78,79,80,81,82,83,84,85,86,87,88,89,90,91,92,93,94,95,96,97,98,99,100],"tree_info":[0,0,0,0,0,0,0,0,0,0,0,0,0,0,0,0,0,0,0,0,0,0,0,0,0,0,0,0,0,0,0,0,0,0,0,0,0,0,0,0,0,0,0,0,0,0,0,0,0,0,0,0,0,0,0,0,0,0,0,0,0,0,0,0,0,0,0,0,0,0,0,0,0,0,0,0,0,0,0,0,0,0,0,0,0,0,0,0,0,0,0,0,0,0,0,0,0,0,0,0],"trees":[{"base_weights":[-8.556116E-7,-2.8047357E0,3.180541E0,-4.479865E0,1.8031511E0,7.1504703E0,1.4955217E0,-7.5380695E-1,-6.0636764E0,7.2905793E0,-5.9161204E-1,1.7623124E0,1.04141E1,3.1205282E0,-1.1201026E0,-4.507096E0,7.911227E-1,-4.9890304E0,-7.575489E0,1.3301035E0,1.0812773E1,1.1399215E0,-3.1315093E0,-5.332572E0,2.930696E0,1.2186727E1,1.6529235E0,1.9333051E0,5.914041E0,5.875812E-1,-4.148707E0,-3.7993038E0,-9.457903E0,2.1388361E0,-2.424736E0,-5.8390603E0,-2.2100832E0,-6.5650535E0,-8.929935E0,3.4272046E0,-3.8664327E0,1.2046802E1,1.000303E0,2.998736E0,-2.1610007E0,4.8341033E-1,-5.1734743E0,-1.4928607E0,-8.183322E0,4.606429E0,1.7808441E-2,6.828404E0,1.3697481E1,4.2321043E0,-4.0275145E0,3.4610507E0,-2.1207899E-1,8.124158E0,4.4157486E0,2.7685924E0,-5.052399E-1,-5.0072637E0,2.6602378E0,-2.7149115E0,-5.4830317E0,-9.915236E0,-6.5958613E-1,3.1711016E0,-3.3080492E0,-1.6755028E0,-6.718972E0,-4.0339293E0,-6.85387E0,-3.7194602E0,-1.2008774E0,-5.550251E0,-7.762524E0,-6.1100373E0,-9.702048E0,4.4279656E0,-3.3693025E0,-1.613162E0,-9.042005E0,1.5455021E1,9.350048E0,3.4874427E0,-3.640944E0,9.922574E-1,5.13104E0,-6.2439895E-1,-3.665075E0,1.2939999E0,-3.3765645E0,-7.434742E0,-3.1231723E0,-6.483015E0,-3.8478345E-1,-6.3003173E0,-9.595938E0,6.573049E0,3.1266913E0,9.050551E-1,-8.963559E0,1.4074738E1,6.330424E0,1.2432024E1,1.8121729E1,-4.0345643E-2,5.839613E0,6.4289045E-1,-7.686022E0,2.690566E0,6.136913E0,2.7915459E0,-8.421617E-1,6.894431E0,1.1262239E1,3.5086505E0,6.8619285E0,4.3388114E0,4.8790097E-1,-2.9719265E0,5.2791494E-1,-2.8007977E0,-7.0357747E0,3.9928782E0,9.610375E-1,-6.7499024E-1,-2.6605897E0,-1.9068087E0,2.6542746E-2,-1.9459766E0,-3.2555633E0,5.545617E-1,-2.4023933E0,5.453738E-1,1.3188812E0,-1.7602818E0,-3.1422056E-2,-1.0199796E0,1.0867276E-1,-1.3196623E0,-2.8219519E0,-1.0310253E0,-2.1385872E0,-2.1949325E0,-1.7641147E0,-1.4218987E0,-5.20197E-1,-8.3814555E-1,4.6466172E-1,-1.5664164E0,-2.651769E0,-1.6951108E0,-2.4543061E0,-1.3658516E0,-2.0348516E0,-3.572427E0,-2.7822328E0,7.9545647E-1,2.202481E0,-4.168646E-1,-2.3614602E0,-1.014593E0,1.4049965E-1,-3.2583308E0,-2.125527E0,7.1626754E0,4.3794827E0,5.102919E0,2.5725222E0,1.651432E0,-6.5515065E-1,-3.205517E-2,-1.7805258E0,9.715913E-1,-6.599867E-2,1.0585605E0,2.1428416E0,8.758686E-1,-8.070601E-1,-1.9391333E0,-9.1621304E-1,-8.277381E-1,7.247586E-1,-4.1005298E-1,-1.3007268E0,-1.3321205E0,-2.5833325E0,-1.3076127E0,-2.2491783E-1,-4.387071E0,-1.7257148E0,-2.5190232E0,4.2957027E-2,-1.5345294E0,-2.5781314E0,-5.567101E-1,-2.9253416E0,2.166167E0,-4.7410626E-2,1.5681502E0,6.0354775E-1,8.250023E-1,-9.580683E-1,-2.5217283E0,-1.8383204E1,3.7807915E0,7.5862327E0,2.3446703E0,7.3787946E-1,4.012612E0,1.6905637E0,6.1980214E0,4.178995E0,1.6688029E0,-4.6283272E-1,6.119842E-1,2.4056225E0,-6.522999E-1,2.805434E0,-1.8324596E0,-3.208489E0,1.3593886E0,5.5250394E-1,1.0241245E0,2.462601E0,1.6275645E0,2.4904041E-1,-3.1126449E-2,-8.301954E-1,2.1813653E0,4.4136426E-1,3.818823E0,7.122347E-1,1.1368513E0,-7.0016277E-1,2.3819566E0,4.319554E-2,4.646959E0,1.2137159E0,4.332513E-1,-1.1331148E0,-1.4943202E0,-1.1819161E-1,6.2094593E-1,-9.8655075E-2,-6.467185E-1,-1.8780257E0,-2.5124235E0,-1.5095346E0,1.1233666E0,4.4009485E0,6.273196E-1,-9.54915E-2],"categories":[],"categories_nodes":[],"categories_segments":[],"categories_sizes":[],"default_left":[0,0,0,0,0,0,0,0,0,0,0,0,0,0,0,0,0,0,0,0,0,0,0,0,0,0,0,0,0,0,0,0,0,0,0,0,0,0,0,0,0,0,0,0,0,0,0,0,0,0,0,0,0,0,0,0,0,0,0,0,0,0,0,0,0,0,0,0,0,0,0,0,0,0,0,0,0,0,0,0,0,0,0,0,0,0,0,0,0,0,0,0,0,0,0,0,0,0,0,0,0,0,0,0,0,0,0,0,0,0,0,0,0,0,0,0,0,0,0,0,0,0,0,0,0,0,0,0,0,0,0,0,0,0,0,0,0,0,0,0,0,0,0,0,0,0,0,0,0,0,0,0,0,0,0,0,0,0,0,0,0,0,0,0,0,0,0,0,0,0,0,0,0,0,0,0,0,0,0,0,0,0,0,0,0,0,0,0,0,0,0,0,0,0,0,0,0,0,0,0,0,0,0,0,0,0,0,0,0,0,0,0,0,0,0,0,0,0,0,0,0,0,0,0,0,0,0,0,0,0,0,0,0,0,0,0,0,0,0,0,0,0,0,0,0,0,0,0,0,0,0,0,0,0,0],"id":0,"left_children":[1,3,5,7,9,11,13,15,17,19,21,23,25,27,29,31,33,35,37,39,41,43,45,47,49,51,53,55,57,59,61,63,65,67,69,71,73,75,77,79,81,83,85,87,89,91,93,95,97,99,101,103,105,107,109,111,113,115,117,119,121,123,125,127,129,131,133,135,137,139,141,143,145,147,149,151,153,155,157,159,161,163,165,167,169,171,173,175,177,179,181,183,185,187,189,191,193,195,197,199,201,203,205,207,209,211,213,215,217,219,221,223,225,227,229,231,233,235,237,239,241,243,245,247,249,251,253,-1,-1,-1,-1,-1,-1,-1,-1,-1,-1,-1,-1,-1,-1,-1,-1,-1,-1,-1,-1,-1,-1,-1,-1,-1,-1,-1,-1,-1,-1,-1,-1,-1,-1,-1,-1,-1,-1,-1,-1,-1,-1,-1,-1,-1,-1,-1,-1,-1,-1,-1,-1,-1,-1,-1,-1,-1,-1,-1,-1,-1,-1,-1,-1,-1,-1,-1,-1,-1,-1,-1,-1,-1,-1,-1,-1,-1,-1,-1,-1,-1,-1,-1,-1,-1,-1,-1,-1,-1,-1,-1,-1,-1,-1,-1,-1,-1,-1,-1,-1,-1,-1,-1,-1,-1,-1,-1,-1,-1,-1,-1,-1,-1,-1,-1,-1,-1,-1,-1,-1,-1,-1,-1,-1,-1,-1,-1,-1],"loss_changes":[2.9363685E6,1.3501661E6,1.0318304E6,7.570415E5,6.1285225E5,8.0822125E5,4.602758E5,2.2188573E5,1.4621275E5,2.9744894E5,1.4279516E5,1.4374806E5,4.44519E5,2.2150906E5,2.1462072E5,3.9063297E4,1.174928E5,1.24285375E5,5.11265E4,5.7378547E4,1.078295E5,1.1847041E5,9.715831E4,2.6827516E4,7.267154E4,1.9262675E5,7.060498E4,1.5363502E5,6.592731E4,6.324877E4,8.747917E4,1.7812453E4,5.6066094E3,1.0741962E5,2.5747113E4,7.37855E4,1.877291E4,2.5991312E4,3.4727125E4,2.552802E4,1.764163E4,7.2566625E4,1.1509954E4,5.284197E4,1.607416E4,1.4872688E4,3.897253E4,5.781337E3,3.6821094E3,2.748264E4,4.334184E4,1.8812375E4,1.0374275E5,2.276079E4,2.5720443E4,5.6429E4,3.690105E4,3.0975562E4,2.6323438E4,3.1720016E4,4.5055957E4,5.945075E4,3.791337E3,1.6978059E4,1.8600156E4,4.1879375E3,1.3049508E3,2.6617625E4,2.4957297E4,2.395932E4,7.3724414E3,2.6778266E4,1.157125E4,9.996133E3,3.2369543E4,1.2500656E4,8.638375E3,3.5700078E3,1.1728875E4,1.6905773E4,4.285277E3,3.8895403E3,1.5570039E3,2.4850938E4,2.6085562E4,7.4371265E3,2.82085E3,1.7333758E4,1.9279281E4,2.5207146E4,5.99125E3,1.7867477E4,1.5844316E3,1.4048E4,1.293777E4,1.0459536E3,3.6264006E3,1.6032988E3,9.4533594E2,1.7683281E4,1.2623215E4,3.743945E4,1.3754219E4,5.2273984E3,2.8166797E4,9.252975E4,4.3634375E4,7.643842E3,1.992179E4,1.6261806E4,3.941629E3,3.321033E4,3.449942E4,1.7460756E4,2.2910812E4,1.1808281E4,2.949325E4,1.42255625E4,2.325114E4,1.708275E4,1.4740872E4,2.7029715E4,1.6462287E4,1.4192105E4,1.8531562E4,2.434667E3,1.0675864E3,0E0,0E0,0E0,0E0,0E0,0E0,0E0,0E0,0E0,0E0,0E0,0E0,0E0,0E0,0E0,0E0,0E0,0E0,0E0,0E0,0E0,0E0,0E0,0E0,0E0,0E0,0E0,0E0,0E0,0E0,0E0,0E0,0E0,0E0,0E0,0E0,0E0,0E0,0E0,0E0,0E0,0E0,0E0,0E0,0E0,0E0,0E0,0E0,0E0,0E0,0E0,0E0,0E0,0E0,0E0,0E0,0E0,0E0,0E0,0E0,0E0,0E0,0E0,0E0,0E0,0E0,0E0,0E0,0E0,0E0,0E0,0E0,0E0,0E0,0E0,0E0,0E0,0E0,0E0,0E0,0E0,0E0,0E0,0E0,0E0,0E0,0E0,0E0,0E0,0E0,0E0,0E0,0E0,0E0,0E0,0E0,0E0,0E0,0E0,0E0,0E0,0E0,0E0,0E0,0E0,0E0,0E0,0E0,0E0,0E0,0E0,0E0,0E0,0E0,0E0,0E0,0E0,0E0,0E0,0E0,0E0,0E0,0E0,0E0,0E0,0E0,0E0,0E0],"parents":[2147483647,0,0,1,1,2,2,3,3,4,4,5,5,6,6,7,7,8,8,9,9,10,10,11,11,12,12,13,13,14,14,15,15,16,16,17,17,18,18,19,19,20,20,21,21,22,22,23,23,24,24,25,25,26,26,27,27,28,28,29,29,30,30,31,31,32,32,33,33,34,34,35,35,36,36,37,37,38,38,39,39,40,40,41,41,42,42,43,43,44,44,45,45,46,46,47,47,48,48,49,49,50,50,51,51,52,52,53,53,54,54,55,55,56,56,57,57,58,58,59,59,60,60,61,61,62,62,63,63,64,64,65,65,66,66,67,67,68,68,69,69,70,70,71,71,72,72,73,73,74,74,75,75,76,76,77,77,78,78,79,79,80,80,81,81,82,82,83,83,84,84,85,85,86,86,87,87,88,88,89,89,90,90,91,91,92,92,93,93,94,94,95,95,96,96,97,97,98,98,99,99,100,100,101,101,102,102,103,103,104,104,105,105,106,106,107,107,108,108,109,109,110,110,111,111,112,112,113,113,114,114,115,115,116,116,117,117,118,118,119,119,120,120,121,121,122,122,123,123,124,124,125,125,126,126],"right_children":[2,4,6,8,10,12,14,16,18,20,22,24,26,28,30,32,34,36,38,40,42,44,46,48,50,52,54,56,58,60,62,64,66,68,70,72,74,76,78,80,82,84,86,88,90,92,94,96,98,100,102,104,106,108,110,112,114,116,118,120,122,124,126,128,130,132,134,136,138,140,142,144,146,148,150,152,154,156,158,160,162,164,166,168,170,172,174,176,178,180,182,184,186,188,190,192,194,196,198,200,202,204,206,208,210,212,214,216,218,220,222,224,226,228,230,232,234,236,238,240,242,244,246,248,250,252,254,-1,-1,-1,-1,-1,-1,-1,-1,-1,-1,-1,-1,-1,-1,-1,-1,-1,-1,-1,-1,-1,-1,-1,-1,-1,-1,-1,-1,-1,-1,-1,-1,-1,-1,-1,-1,-1,-1,-1,-1,-1,-1,-1,-1,-1,-1,-1,-1,-1,-1,-1,-1,-1,-1,-1,-1,-1,-1,-1,-1,-1,-1,-1,-1,-1,-1,-1,-1,-1,-1,-1,-1,-1,-1,-1,-1,-1,-1,-1,-1,-1,-1,-1,-1,-1,-1,-1,-1,-1,-1,-1,-1,-1,-1,-1,-1,-1,-1,-1,-1,-1,-1,-1,-1,-1,-1,-1,-1,-1,-1,-1,-1,-1,-1,-1,-1,-1,-1,-1,-1,-1,-1,-1,-1,-1,-1,-1,-1],"split_conditions":[5E-1,8.660254E-1,-5E-1,-5E-1,-5E-1,1.934561E1,2.294E3,6.767376E5,6.9E1,1.934561E1,2.294E3,-9.920774E1,2.5E0,8.660254E-1,5E-1,8E1,5.5E1,-2.4492937E-16,2.326E3,5E-1,2.2E0,1.6E0,-5E-1,-1.8369701E-16,5E-1,-2.5881904E-1,5E-1,5E-1,-1.8369701E-16,8.660254E-1,1.934561E1,2.5881904E-1,1.9325146E1,2.6E0,2.3E0,6.123234E-17,-9.916261E1,1.3E0,-5E-1,2.8E0,2.594E3,-8.660254E-1,2.9E0,8E0,2.4E0,3.1E0,1.9304441E1,1.7E1,-2.4492937E-16,-8.660254E-1,3.4E0,1.9360794E1,-9.902821E1,1.3E1,3.2E0,-9.902821E1,1.9360794E1,-9.903033E1,-9.903033E1,4.8E1,-9.92046E1,-2.4492937E-16,8.660254E-1,3.4E0,1.934561E1,-2.4492937E-16,2.1E0,2.245E3,2.252E3,1.8E1,-9.910363E1,3.7E0,1.4E1,7.715846E5,1.2246469E-16,9.1E1,-7.0710677E-1,1.91769E1,-9.920774E1,6.767376E5,5.4E1,5E0,-9.91596E1,1.9360794E1,1.9360794E1,1.9460415E1,2.7E1,2.5881904E-1,-2.4492937E-16,-7.0710677E-1,2.3E1,2.311E3,-9.92046E1,1.2246469E-16,1.934561E1,2.4E1,1.8E1,3.3E0,1.1E1,3.8E0,8.660254E-1,5E-1,9.8E1,3E1,-9.904617E1,8.983716E5,1.7E0,1.9360794E1,2.233E3,2.293E3,5.1E0,8.660254E-1,2E1,2.1E0,2.4E0,1.7E0,1.8E0,2.1E0,2.2E0,1.91769E1,8.6E1,1.4E1,-5E-1,3.9E0,1.9304441E1,2.3E1,1.2246469E-16,-6.7499024E-1,-2.6605897E0,-1.9068087E0,2.6542746E-2,-1.9459766E0,-3.2555633E0,5.545617E-1,-2.4023933E0,5.453738E-1,1.3188812E0,-1.7602818E0,-3.1422056E-2,-1.0199796E0,1.0867276E-1,-1.3196623E0,-2.8219519E0,-1.0310253E0,-2.1385872E0,-2.1949325E0,-1.7641147E0,-1.4218987E0,-5.20197E-1,-8.3814555E-1,4.6466172E-1,-1.5664164E0,-2.651769E0,-1.6951108E0,-2.4543061E0,-1.3658516E0,-2.0348516E0,-3.572427E0,-2.7822328E0,7.9545647E-1,2.202481E0,-4.168646E-1,-2.3614602E0,-1.014593E0,1.4049965E-1,-3.2583308E0,-2.125527E0,7.1626754E0,4.3794827E0,5.102919E0,2.5725222E0,1.651432E0,-6.5515065E-1,-3.205517E-2,-1.7805258E0,9.715913E-1,-6.599867E-2,1.0585605E0,2.1428416E0,8.758686E-1,-8.070601E-1,-1.9391333E0,-9.1621304E-1,-8.277381E-1,7.247586E-1,-4.1005298E-1,-1.3007268E0,-1.3321205E0,-2.5833325E0,-1.3076127E0,-2.2491783E-1,-4.387071E0,-1.7257148E0,-2.5190232E0,4.2957027E-2,-1.5345294E0,-2.5781314E0,-5.567101E-1,-2.9253416E0,2.166167E0,-4.7410626E-2,1.5681502E0,6.0354775E-1,8.250023E-1,-9.580683E-1,-2.5217283E0,-1.8383204E1,3.7807915E0,7.5862327E0,2.3446703E0,7.3787946E-1,4.012612E0,1.6905637E0,6.1980214E0,4.178995E0,1.6688029E0,-4.6283272E-1,6.119842E-1,2.4056225E0,-6.522999E-1,2.805434E0,-1.8324596E0,-3.208489E0,1.3593886E0,5.5250394E-1,1.0241245E0,2.462601E0,1.6275645E0,2.4904041E-1,-3.1126449E-2,-8.301954E-1,2.1813653E0,4.4136426E-1,3.818823E0,7.122347E-1,1.1368513E0,-7.0016277E-1,2.3819566E0,4.319554E-2,4.646959E0,1.2137159E0,4.332513E-1,-1.1331148E0,-1.4943202E0,-1.1819161E-1,6.2094593E-1,-9.8655075E-2,-6.467185E-1,-1.8780257E0,-2.5124235E0,-1.5095346E0,1.1233666E0,4.4009485E0,6.273196E-1,-9.54915E-2],"split_indices":[7,8,6,6,6,0,2,3,10,0,2,1,11,5,8,10,10,7,2,5,11,11,5,8,8,5,8,8,6,7,0,5,0,11,11,6,1,11,5,11,2,6,11,4,11,11,0,9,5,6,11,0,1,10,11,1,0,1,1,10,1,5,7,11,0,5,11,2,2,9,1,11,4,3,5,10,5,0,1,3,10,4,1,0,0,0,10,6,7,5,10,2,1,5,0,10,10,11,10,11,7,5,10,10,1,3,11,0,2,2,11,7,9,11,11,11,11,11,11,0,10,9,5,11,0,9,5,0,0,0,0,0,0,0,0,0,0,0,0,0,0,0,0,0,0,0,0,0,0,0,0,0,0,0,0,0,0,0,0,0,0,0,0,0,0,0,0,0,0,0,0,0,0,0,0,0,0,0,0,0,0,0,0,0,0,0,0,0,0,0,0,0,0,0,0,0,0,0,0,0,0,0,0,0,0,0,0,0,0,0,0,0,0,0,0,0,0,0,0,0,0,0,0,0,0,0,0,0,0,0,0,0,0,0,0,0,0,0,0,0,0,0,0,0,0,0,0,0,0,0,0,0,0,0,0],"split_type":[0,0,0,0,0,0,0,0,0,0,0,0,0,0,0,0,0,0,0,0,0,0,0,0,0,0,0,0,0,0,0,0,0,0,0,0,0,0,0,0,0,0,0,0,0,0,0,0,0,0,0,0,0,0,0,0,0,0,0,0,0,0,0,0,0,0,0,0,0,0,0,0,0,0,0,0,0,0,0,0,0,0,0,0,0,0,0,0,0,0,0,0,0,0,0,0,0,0,0,0,0,0,0,0,0,0,0,0,0,0,0,0,0,0,0,0,0,0,0,0,0,0,0,0,0,0,0,0,0,0,0,0,0,0,0,0,0,0,0,0,0,0,0,0,0,0,0,0,0,0,0,0,0,0,0,0,0,0,0,0,0,0,0,0,0,0,0,0,0,0,0,0,0,0,0,0,0,0,0,0,0,0,0,0,0,0,0,0,0,0,0,0,0,0,0,0,0,0,0,0,0,0,0,0,0,0,0,0,0,0,0,0,0,0,0,0,0,0,0,0,0,0,0,0,0,0,0,0,0,0,0,0,0,0,0,0,0,0,0,0,0,0,0,0,0,0,0,0,0,0,0,0,0,0,0],"sum_hessian":[3.29166E5,1.74917E5,1.54249E5,1.28282E5,4.6635E4,4.5961E4,1.08288E5,3.8264E4,9.0018E4,1.4168E4,3.2467E4,1.7338E4,2.8623E4,6.6792E4,4.1496E4,1.1157E4,2.7107E4,5.2619E4,3.7399E4,5.263E3,8.905E3,1.9306E4,1.3161E4,2.451E3,1.4887E4,2.3806E4,4.817E3,4.6873E4,1.9919E4,2.6535E4,1.4961E4,9.763E3,1.394E3,1.9102E4,8.005E3,4.0293E4,1.2326E4,2.1423E4,1.5976E4,3.75E3,1.513E3,7.91E3,9.95E2,1.2351E4,6.955E3,4.751E3,8.41E3,1.045E3,1.406E3,9.45E3,5.437E3,5.237E3,1.8569E4,3.313E3,1.504E3,2.7377E4,1.9496E4,8.046E3,1.1873E4,8.857E3,1.7678E4,1.3286E4,1.675E3,5.94E3,3.823E3,1.325E3,6.9E1,1.6059E4,3.043E3,6.817E3,1.188E3,1.4502E4,2.5791E4,4.938E3,7.388E3,1.1599E4,9.824E3,3.436E3,1.254E4,3.269E3,4.81E2,1.055E3,4.58E2,3.492E3,4.418E3,6.48E2,3.47E2,6.364E3,5.987E3,3.441E3,3.514E3,3.927E3,8.24E2,3.998E3,4.412E3,1.89E2,8.56E2,6.05E2,8.01E2,4.056E3,5.394E3,4.949E3,4.88E2,3.35E2,4.902E3,1.4442E4,4.127E3,9.06E2,2.407E3,6.61E2,8.43E2,2.1258E4,6.119E3,3.38E3,1.6116E4,5.783E3,2.263E3,8.663E3,3.21E3,5.245E3,3.612E3,5.218E3,1.246E4,6.365E3,6.921E3,9.38E2,7.37E2,5.524E3,4.16E2,3.305E3,5.18E2,2.86E2,1.039E3,5.2E1,1.7E1,7.632E3,8.427E3,1.691E3,1.352E3,3.692E3,3.125E3,6.39E2,5.49E2,1.2158E4,2.344E3,1.7479E4,8.312E3,3.261E3,1.677E3,4.678E3,2.71E3,1.0547E4,1.052E3,1.627E3,8.197E3,1.039E3,2.397E3,2.033E3,1.0507E4,2.032E3,1.237E3,3.35E2,1.46E2,5.7E2,4.85E2,2.35E2,2.23E2,3.2E2,3.172E3,4.04E2,4.014E3,4.78E2,1.7E2,1.37E2,2.1E2,2.23E3,4.134E3,3.334E3,2.653E3,1.267E3,2.174E3,6.28E2,2.886E3,8.51E2,3.076E3,2.67E2,5.57E2,1.129E3,2.869E3,2.901E3,1.511E3,1.4E1,1.75E2,5.2E1,8.04E2,4.01E2,2.04E2,1.6E1,7.85E2,3.7E3,3.56E2,1.869E3,3.525E3,3.413E3,1.536E3,4.84E2,4E0,2.98E2,3.7E1,3.542E3,1.36E3,1.2681E4,1.761E3,2.568E3,1.559E3,1.91E2,7.15E2,8.78E2,1.529E3,5E2,1.61E2,5.55E2,2.88E2,6.708E3,1.455E4,2.645E3,3.474E3,1.442E3,1.938E3,1.1649E4,4.467E3,5.407E3,3.76E2,1.942E3,3.21E2,8.266E3,3.97E2,2.766E3,4.44E2,1.33E2,5.112E3,2.951E3,6.61E2,2.932E3,2.286E3,4.45E3,8.01E3,5.366E3,9.99E2,4.147E3,2.774E3,9.18E2,2E1,3.91E2,3.46E2],"tree_param":{"num_deleted":"0","num_feature":"12","num_nodes":"255","size_leaf_vector":"1"}},{"base_weights":[-5.977388E-5,-2.6869965E0,1.6922238E0,-1.4820138E-1,-4.277495E0,5.2936797E0,7.1849275E-1,-3.0885074E0,1.0136088E0,-4.911643E0,-1.7256389E0,1.3669438E0,7.6894436E0,1.8964701E0,-1.140688E0,-1.7014221E0,-4.7937875E0,-3.9262306E-2,4.9765916E0,-3.4841967E0,-5.441932E0,-6.31909E-1,-3.2405431E0,-4.344099E0,2.1702573E0,9.081968E0,1.4199191E0,-1.9130001E0,2.4453537E0,4.1678745E-1,-2.2910542E0,-1.1840762E0,-5.9765477E0,-3.3504736E0,-8.987532E0,1.1142268E0,-2.297913E0,6.977867E0,2.4390042E0,-2.707327E0,-4.939464E0,-6.7017107E0,-4.5946383E0,5.211027E-1,-2.4034564E0,-1.528669E0,-4.8019986E0,-6.295071E0,-1.8288617E0,-1.051678E0,2.7072885E0,2.7657986E0,9.879733E0,3.4441993E0,-2.5774157E0,-5.2379304E-1,-4.2406645E0,1.2774117E0,4.399064E0,-2.7574844E0,9.407793E-1,-2.9121933E0,1.7390312E0,-4.421934E0,-7.4455565E-1,-4.313836E0,-8.892719E0,-4.201863E0,1.2434275E0,-8.800319E0,-1.2463989E1,1.7837799E0,-5.205313E0,-5.4227514E0,-1.5134807E0,3.8134367E0,8.477768E0,2.9599254E0,-4.684202E0,-1.3729078E0,-3.1463056E0,-5.754939E0,-3.5125513E0,-7.141081E0,-5.886763E0,-3.927561E0,-6.405897E0,-1.0694515E0,2.0516536E0,-3.530152E0,-8.6776775E-1,-2.441561E0,1.8399273E-1,-5.5103617E0,-1.8108903E0,-7.702028E0,-5.223005E0,-5.7027016E0,-4.0641612E-1,1.00389756E-1,-5.20767E0,4.8163004E0,1.478499E0,6.286965E-1,7.3347254E0,1.6583254E1,9.276034E0,2.1833224E0,8.110858E0,-1.0442041E0,-6.9292803E0,-2.210519E0,1.3455508E0,-3.335089E0,-6.472943E0,3.013921E0,4.1036803E-1,6.9159036E0,3.3388617E0,-2.2877536E0,-5.95376E0,3.7615466E0,2.9060078E-1,-1.8843977E0,-4.6122694E0,3.8404844E0,1.2639192E0,-7.319254E-1,-2.2273157E0,-1.20540835E-1,-1.5651066E0,-9.770486E-1,-2.2192347E0,-2.950674E0,-1.7990257E0,-5.426434E-1,-1.4970738E0,1.0947924E0,-1.3216766E0,-2.4143784E0,-2.8588123E0,-3.7729435E0,-5.534809E-1,8.300075E-1,-3.1240812E-1,3.319678E-2,-2.1426675E0,-2.7183557E0,-1.4098454E0,-2.6739627E-1,-1.4089886E0,1.7508485E0,-1.1312859E0,2.699465E0,2.7351847E-1,-2.37687E-1,1.1590086E0,-7.5215816E-1,-2.9049435E0,6.89961E-1,-5.475708E-1,-8.8020414E-1,-1.5851074E0,-1.6332117E0,-2.3611643E0,-1.5570046E0,-7.752433E-1,-2.203591E0,-1.2931921E0,-1.627212E0,-2.207613E0,-1.3342978E0,-7.306872E-1,-1.2285743E0,-1.9777741E0,-1.15879446E-1,-1.3672452E0,1.3999833E0,3.0850512E-1,-6.7273945E-1,-1.4394764E0,3.6262754E-2,-1.0126643E0,-5.000351E-1,-1.3191397E0,3.7751606E-1,-3.5884288E-1,-1.9953331E0,-1.3011345E0,-3.5121858E-1,-6.0721976E-1,-2.039055E0,-2.804981E0,-2.2606828E0,-1.261239E0,-2.0081694E0,-1.5727513E-1,3.2353804E-1,-1.0774455E0,-2.1803702E-1,4.01333E-1,-6.469684E-1,-1.8888255E0,1.5337834E0,-6.815595E-2,6.5180343E-1,-1.0701008E0,7.955887E-1,-4.716506E-1,2.8053772E0,1.0253072E0,3.9582534E0,5.8442173E0,2.0329049E0,3.1184855E0,-1.2224498E-1,1.2098022E0,2.62325E0,-1.4000244E0,-6.7486626E-1,9.2767495E-1,-2.4349647E0,-5.8181214E-1,6.220681E-1,-8.738332E-1,-1.4221033E-1,1.0866036E0,-5.720125E-1,-1.6894629E0,-1.805316E0,-3.02028E0,7.0503503E-1,1.6252825E0,-1.2634465E-1,5.0554955E-1,1.7730709E0,3.050064E0,1.1835396E0,2.129799E-1,3.249111E-1,-8.089916E-1,-1.8466879E0,1.9415037E-1,2.5757215E0,9.5638424E-1,2.6726475E-1,-4.476161E-1,-1.3950375E0,-3.1020936E-1,-1.7038468E0,-9.098874E-1,1.932283E0,8.2532597E-1,6.08601E-1,9.300714E-2],"categories":[],"categories_nodes":[],"categories_segments":[],"categories_sizes":[],"default_left":[0,0,0,0,0,0,0,0,0,0,0,0,0,0,0,0,0,0,0,0,0,0,0,0,0,0,0,0,0,0,0,0,0,0,0,0,0,0,0,0,0,0,0,0,0,0,0,0,0,0,0,0,0,0,0,0,0,0,0,0,0,0,0,0,0,0,0,0,0,0,0,0,0,0,0,0,0,0,0,0,0,0,0,0,0,0,0,0,0,0,0,0,0,0,0,0,0,0,0,0,0,0,0,0,0,0,0,0,0,0,0,0,0,0,0,0,0,0,0,0,0,0,0,0,0,0,0,0,0,0,0,0,0,0,0,0,0,0,0,0,0,0,0,0,0,0,0,0,0,0,0,0,0,0,0,0,0,0,0,0,0,0,0,0,0,0,0,0,0,0,0,0,0,0,0,0,0,0,0,0,0,0,0,0,0,0,0,0,0,0,0,0,0,0,0,0,0,0,0,0,0,0,0,0,0,0,0,0,0,0,0,0,0,0,0,0,0,0,0,0,0,0,0,0,0,0,0,0,0,0,0,0,0,0,0,0,0,0,0,0,0,0,0,0,0,0,0,0,0,0,0,0,0,0,0],"id":1,"left_children":[1,3,5,7,9,11,13,15,17,19,21,23,25,27,29,31,33,35,37,39,41,43,45,47,49,51,53,55,57,59,61,63,65,67,69,71,73,75,77,79,81,83,85,87,89,91,93,95,97,99,101,103,105,107,109,111,113,115,117,119,121,123,125,127,129,131,133,135,137,139,141,143,145,147,149,151,153,155,157,159,161,163,165,167,169,171,173,175,177,179,181,183,185,187,189,191,193,195,197,199,201,203,205,207,209,211,213,215,217,219,221,223,225,227,229,231,233,235,237,239,241,243,245,247,249,251,253,-1,-1,-1,-1,-1,-1,-1,-1,-1,-1,-1,-1,-1,-1,-1,-1,-1,-1,-1,-1,-1,-1,-1,-1,-1,-1,-1,-1,-1,-1,-1,-1,-1,-1,-1,-1,-1,-1,-1,-1,-1,-1,-1,-1,-1,-1,-1,-1,-1,-1,-1,-1,-1,-1,-1,-1,-1,-1,-1,-1,-1,-1,-1,-1,-1,-1,-1,-1,-1,-1,-1,-1,-1,-1,-1,-1,-1,-1,-1,-1,-1,-1,-1,-1,-1,-1,-1,-1,-1,-1,-1,-1,-1,-1,-1,-1,-1,-1,-1,-1,-1,-1,-1,-1,-1,-1,-1,-1,-1,-1,-1,-1,-1,-1,-1,-1,-1,-1,-1,-1,-1,-1,-1,-1,-1,-1,-1,-1],"loss_changes":[1.4967462E6,5.136347E5,7.082605E5,1.6737728E5,1.2655025E5,4.04363E5,3.481865E5,3.2816062E4,1.4653875E5,4.7397E4,2.5792516E4,7.47394E4,2.3305575E5,2.0349853E5,1.1048054E5,1.6921418E4,3.7643062E4,7.229784E4,3.7421016E4,1.917214E4,4.8718625E4,1.8470578E4,1.743943E4,9.846969E3,2.4712977E4,1.100405E5,3.9278023E4,3.963211E4,1.9409744E5,4.3575875E4,8.878759E4,9.715092E3,3.966707E3,1.812189E4,9.2710156E2,7.773344E4,2.2986727E4,1.9527297E4,1.2080836E4,6.4779375E3,6.8508906E3,6.5330625E3,3.2970938E4,1.3337971E4,6.165291E3,4.870676E3,7.221461E3,1.6657188E3,4.8412593E3,9.7728E3,3.1715812E4,2.3927598E4,7.8331875E4,1.89408E4,1.0882006E4,2.42091E4,9.238883E3,8.015848E4,8.4900125E4,5.559533E3,4.123828E4,5.368853E4,4.7246885E3,4.8382334E3,9.217069E3,1.6968711E3,7.574375E2,7.3639688E3,9.869447E3,7.5435156E2,7.1163086E1,4.6126566E4,1.8122742E4,4.9100117E3,1.4849016E4,2.0379693E4,1.0997797E4,1.0277814E4,2.391691E3,4.557825E3,3.762414E3,2.4276484E3,3.3349336E3,6.862E3,4.3450312E3,1.5477969E4,3.1430625E3,6.4013E3,7.466298E3,3.3465234E3,3.7441514E3,3.071421E3,1.608871E3,3.6637344E3,8.701611E1,6.628828E2,1.4881035E3,1.2078452E3,3.049628E3,1.6376152E3,1.4575674E3,6.7351094E3,2.7102943E4,7.445022E3,6.1370234E3,1.5464375E4,4.9698375E4,1.2161988E4,5.5839375E3,6.029893E3,2.5021113E3,1.2148463E4,1.5087665E4,1.0686027E4,2.1010625E3,2.827686E4,3.7642914E4,3.0776906E4,3.569128E4,4.465744E3,6.369238E2,1.1627883E4,1.955731E4,4.504314E4,1.9497188E4,2.4554326E3,2.818858E3,0E0,0E0,0E0,0E0,0E0,0E0,0E0,0E0,0E0,0E0,0E0,0E0,0E0,0E0,0E0,0E0,0E0,0E0,0E0,0E0,0E0,0E0,0E0,0E0,0E0,0E0,0E0,0E0,0E0,0E0,0E0,0E0,0E0,0E0,0E0,0E0,0E0,0E0,0E0,0E0,0E0,0E0,0E0,0E0,0E0,0E0,0E0,0E0,0E0,0E0,0E0,0E0,0E0,0E0,0E0,0E0,0E0,0E0,0E0,0E0,0E0,0E0,0E0,0E0,0E0,0E0,0E0,0E0,0E0,0E0,0E0,0E0,0E0,0E0,0E0,0E0,0E0,0E0,0E0,0E0,0E0,0E0,0E0,0E0,0E0,0E0,0E0,0E0,0E0,0E0,0E0,0E0,0E0,0E0,0E0,0E0,0E0,0E0,0E0,0E0,0E0,0E0,0E0,0E0,0E0,0E0,0E0,0E0,0E0,0E0,0E0,0E0,0E0,0E0,0E0,0E0,0E0,0E0,0E0,0E0,0E0,0E0,0E0,0E0,0E0,0E0,0E0,0E0],"parents":[2147483647,0,0,1,1,2,2,3,3,4,4,5,5,6,6,7,7,8,8,9,9,10,10,11,11,12,12,13,13,14,14,15,15,16,16,17,17,18,18,19,19,20,20,21,21,22,22,23,23,24,24,25,25,26,26,27,27,28,28,29,29,30,30,31,31,32,32,33,33,34,34,35,35,36,36,37,37,38,38,39,39,40,40,41,41,42,42,43,43,44,44,45,45,46,46,47,47,48,48,49,49,50,50,51,51,52,52,53,53,54,54,55,55,56,56,57,57,58,58,59,59,60,60,61,61,62,62,63,63,64,64,65,65,66,66,67,67,68,68,69,69,70,70,71,71,72,72,73,73,74,74,75,75,76,76,77,77,78,78,79,79,80,80,81,81,82,82,83,83,84,84,85,85,86,86,87,87,88,88,89,89,90,90,91,91,92,92,93,93,94,94,95,95,96,96,97,97,98,98,99,99,100,100,101,101,102,102,103,103,104,104,105,105,106,106,107,107,108,108,109,109,110,110,111,111,112,112,113,113,114,114,115,115,116,116,117,117,118,118,119,119,120,120,121,121,122,122,123,123,124,124,125,125,126,126],"right_children":[2,4,6,8,10,12,14,16,18,20,22,24,26,28,30,32,34,36,38,40,42,44,46,48,50,52,54,56,58,60,62,64,66,68,70,72,74,76,78,80,82,84,86,88,90,92,94,96,98,100,102,104,106,108,110,112,114,116,118,120,122,124,126,128,130,132,134,136,138,140,142,144,146,148,150,152,154,156,158,160,162,164,166,168,170,172,174,176,178,180,182,184,186,188,190,192,194,196,198,200,202,204,206,208,210,212,214,216,218,220,222,224,226,228,230,232,234,236,238,240,242,244,246,248,250,252,254,-1,-1,-1,-1,-1,-1,-1,-1,-1,-1,-1,-1,-1,-1,-1,-1,-1,-1,-1,-1,-1,-1,-1,-1,-1,-1,-1,-1,-1,-1,-1,-1,-1,-1,-1,-1,-1,-1,-1,-1,-1,-1,-1,-1,-1,-1,-1,-1,-1,-1,-1,-1,-1,-1,-1,-1,-1,-1,-1,-1,-1,-1,-1,-1,-1,-1,-1,-1,-1,-1,-1,-1,-1,-1,-1,-1,-1,-1,-1,-1,-1,-1,-1,-1,-1,-1,-1,-1,-1,-1,-1,-1,-1,-1,-1,-1,-1,-1,-1,-1,-1,-1,-1,-1,-1,-1,-1,-1,-1,-1,-1,-1,-1,-1,-1,-1,-1,-1,-1,-1,-1,-1,-1,-1,-1,-1,-1,-1],"split_conditions":[-2.4492937E-16,-2.5881904E-1,-7.0710677E-1,6.767376E5,8.660254E-1,1.934561E1,2.294E3,2.5881904E-1,8.660254E-1,-7.0710677E-1,2.294E3,-9.920774E1,2.3E0,-8.660254E-1,-2.5881904E-1,1.934561E1,2.942E3,5E-1,-7.0710677E-1,-9.909452E1,1.934561E1,1.5E0,-2.4492937E-16,1.9E1,-8.660254E-1,-8.660254E-1,3.2E0,6.4E1,7.0710677E-1,-8.660254E-1,1.934561E1,-9.920774E1,2.7E0,1.934561E1,2.6E0,3.2E0,1.932611E1,6E0,3.2E0,-1.8369701E-16,-9.9009384E1,1.2E1,1.7E0,8E0,1.8E1,1.4E1,1.934561E1,8.660254E-1,2.3E1,6.2E1,-1.8369701E-16,2.3E1,1.9360794E1,2.293E3,3.5E1,-2.5881904E-1,8.5E1,-1.8369701E-16,-2.5881904E-1,8.4E1,-5E-1,5E-1,-2.5881904E-1,-2.5881904E-1,3.4E0,2.4E1,-5E-1,5E-1,1.7E0,7.0710677E-1,1.8E1,-9.904617E1,-9.920414E1,5.5E1,1.8E0,1.9473692E1,2.7E0,1.932611E1,4.3E1,1E0,4.2E0,4.7E0,1.9272161E1,1.4E1,1.8E0,-5E-1,-9.920414E1,7E0,1E0,1.2E1,3.4E0,5E0,-8.660254E-1,5.9E1,2.5881904E-1,6.9E1,3.4E1,2.4E1,3E0,2.1E1,1E0,4.3E0,3.1E0,4.3E1,1.5E1,5E-1,6E0,2.4E1,5.2E1,2.293E3,8.660254E-1,1.9360794E1,-9.909452E1,1.9E0,9.5E1,-9.902821E1,2.245E3,-9.902821E1,1.5E0,1.91769E1,4.1E0,1.91769E1,3.5E0,5E-1,1.9304441E1,-5E-1,8.660254E-1,-7.319254E-1,-2.2273157E0,-1.20540835E-1,-1.5651066E0,-9.770486E-1,-2.2192347E0,-2.950674E0,-1.7990257E0,-5.426434E-1,-1.4970738E0,1.0947924E0,-1.3216766E0,-2.4143784E0,-2.8588123E0,-3.7729435E0,-5.534809E-1,8.300075E-1,-3.1240812E-1,3.319678E-2,-2.1426675E0,-2.7183557E0,-1.4098454E0,-2.6739627E-1,-1.4089886E0,1.7508485E0,-1.1312859E0,2.699465E0,2.7351847E-1,-2.37687E-1,1.1590086E0,-7.5215816E-1,-2.9049435E0,6.89961E-1,-5.475708E-1,-8.8020414E-1,-1.5851074E0,-1.6332117E0,-2.3611643E0,-1.5570046E0,-7.752433E-1,-2.203591E0,-1.2931921E0,-1.627212E0,-2.207613E0,-1.3342978E0,-7.306872E-1,-1.2285743E0,-1.9777741E0,-1.15879446E-1,-1.3672452E0,1.3999833E0,3.0850512E-1,-6.7273945E-1,-1.4394764E0,3.6262754E-2,-1.0126643E0,-5.000351E-1,-1.3191397E0,3.7751606E-1,-3.5884288E-1,-1.9953331E0,-1.3011345E0,-3.5121858E-1,-6.0721976E-1,-2.039055E0,-2.804981E0,-2.2606828E0,-1.261239E0,-2.0081694E0,-1.5727513E-1,3.2353804E-1,-1.0774455E0,-2.1803702E-1,4.01333E-1,-6.469684E-1,-1.8888255E0,1.5337834E0,-6.815595E-2,6.5180343E-1,-1.0701008E0,7.955887E-1,-4.716506E-1,2.8053772E0,1.0253072E0,3.9582534E0,5.8442173E0,2.0329049E0,3.1184855E0,-1.2224498E-1,1.2098022E0,2.62325E0,-1.4000244E0,-6.7486626E-1,9.2767495E-1,-2.4349647E0,-5.8181214E-1,6.220681E-1,-8.738332E-1,-1.4221033E-1,1.0866036E0,-5.720125E-1,-1.6894629E0,-1.805316E0,-3.02028E0,7.0503503E-1,1.6252825E0,-1.2634465E-1,5.0554955E-1,1.7730709E0,3.050064E0,1.1835396E0,2.129799E-1,3.249111E-1,-8.089916E-1,-1.8466879E0,1.9415037E-1,2.5757215E0,9.5638424E-1,2.6726475E-1,-4.476161E-1,-1.3950375E0,-3.1020936E-1,-1.7038468E0,-9.098874E-1,1.932283E0,8.2532597E-1,6.08601E-1,9.300714E-2],"split_indices":[7,6,6,3,8,0,2,5,8,5,2,1,11,8,5,0,2,5,6,1,0,11,5,9,8,8,11,10,5,8,0,1,11,0,11,11,0,4,11,6,1,4,11,4,9,9,0,7,10,10,8,9,0,2,10,5,10,8,6,10,8,8,6,5,11,9,7,5,11,5,9,1,1,10,11,0,11,0,10,4,11,11,0,9,11,7,1,4,9,9,11,9,5,10,6,10,10,9,11,9,9,11,11,10,4,8,4,9,10,2,7,0,1,11,10,1,2,1,11,0,11,0,11,7,0,8,7,0,0,0,0,0,0,0,0,0,0,0,0,0,0,0,0,0,0,0,0,0,0,0,0,0,0,0,0,0,0,0,0,0,0,0,0,0,0,0,0,0,0,0,0,0,0,0,0,0,0,0,0,0,0,0,0,0,0,0,0,0,0,0,0,0,0,0,0,0,0,0,0,0,0,0,0,0,0,0,0,0,0,0,0,0,0,0,0,0,0,0,0,0,0,0,0,0,0,0,0,0,0,0,0,0,0,0,0,0,0,0,0,0,0,0,0,0,0,0,0,0,0,0,0,0,0,0,0],"split_type":[0,0,0,0,0,0,0,0,0,0,0,0,0,0,0,0,0,0,0,0,0,0,0,0,0,0,0,0,0,0,0,0,0,0,0,0,0,0,0,0,0,0,0,0,0,0,0,0,0,0,0,0,0,0,0,0,0,0,0,0,0,0,0,0,0,0,0,0,0,0,0,0,0,0,0,0,0,0,0,0,0,0,0,0,0,0,0,0,0,0,0,0,0,0,0,0,0,0,0,0,0,0,0,0,0,0,0,0,0,0,0,0,0,0,0,0,0,0,0,0,0,0,0,0,0,0,0,0,0,0,0,0,0,0,0,0,0,0,0,0,0,0,0,0,0,0,0,0,0,0,0,0,0,0,0,0,0,0,0,0,0,0,0,0,0,0,0,0,0,0,0,0,0,0,0,0,0,0,0,0,0,0,0,0,0,0,0,0,0,0,0,0,0,0,0,0,0,0,0,0,0,0,0,0,0,0,0,0,0,0,0,0,0,0,0,0,0,0,0,0,0,0,0,0,0,0,0,0,0,0,0,0,0,0,0,0,0,0,0,0,0,0,0,0,0,0,0,0,0,0,0,0,0,0,0],"sum_hessian":[3.29166E5,1.27201E5,2.01965E5,4.8995E4,7.8206E4,4.2983E4,1.58982E5,1.3876E4,3.5119E4,6.2639E4,1.5567E4,1.6288E4,2.6695E4,9.732E4,6.1662E4,7.653E3,6.223E3,2.7748E4,7.371E3,1.6969E4,4.567E4,9.041E3,6.526E3,2.008E3,1.428E4,2.1843E4,4.852E3,1.2256E4,8.5064E4,2.6196E4,3.5466E4,6.828E3,8.25E2,4.631E3,1.592E3,1.8368E4,9.38E3,4.12E3,3.251E3,1.1065E4,5.904E3,1.8362E4,2.7308E4,5.477E3,3.564E3,3.114E3,3.412E3,1.13E3,8.78E2,2.04E3,1.224E4,2.45E3,1.9393E4,3.221E3,1.631E3,7.676E3,4.58E3,5.3239E4,3.1825E4,3.711E3,2.2485E4,3.073E4,4.736E3,8.15E2,6.013E3,5.27E2,2.98E2,3.907E3,7.24E2,1.514E3,7.8E1,1.6609E4,1.759E3,1.881E3,7.499E3,1.326E3,2.794E3,3.03E3,2.21E2,2.74E3,8.325E3,3.755E3,2.149E3,1.1925E4,6.437E3,1.996E4,7.348E3,2.686E3,2.791E3,2.055E3,1.509E3,2.031E3,1.083E3,2.758E3,6.54E2,4.86E2,6.44E2,2.35E2,6.43E2,1.598E3,4.42E2,4.505E3,7.735E3,1.67E3,7.8E2,1.6E3,1.7793E4,2.537E3,6.84E2,1.207E3,4.24E2,4.035E3,3.641E3,3.26E3,1.32E3,1.7729E4,3.551E4,9.431E3,2.2394E4,3.237E3,4.74E2,4.211E3,1.8274E4,1.9153E4,1.1577E4,8.72E2,3.864E3,4.92E2,3.23E2,5.586E3,4.27E2,3.94E2,1.33E2,2.23E2,7.5E1,9.69E2,2.938E3,5.08E2,2.16E2,7.51E2,7.63E2,7.7E1,1E0,1.2322E4,4.287E3,4.7E2,1.289E3,3.1E2,1.571E3,6.274E3,1.225E3,1.047E3,2.79E2,2.614E3,1.8E2,5.88E2,2.442E3,1.55E2,6.6E1,3E2,2.44E3,7.575E3,7.5E2,3.277E3,4.78E2,7.64E2,1.385E3,1.1121E4,8.04E2,4.901E3,1.536E3,1.4799E4,5.161E3,5.51E2,6.797E3,2.247E3,4.39E2,7.84E2,2.007E3,1.021E3,1.034E3,1.083E3,4.26E2,1.456E3,5.75E2,6.09E2,4.74E2,1.396E3,1.362E3,1.65E2,4.89E2,3.17E2,1.69E2,1.95E2,4.49E2,1.97E2,3.8E1,4.39E2,2.04E2,9.58E2,6.4E2,1.17E2,3.25E2,4.255E3,2.5E2,6.8E3,9.35E2,8.7E2,8E2,5.14E2,2.66E2,7.4E2,8.6E2,5.504E3,1.2289E4,1.057E3,1.48E3,6.52E2,3.2E1,9.35E2,2.72E2,3.42E2,8.2E1,5.68E2,3.467E3,2.024E3,1.617E3,2.011E3,1.249E3,1.174E3,1.46E2,1.3894E4,3.835E3,2.1492E4,1.4018E4,7.205E3,2.226E3,1.8197E4,4.197E3,3.5E2,2.887E3,4.6E2,1.4E1,4.46E2,3.765E3,1.3671E4,4.603E3,4.503E3,1.465E4,6.907E3,4.67E3,2.56E2,6.16E2,2.144E3,1.72E3],"tree_param":{"num_deleted":"0","num_feature":"12","num_nodes":"255","size_leaf_vector":"1"}},{"base_weights":[-2.006109E-4,-1.8813784E0,1.1846007E0,3.0949503E-1,-2.822417E0,3.7057166E0,5.029629E-1,-9.9567944E-1,2.2336104E0,-3.2859528E0,-9.632079E-1,9.5608765E-1,5.383309E0,1.327555E0,-7.984759E-1,-6.0702914E-1,-5.9290466E0,-1.7602563E-1,3.7907512E0,-2.2154174E0,-3.7400246E0,-1.2676683E-1,-2.1327398E0,2.2373073E0,-9.693336E-1,6.754108E0,2.0896993E0,2.2776523E0,2.2338438E-1,4.650934E-1,-1.5443442E0,-2.4289749E0,1.356859E-1,-7.34986E0,-4.085173E0,1.2675068E0,-2.0694947E0,5.074588E0,1.5992131E0,-3.4296024E0,-1.4532031E0,-4.7287254E0,-3.0759408E0,6.223359E-1,-2.2572412E0,4.4427887E-2,-3.067321E0,-8.299551E-1,2.7506301E0,3.039735E-1,-2.8570714E0,2.0075176E0,7.334137E0,3.4163964E0,-1.1976972E0,7.802075E-1,3.9827325E0,7.1011215E-1,-2.045775E0,-1.9532399E0,8.631012E-1,-1.9464861E0,1.0728751E0,-9.6053326E-1,-3.4397078E0,-2.0689492E-1,5.283037E0,-5.893812E0,-8.489001E0,-1.9195467E0,-6.330572E0,1.9145138E0,-1.3681262E0,-1.2383056E0,-5.668797E0,7.0203047E0,3.6100545E0,-2.9344442E0,4.0145874E0,-1.9564376E0,-4.0572057E0,-2.2842185E0,-6.733696E-1,-4.356734E0,-5.547883E0,-2.6839576E0,-4.688585E0,3.0131605E0,-1.440877E-1,-3.439906E0,-1.0125557E0,-7.254194E-1,1.5473069E0,-4.264109E0,-2.028942E0,1.9258587E-1,-3.6958086E0,3.2679243E0,7.1183985E-1,1.6630166E0,-2.6980581E0,-5.927774E-1,-4.6896625E0,4.294848E-1,5.3925014E0,5.814761E0,8.704685E0,4.781425E0,8.409422E-1,-4.9829477E-1,-6.2366686E0,2.1266558E0,-2.0159122E-1,5.6130624E0,2.6723566E0,1.5002396E0,-6.439977E-1,-2.956667E0,5.8589965E-1,-1.6115211E0,-4.09208E0,2.2479339E0,7.3548205E-2,-8.75438E-1,-2.8473976E0,-2.8303385E-1,1.5182916E0,-5.8806133E-1,1.7653728E-1,-7.5503594E-1,-1.8345776E0,1.5527768E-1,-1.0300312E0,2.2355905E0,7.4468476E-1,-2.6177058E0,-1.2463312E0,-1.9953924E0,-2.7444527E0,-3.127731E-1,-2.2586524E0,-1.4222907E0,-2.952721E0,8.8830754E-2,8.6900395E-1,-1.2179648E-1,-1.2946451E0,-9.5743254E-2,-9.1822666E-1,1.2101102E0,-1.7390643E0,2.2720625E0,1.3021808E0,1.442903E0,7.1711886E-1,-1.7082225E0,-5.80666E-1,2.98732E0,7.6018864E-1,-4.542712E-1,-1.0959193E0,-2.0289736E0,-1.1337811E0,-9.6680677E-1,-4.0108696E-1,3.4462392E-1,-5.628317E-1,-1.4723418E0,-1.1495199E0,-1.378737E0,-1.935958E0,-3.8593653E-1,-8.804191E-1,-7.58863E-1,-1.4693698E0,7.106106E-1,2.4785776E0,-3.4929886E-1,2.2063643E-1,-6.74918E-1,-1.366514E0,-7.954299E-1,2.9536402E-1,-6.531232E-2,-9.953545E-1,-7.156884E-1,7.7567774E-1,-2.0259848E0,-1.0599746E0,-4.876595E-1,-9.9212956E-1,-3.631537E-1,6.122941E-1,-9.542748E-1,-2.3913097E0,1.1976554E0,3.2007852E-1,8.6995816E-1,-1.9377397E-1,6.353751E-1,-8.894819E-1,-1.0992719E0,4.197057E-1,1.3584635E-1,-1.8554815E0,-1.8638544E0,-7.894327E-1,-4.4336382E-1,5.857141E-1,5.377061E-1,2.0664074E0,2.0823169E0,2.1487692E-1,1.5623401E0,2.9344895E0,1.5798122E0,-4.6947664E-1,1.5995125E0,-5.419063E-1,1.6674474E-1,-8.821802E-1,-2.138775E0,4.175953E0,-2.795528E-1,7.526184E-1,-1.8649055E-1,7.02304E-1,1.3738573E0,2.3162892E0,9.3219984E-1,-8.296665E-1,-2.7325767E-1,6.026555E-1,1.2037208E-1,-5.576204E-1,-1.7417299E0,-7.3137057E-1,-1.3507518E-1,9.317256E-1,1.7502522E-1,-5.634228E-1,-6.5303946E-1,-1.4031485E0,1.3543205E0,6.001116E-1,1.9388662E-1,-7.0734316E-1,-4.342433E-2,-1.3132545E0,-1.3560705E0,-6.4727104E-1,2.2916514E-1,-4.7173783E-1,4.7124896E-2,5.906602E-1],"categories":[],"categories_nodes":[],"categories_segments":[],"categories_sizes":[],"default_left":[0,0,0,0,0,0,0,0,0,0,0,0,0,0,0,0,0,0,0,0,0,0,0,0,0,0,0,0,0,0,0,0,0,0,0,0,0,0,0,0,0,0,0,0,0,0,0,0,0,0,0,0,0,0,0,0,0,0,0,0,0,0,0,0,0,0,0,0,0,0,0,0,0,0,0,0,0,0,0,0,0,0,0,0,0,0,0,0,0,0,0,0,0,0,0,0,0,0,0,0,0,0,0,0,0,0,0,0,0,0,0,0,0,0,0,0,0,0,0,0,0,0,0,0,0,0,0,0,0,0,0,0,0,0,0,0,0,0,0,0,0,0,0,0,0,0,0,0,0,0,0,0,0,0,0,0,0,0,0,0,0,0,0,0,0,0,0,0,0,0,0,0,0,0,0,0,0,0,0,0,0,0,0,0,0,0,0,0,0,0,0,0,0,0,0,0,0,0,0,0,0,0,0,0,0,0,0,0,0,0,0,0,0,0,0,0,0,0,0,0,0,0,0,0,0,0,0,0,0,0,0,0,0,0,0,0,0,0,0,0,0,0,0,0,0,0,0,0,0,0,0,0,0,0,0],"id":2,"left_children":[1,3,5,7,9,11,13,15,17,19,21,23,25,27,29,31,33,35,37,39,41,43,45,47,49,51,53,55,57,59,61,63,65,67,69,71,73,75,77,79,81,83,85,87,89,91,93,95,97,99,101,103,105,107,109,111,113,115,117,119,121,123,125,127,129,131,133,135,137,139,141,143,145,147,149,151,153,155,157,159,161,163,165,167,169,171,173,175,177,179,181,183,185,187,189,191,193,195,197,199,201,203,205,207,209,211,213,215,217,219,221,223,225,227,229,231,233,235,237,239,241,243,245,247,249,251,253,-1,-1,-1,-1,-1,-1,-1,-1,-1,-1,-1,-1,-1,-1,-1,-1,-1,-1,-1,-1,-1,-1,-1,-1,-1,-1,-1,-1,-1,-1,-1,-1,-1,-1,-1,-1,-1,-1,-1,-1,-1,-1,-1,-1,-1,-1,-1,-1,-1,-1,-1,-1,-1,-1,-1,-1,-1,-1,-1,-1,-1,-1,-1,-1,-1,-1,-1,-1,-1,-1,-1,-1,-1,-1,-1,-1,-1,-1,-1,-1,-1,-1,-1,-1,-1,-1,-1,-1,-1,-1,-1,-1,-1,-1,-1,-1,-1,-1,-1,-1,-1,-1,-1,-1,-1,-1,-1,-1,-1,-1,-1,-1,-1,-1,-1,-1,-1,-1,-1,-1,-1,-1,-1,-1,-1,-1,-1,-1],"loss_changes":[7.336569E5,2.6225278E5,3.4707425E5,9.598687E4,7.668244E4,1.9826956E5,1.7061462E5,4.3662234E4,5.796375E4,3.4613688E4,1.7372371E4,4.01853E4,1.2051506E5,1.02096E5,5.8115395E4,2.85688E4,4.326699E3,1.657999E4,2.63945E4,1.9628844E4,3.2821062E4,1.6527408E4,1.5067387E4,1.540243E4,1.5646356E4,5.1882312E4,3.4227836E4,1.3355812E5,4.9715535E4,2.2032703E4,4.081253E4,9.071105E3,2.645009E4,1.5057773E3,3.518165E3,5.872169E3,7.843202E3,1.6835547E4,3.798804E4,7.5559062E3,8.445842E3,6.0982188E3,1.8900062E4,1.4040166E4,3.962209E3,2.575419E3,6.429879E3,4.1121367E3,8.834625E3,1.5867101E4,1.0877271E4,1.0969364E4,3.4927062E4,1.9651523E4,7.951166E3,3.681913E4,5.2237844E4,3.965539E4,1.9059246E4,2.3578096E3,2.1490586E4,3.2429398E4,3.1198003E3,3.8630664E3,8.926027E3,3.2877625E4,5.667369E3,2.0079111E3,5.7390625E2,1.817167E3,1.9406787E3,4.3926543E3,1.9237318E3,3.5720657E3,6.3480664E2,3.7327031E3,4.930953E3,3.3134023E3,1.98882E4,1.8295771E3,4.2885234E3,5.6051406E3,1.4742349E4,3.9800938E3,5.375578E3,8.432031E3,2.630875E3,6.272084E3,5.2081553E3,1.8226396E3,4.3033394E3,1.9367329E3,3.0851338E3,4.3532305E3,1.4259893E3,2.6867207E3,7.8691797E2,1.064907E4,5.043306E3,5.6420547E3,4.8028516E3,6.8673604E3,4.52634E3,4.0752974E3,3.5034727E3,4.5756375E4,3.319875E4,1.1246258E4,2.3049328E4,5.1067896E3,5.0468506E3,1.372716E4,1.720489E4,2.3707E4,3.2087625E4,2.8704914E4,1.7342162E4,8.714988E3,5.340782E3,1.6340288E3,4.884839E2,3.9954766E3,1.7434703E4,3.9296902E4,2.1055969E4,1.7264019E3,2.3843086E3,0E0,0E0,0E0,0E0,0E0,0E0,0E0,0E0,0E0,0E0,0E0,0E0,0E0,0E0,0E0,0E0,0E0,0E0,0E0,0E0,0E0,0E0,0E0,0E0,0E0,0E0,0E0,0E0,0E0,0E0,0E0,0E0,0E0,0E0,0E0,0E0,0E0,0E0,0E0,0E0,0E0,0E0,0E0,0E0,0E0,0E0,0E0,0E0,0E0,0E0,0E0,0E0,0E0,0E0,0E0,0E0,0E0,0E0,0E0,0E0,0E0,0E0,0E0,0E0,0E0,0E0,0E0,0E0,0E0,0E0,0E0,0E0,0E0,0E0,0E0,0E0,0E0,0E0,0E0,0E0,0E0,0E0,0E0,0E0,0E0,0E0,0E0,0E0,0E0,0E0,0E0,0E0,0E0,0E0,0E0,0E0,0E0,0E0,0E0,0E0,0E0,0E0,0E0,0E0,0E0,0E0,0E0,0E0,0E0,0E0,0E0,0E0,0E0,0E0,0E0,0E0,0E0,0E0,0E0,0E0,0E0,0E0,0E0,0E0,0E0,0E0,0E0,0E0],"parents":[2147483647,0,0,1,1,2,2,3,3,4,4,5,5,6,6,7,7,8,8,9,9,10,10,11,11,12,12,13,13,14,14,15,15,16,16,17,17,18,18,19,19,20,20,21,21,22,22,23,23,24,24,25,25,26,26,27,27,28,28,29,29,30,30,31,31,32,32,33,33,34,34,35,35,36,36,37,37,38,38,39,39,40,40,41,41,42,42,43,43,44,44,45,45,46,46,47,47,48,48,49,49,50,50,51,51,52,52,53,53,54,54,55,55,56,56,57,57,58,58,59,59,60,60,61,61,62,62,63,63,64,64,65,65,66,66,67,67,68,68,69,69,70,70,71,71,72,72,73,73,74,74,75,75,76,76,77,77,78,78,79,79,80,80,81,81,82,82,83,83,84,84,85,85,86,86,87,87,88,88,89,89,90,90,91,91,92,92,93,93,94,94,95,95,96,96,97,97,98,98,99,99,100,100,101,101,102,102,103,103,104,104,105,105,106,106,107,107,108,108,109,109,110,110,111,111,112,112,113,113,114,114,115,115,116,116,117,117,118,118,119,119,120,120,121,121,122,122,123,123,124,124,125,125,126,126],"right_children":[2,4,6,8,10,12,14,16,18,20,22,24,26,28,30,32,34,36,38,40,42,44,46,48,50,52,54,56,58,60,62,64,66,68,70,72,74,76,78,80,82,84,86,88,90,92,94,96,98,100,102,104,106,108,110,112,114,116,118,120,122,124,126,128,130,132,134,136,138,140,142,144,146,148,150,152,154,156,158,160,162,164,166,168,170,172,174,176,178,180,182,184,186,188,190,192,194,196,198,200,202,204,206,208,210,212,214,216,218,220,222,224,226,228,230,232,234,236,238,240,242,244,246,248,250,252,254,-1,-1,-1,-1,-1,-1,-1,-1,-1,-1,-1,-1,-1,-1,-1,-1,-1,-1,-1,-1,-1,-1,-1,-1,-1,-1,-1,-1,-1,-1,-1,-1,-1,-1,-1,-1,-1,-1,-1,-1,-1,-1,-1,-1,-1,-1,-1,-1,-1,-1,-1,-1,-1,-1,-1,-1,-1,-1,-1,-1,-1,-1,-1,-1,-1,-1,-1,-1,-1,-1,-1,-1,-1,-1,-1,-1,-1,-1,-1,-1,-1,-1,-1,-1,-1,-1,-1,-1,-1,-1,-1,-1,-1,-1,-1,-1,-1,-1,-1,-1,-1,-1,-1,-1,-1,-1,-1,-1,-1,-1,-1,-1,-1,-1,-1,-1,-1,-1,-1,-1,-1,-1,-1,-1,-1,-1,-1,-1],"split_conditions":[-2.4492937E-16,-5E-1,-7.0710677E-1,-5E-1,8.660254E-1,1.934561E1,2.294E3,3E0,1.934561E1,-7.0710677E-1,2.294E3,2.594E3,2E0,1.5E0,-5E-1,6.767376E5,2.293E3,2.5881904E-1,-9.904617E1,2.246E3,1.934561E1,2.1E0,-7.0710677E-1,-8.660254E-1,2.5881904E-1,-8.660254E-1,2.9E0,8E0,6.1E1,-8.660254E-1,1.934561E1,-2.4492937E-16,-9.9009384E1,4E1,-2.5881904E-1,2.942E3,2.942E3,-8.660254E-1,1.1E1,1E0,6.767376E5,2.594E3,2E0,-1.8369701E-16,1.8E1,1.7E1,1.9304441E1,5.1E1,5E-1,1.9272161E1,-1.8369701E-16,2.2E1,2.235E3,1.9460415E1,4.7E1,2.5881904E-1,2.5881904E-1,5E-1,8.660254E-1,8.1E1,-1.8369701E-16,-1.8369701E-16,1.2246469E-16,1.1E1,2.942E3,8.983716E5,4.8E1,-8.660254E-1,-5E-1,4.6E0,3.7E0,2.6E1,-2.4492937E-16,7.0710677E-1,1E0,2E0,-7.0710677E-1,-2.5881904E-1,1E0,5E-1,2.8E1,-1.8369701E-16,-1.8369701E-16,-1.8369701E-16,7.0710677E-1,1.9370464E1,-9.920414E1,2.293E3,8E0,7E0,3.6E1,3.1E0,2E1,4.3E1,8E-1,2E1,2.9E0,2.5E0,-1.8369701E-16,4.8E0,2.2E1,7E1,-9.91596E1,7E0,-2.4492937E-16,-9.904617E1,1.7E1,5.2E1,-9.907388E1,5E-1,1E0,-8.660254E-1,-9.907388E1,-9.902821E1,8.2E1,5E-1,2.6E0,1E0,1E0,1.91769E1,1.1E1,1.91769E1,3.9E0,8.4E1,-9.92046E1,8.660254E-1,5E-1,-5.8806133E-1,1.7653728E-1,-7.5503594E-1,-1.8345776E0,1.5527768E-1,-1.0300312E0,2.2355905E0,7.4468476E-1,-2.6177058E0,-1.2463312E0,-1.9953924E0,-2.7444527E0,-3.127731E-1,-2.2586524E0,-1.4222907E0,-2.952721E0,8.8830754E-2,8.6900395E-1,-1.2179648E-1,-1.2946451E0,-9.5743254E-2,-9.1822666E-1,1.2101102E0,-1.7390643E0,2.2720625E0,1.3021808E0,1.442903E0,7.1711886E-1,-1.7082225E0,-5.80666E-1,2.98732E0,7.6018864E-1,-4.542712E-1,-1.0959193E0,-2.0289736E0,-1.1337811E0,-9.6680677E-1,-4.0108696E-1,3.4462392E-1,-5.628317E-1,-1.4723418E0,-1.1495199E0,-1.378737E0,-1.935958E0,-3.8593653E-1,-8.804191E-1,-7.58863E-1,-1.4693698E0,7.106106E-1,2.4785776E0,-3.4929886E-1,2.2063643E-1,-6.74918E-1,-1.366514E0,-7.954299E-1,2.9536402E-1,-6.531232E-2,-9.953545E-1,-7.156884E-1,7.7567774E-1,-2.0259848E0,-1.0599746E0,-4.876595E-1,-9.9212956E-1,-3.631537E-1,6.122941E-1,-9.542748E-1,-2.3913097E0,1.1976554E0,3.2007852E-1,8.6995816E-1,-1.9377397E-1,6.353751E-1,-8.894819E-1,-1.0992719E0,4.197057E-1,1.3584635E-1,-1.8554815E0,-1.8638544E0,-7.894327E-1,-4.4336382E-1,5.857141E-1,5.377061E-1,2.0664074E0,2.0823169E0,2.1487692E-1,1.5623401E0,2.9344895E0,1.5798122E0,-4.6947664E-1,1.5995125E0,-5.419063E-1,1.6674474E-1,-8.821802E-1,-2.138775E0,4.175953E0,-2.795528E-1,7.526184E-1,-1.8649055E-1,7.02304E-1,1.3738573E0,2.3162892E0,9.3219984E-1,-8.296665E-1,-2.7325767E-1,6.026555E-1,1.2037208E-1,-5.576204E-1,-1.7417299E0,-7.3137057E-1,-1.3507518E-1,9.317256E-1,1.7502522E-1,-5.634228E-1,-6.5303946E-1,-1.4031485E0,1.3543205E0,6.001116E-1,1.9388662E-1,-7.0734316E-1,-4.342433E-2,-1.3132545E0,-1.3560705E0,-6.4727104E-1,2.2916514E-1,-4.7173783E-1,4.7124896E-2,5.906602E-1],"split_indices":[7,6,6,7,8,0,2,11,0,5,2,2,11,11,5,3,2,5,1,2,0,11,5,8,5,8,11,4,10,8,0,5,1,10,5,2,2,6,4,10,3,2,11,6,9,9,0,10,5,0,8,9,2,0,10,6,6,8,7,10,8,8,5,4,2,3,10,7,5,11,11,10,5,5,10,11,6,5,9,6,10,8,6,8,5,0,1,2,4,9,10,11,10,10,11,10,11,11,8,11,9,10,1,4,5,1,10,10,1,8,7,8,1,1,10,7,11,9,7,0,9,0,11,10,1,7,7,0,0,0,0,0,0,0,0,0,0,0,0,0,0,0,0,0,0,0,0,0,0,0,0,0,0,0,0,0,0,0,0,0,0,0,0,0,0,0,0,0,0,0,0,0,0,0,0,0,0,0,0,0,0,0,0,0,0,0,0,0,0,0,0,0,0,0,0,0,0,0,0,0,0,0,0,0,0,0,0,0,0,0,0,0,0,0,0,0,0,0,0,0,0,0,0,0,0,0,0,0,0,0,0,0,0,0,0,0,0,0,0,0,0,0,0,0,0,0,0,0,0,0,0,0,0,0,0],"split_type":[0,0,0,0,0,0,0,0,0,0,0,0,0,0,0,0,0,0,0,0,0,0,0,0,0,0,0,0,0,0,0,0,0,0,0,0,0,0,0,0,0,0,0,0,0,0,0,0,0,0,0,0,0,0,0,0,0,0,0,0,0,0,0,0,0,0,0,0,0,0,0,0,0,0,0,0,0,0,0,0,0,0,0,0,0,0,0,0,0,0,0,0,0,0,0,0,0,0,0,0,0,0,0,0,0,0,0,0,0,0,0,0,0,0,0,0,0,0,0,0,0,0,0,0,0,0,0,0,0,0,0,0,0,0,0,0,0,0,0,0,0,0,0,0,0,0,0,0,0,0,0,0,0,0,0,0,0,0,0,0,0,0,0,0,0,0,0,0,0,0,0,0,0,0,0,0,0,0,0,0,0,0,0,0,0,0,0,0,0,0,0,0,0,0,0,0,0,0,0,0,0,0,0,0,0,0,0,0,0,0,0,0,0,0,0,0,0,0,0,0,0,0,0,0,0,0,0,0,0,0,0,0,0,0,0,0,0,0,0,0,0,0,0,0,0,0,0,0,0,0,0,0,0,0,0],"sum_hessian":[3.29166E5,1.27201E5,2.01965E5,3.822E4,8.8981E4,4.2983E4,1.58982E5,2.2773E4,1.5447E4,7.1223E4,1.7758E4,1.6288E4,2.6695E4,9.732E4,6.1662E4,2.1111E4,1.662E3,6.064E3,9.383E3,2.1214E4,5.0009E4,1.0354E4,7.404E3,9.78E3,6.508E3,1.8849E4,7.846E3,5.2309E4,4.5011E4,2.2888E4,3.8774E4,6.113E3,1.4998E4,9.37E2,7.25E2,3.441E3,2.623E3,5.916E3,3.467E3,8.18E3,1.3034E4,2.0091E4,2.9918E4,7.661E3,2.693E3,2.224E3,5.18E3,1.402E3,8.378E3,3.887E3,2.621E3,2.053E3,1.6796E4,5.59E3,2.256E3,2.7851E4,2.4458E4,3.7062E4,7.949E3,3.234E3,1.9654E4,3.361E4,5.164E3,2.493E3,3.62E3,1.4063E4,9.35E2,4.14E2,5.23E2,3.7E2,3.55E2,2.763E3,6.78E2,2.132E3,4.91E2,2.539E3,3.377E3,1.205E3,2.262E3,2.445E3,5.735E3,6.309E3,6.725E3,1.3821E4,6.27E3,2.407E4,5.848E3,1.859E3,5.802E3,1.38E3,1.313E3,1.471E3,7.53E2,2.405E3,2.775E3,1.034E3,3.68E2,6.682E3,1.696E3,2.676E3,1.211E3,1.173E3,1.448E3,1.401E3,6.52E2,7.968E3,8.828E3,3.653E3,1.937E3,1.982E3,2.74E2,1.1744E4,1.6107E4,1.0897E4,1.3561E4,2.3405E4,1.3657E4,5.905E3,2.044E3,2.79E3,4.44E2,7.136E3,1.2518E4,1.5356E4,1.8254E4,1.277E3,3.887E3,1.515E3,9.78E2,2.693E3,9.27E2,1.1485E4,2.578E3,5.26E2,4.09E2,1.56E2,2.58E2,1.41E2,3.82E2,3.21E2,4.9E1,2.46E2,1.09E2,1.044E3,1.719E3,5.12E2,1.66E2,1.418E3,7.14E2,6E0,4.85E2,2.103E3,4.36E2,1.701E3,1.676E3,3.19E2,8.86E2,4.5E2,1.812E3,1.941E3,5.04E2,5.32E2,5.203E3,3.168E3,3.141E3,2.674E3,4.051E3,6.739E3,7.082E3,3.059E3,3.211E3,3.663E3,2.0407E4,5.18E2,5.33E3,1.657E3,2.02E2,2.686E3,3.116E3,6.69E2,7.11E2,7.21E2,5.92E2,1.231E3,2.4E2,1.57E2,5.96E2,5.44E2,1.861E3,2.111E3,6.64E2,5.88E2,4.46E2,3.3E2,3.8E1,5.027E3,1.655E3,6.49E2,1.047E3,2.437E3,2.39E2,9.8E2,2.31E2,9.89E2,1.84E2,8.31E2,6.17E2,6.22E2,7.79E2,1.92E2,4.6E2,6.526E3,1.442E3,2.08E3,6.748E3,3.394E3,2.59E2,7.18E2,1.219E3,1.385E3,5.97E2,2.63E2,1.1E1,1.304E3,1.044E4,1.3824E4,2.283E3,7.314E3,3.583E3,1.2557E4,1.004E3,4.077E3,1.9328E4,7.341E3,6.316E3,9.08E2,4.997E3,1.449E3,5.95E2,3.02E2,2.488E3,1.05E2,3.39E2,7.01E2,6.435E3,1.0132E4,2.386E3,1.2706E4,2.65E3,5.328E3,1.2926E4,7.05E2,5.72E2,9.67E2,2.92E3],"tree_param":{"num_deleted":"0","num_feature":"12","num_nodes":"255","size_leaf_vector":"1"}},{"base_weights":[-2.1996416E-4,-1.9229901E0,5.744131E-1,-1.0726763E0,-2.815642E0,2.119712E0,-8.2795575E-2,-5.8277804E-1,-2.8884156E0,-3.607386E0,-2.3858187E0,2.6953152E-1,3.2627547E0,-9.7594935E-1,4.9060547E-1,3.4058324E-1,-1.9805743E0,-3.9314578E0,-1.3846154E0,-2.188195E0,-3.7348893E0,-2.0880883E0,-3.248573E0,-2.4045951E0,6.142661E-1,4.136266E0,7.8833693E-1,-1.4183111E0,6.7243344E-1,1.6543173E0,-2.58537E-1,-3.9804524E-1,1.8627574E0,-3.67653E0,-8.5608584E-1,-3.6462328E0,-5.655317E0,-6.6446763E-1,-4.7031302E0,-3.1682932E0,-1.6403716E0,-3.5909147E0,-4.673322E0,-2.2917361E0,2.5670357E-2,-2.3746357E0,-3.9197617E0,-3.4539692E0,-5.64653E-1,1.2345268E0,-9.116381E-1,5.403849E0,3.151286E0,1.7191294E0,-1.6048154E0,-1.1366196E0,-3.1550455E0,1.3605031E0,-1.0629745E0,1.9723808E0,-7.602597E-1,-1.3898473E0,6.8331087E-1,-1.0246639E0,9.225588E-1,-1.8097918E-1,3.8245902E0,-4.895973E0,-3.0049915E0,-2.694364E0,1.5040095E-1,-3.2725494E0,-5.272519E0,-5.110746E0,-7.59463E0,1.7231902E0,-1.6542226E0,-5.744837E0,1.4466666E0,-2.142488E0,-4.4335213E0,1.3231047E0,-2.0471013E0,-3.6868281E0,-2.6612697E0,-5.0136237E0,-3.552035E0,-2.3755574E0,-6.3358235E-1,9.000428E-1,-2.2789996E0,-2.049797E0,-5.0976644E0,-4.7982616E0,-3.5535247E0,6.785622E0,-3.5407953E0,-2.169533E0,6.5513074E-1,1.4973912E0,-2.661513E0,-2.353466E0,3.9266574E-1,4.4218626E0,7.0693336E0,2.6982074E0,6.7509027E0,2.812856E0,-2.695693E-1,-4.8787017E0,-9.321499E-1,-1.5076605E0,-1.2949838E-1,-3.6165798E0,-9.615134E-1,2.2153597E0,5.488889E-1,-1.9998528E-1,-4.1136723E0,1.6073967E0,3.7934268E0,2.7886064E0,-1.551052E0,-1.9976315E0,5.003753E-1,2.7837067E0,-2.8497478E-1,-5.968962E-1,-1.1147108E-1,8.2214683E-1,-2.1270038E-1,5.860406E-2,-1.6041093E0,9.734024E-1,2.4779425E0,-1.078205E0,-1.5604646E0,-4.1321746E-1,-1.0359994E0,-1.1160051E0,-5.496815E-1,-3.9845094E-1,3.2127053E-1,-8.305931E-1,-1.3092809E0,-1.8971611E0,-1.0191545E0,-2.124306E0,-1.3255473E0,-2.358227E0,2.3931313E0,-8.420301E-1,7.5776416E-1,-3.71961E-1,-1.399979E0,-1.3589766E0,-2.0151222E0,7.3442525E-1,-1.5298954E0,-7.2640276E-1,9.671287E-1,-1.5930773E0,-8.5387653E-1,-4.7605287E-2,1.7328085E0,-4.8659638E-1,-1.0254362E0,-1.1414934E0,-9.10925E-1,-9.6694416E-1,-3.1360352E-1,-1.4519444E0,-1.798827E0,-1.3081201E0,-4.1956028E-1,-6.4753276E-1,-9.36331E-1,1.8667948E-1,-7.875292E-1,6.9127834E-1,-1.5694973E-1,3.1952314E0,-7.1835417E-1,-4.47698E-1,-9.408057E-1,-1.3068379E0,-2.1661742E0,-1.6346173E0,-1.137146E0,-8.607057E-1,-1.2692105E0,-1.4257177E0,3.8851988E0,-9.513322E-1,-1.7207863E0,-1.0154281E0,2.7614823E-1,4.6703845E-1,-5.0636953E-1,7.585915E-1,2.8610355E-1,-4.87711E-1,-2.1631415E0,-6.892957E-1,-2.0061354E1,7.1387273E-1,-1.12712555E-1,1.3908309E0,-4.8737672E-1,3.847462E0,1.9548796E0,1.1066393E0,5.765225E-1,8.060915E-1,2.4379282E0,9.8404324E-1,-3.4585673E-1,9.854355E-1,-6.719235E-1,-5.888854E-1,-1.7472023E0,-5.082208E-1,6.972078E-1,-5.383914E-1,-1.5926166E-1,-1.9004594E-1,5.851795E-1,-1.4723938E0,-8.880479E-1,5.9346664E-1,-6.803185E-1,5.6327206E-1,1.95547E0,-6.4895935E-2,4.1512376E-1,1.2308674E-1,-8.4356195E-1,-9.852954E-1,-2.3195956E0,7.5768924E-1,2.3427989E-1,-1.8922116E0,1.2472272E0,2.1263444E0,2.1365929E-1,-9.715607E-2,-8.0773497E-1,-7.015256E-1,2.7969135E-2,8.635051E-1,5.4459292E-2,1.762979E0,2.747848E-1,-2.135634E-1,1.7593038E-1],"categories":[],"categories_nodes":[],"categories_segments":[],"categories_sizes":[],"default_left":[0,0,0,0,0,0,0,0,0,0,0,0,0,0,0,0,0,0,0,0,0,0,0,0,0,0,0,0,0,0,0,0,0,0,0,0,0,0,0,0,0,0,0,0,0,0,0,0,0,0,0,0,0,0,0,0,0,0,0,0,0,0,0,0,0,0,0,0,0,0,0,0,0,0,0,0,0,0,0,0,0,0,0,0,0,0,0,0,0,0,0,0,0,0,0,0,0,0,0,0,0,0,0,0,0,0,0,0,0,0,0,0,0,0,0,0,0,0,0,0,0,0,0,0,0,0,0,0,0,0,0,0,0,0,0,0,0,0,0,0,0,0,0,0,0,0,0,0,0,0,0,0,0,0,0,0,0,0,0,0,0,0,0,0,0,0,0,0,0,0,0,0,0,0,0,0,0,0,0,0,0,0,0,0,0,0,0,0,0,0,0,0,0,0,0,0,0,0,0,0,0,0,0,0,0,0,0,0,0,0,0,0,0,0,0,0,0,0,0,0,0,0,0,0,0,0,0,0,0,0,0,0,0,0,0,0,0,0,0,0,0,0,0,0,0,0,0,0,0,0,0,0,0,0,0],"id":3,"left_children":[1,3,5,7,9,11,13,15,17,19,21,23,25,27,29,31,33,35,37,39,41,43,45,47,49,51,53,55,57,59,61,63,65,67,69,71,73,75,77,79,81,83,85,87,89,91,93,95,97,99,101,103,105,107,109,111,113,115,117,119,121,123,125,127,129,131,133,135,137,139,141,143,145,147,149,151,153,155,157,159,161,163,165,167,169,171,173,175,177,179,181,183,185,187,189,191,193,195,197,199,201,203,205,207,209,211,213,215,217,219,221,223,225,227,229,231,233,235,237,239,241,243,245,247,249,251,253,-1,-1,-1,-1,-1,-1,-1,-1,-1,-1,-1,-1,-1,-1,-1,-1,-1,-1,-1,-1,-1,-1,-1,-1,-1,-1,-1,-1,-1,-1,-1,-1,-1,-1,-1,-1,-1,-1,-1,-1,-1,-1,-1,-1,-1,-1,-1,-1,-1,-1,-1,-1,-1,-1,-1,-1,-1,-1,-1,-1,-1,-1,-1,-1,-1,-1,-1,-1,-1,-1,-1,-1,-1,-1,-1,-1,-1,-1,-1,-1,-1,-1,-1,-1,-1,-1,-1,-1,-1,-1,-1,-1,-1,-1,-1,-1,-1,-1,-1,-1,-1,-1,-1,-1,-1,-1,-1,-1,-1,-1,-1,-1,-1,-1,-1,-1,-1,-1,-1,-1,-1,-1,-1,-1,-1,-1,-1,-1],"loss_changes":[3.6369353E5,5.74855E4,2.573786E5,3.4503977E4,1.25655E4,1.5992506E5,9.106274E4,3.9430668E4,1.2922367E4,2.3440312E3,6.1454688E3,2.6623984E4,1.0102859E5,5.06944E4,9.440525E4,2.0686002E4,2.3173633E4,2.3719297E3,8.0672993E3,5.7145557E2,1.5945469E3,7.666172E3,3.5940352E3,6.365789E3,2.4213422E4,4.3116438E4,2.717192E4,2.6811727E4,1.7566387E4,3.2571914E4,7.0197555E4,1.0252203E4,2.410161E4,3.9528633E3,1.3523537E4,2.5217852E3,6.8883203E2,6.5630825E3,3.8648936E3,4.88886E2,8.3559436E2,9.125E2,5.8622656E2,2.2562188E3,3.15776E3,2.352171E3,1.1003477E3,1.8910605E3,2.3485913E3,1.8631896E4,1.3905945E4,2.4672719E4,3.1691547E4,1.9102424E4,7.5182705E3,1.7624195E4,7.740297E3,7.307418E3,1.0996045E4,2.4901078E4,1.38596E4,3.438601E4,7.3117336E4,5.2944434E3,1.1827635E4,5.726477E3,7.8616836E3,6.652031E2,2.2770723E3,2.2797441E3,6.4309067E3,1.8583398E3,1.5144238E3,7.066006E2,6.8016895E2,2.9669167E3,2.444401E3,5.778828E2,5.8937695E2,3.2803583E2,2.2285156E2,5.551732E2,3.4882178E2,7.087969E2,8.7825195E2,1.7794336E2,6.4148486E2,2.496086E3,1.9599467E3,2.2714958E3,6.6923315E2,1.4413408E3,4.1562598E2,6.4732227E2,1.125832E3,1.3419285E3,1.6722148E3,1.9482495E3,1.4434379E3,9.551953E3,5.406911E3,1.2492998E4,5.929033E3,1.2320234E4,1.7745531E4,1.32770625E4,1.21253125E4,1.0503613E4,2.1834777E4,1.5927207E3,7.03741E3,9.660422E3,1.3314155E4,5.342086E3,5.1154277E3,7.4439688E3,3.4532273E3,5.1927085E3,2.7384014E3,2.3689719E4,2.3027438E4,8.029174E3,5.655242E3,1.6137797E4,5.521475E3,6.552628E4,9.154776E3,0E0,0E0,0E0,0E0,0E0,0E0,0E0,0E0,0E0,0E0,0E0,0E0,0E0,0E0,0E0,0E0,0E0,0E0,0E0,0E0,0E0,0E0,0E0,0E0,0E0,0E0,0E0,0E0,0E0,0E0,0E0,0E0,0E0,0E0,0E0,0E0,0E0,0E0,0E0,0E0,0E0,0E0,0E0,0E0,0E0,0E0,0E0,0E0,0E0,0E0,0E0,0E0,0E0,0E0,0E0,0E0,0E0,0E0,0E0,0E0,0E0,0E0,0E0,0E0,0E0,0E0,0E0,0E0,0E0,0E0,0E0,0E0,0E0,0E0,0E0,0E0,0E0,0E0,0E0,0E0,0E0,0E0,0E0,0E0,0E0,0E0,0E0,0E0,0E0,0E0,0E0,0E0,0E0,0E0,0E0,0E0,0E0,0E0,0E0,0E0,0E0,0E0,0E0,0E0,0E0,0E0,0E0,0E0,0E0,0E0,0E0,0E0,0E0,0E0,0E0,0E0,0E0,0E0,0E0,0E0,0E0,0E0,0E0,0E0,0E0,0E0,0E0,0E0],"parents":[2147483647,0,0,1,1,2,2,3,3,4,4,5,5,6,6,7,7,8,8,9,9,10,10,11,11,12,12,13,13,14,14,15,15,16,16,17,17,18,18,19,19,20,20,21,21,22,22,23,23,24,24,25,25,26,26,27,27,28,28,29,29,30,30,31,31,32,32,33,33,34,34,35,35,36,36,37,37,38,38,39,39,40,40,41,41,42,42,43,43,44,44,45,45,46,46,47,47,48,48,49,49,50,50,51,51,52,52,53,53,54,54,55,55,56,56,57,57,58,58,59,59,60,60,61,61,62,62,63,63,64,64,65,65,66,66,67,67,68,68,69,69,70,70,71,71,72,72,73,73,74,74,75,75,76,76,77,77,78,78,79,79,80,80,81,81,82,82,83,83,84,84,85,85,86,86,87,87,88,88,89,89,90,90,91,91,92,92,93,93,94,94,95,95,96,96,97,97,98,98,99,99,100,100,101,101,102,102,103,103,104,104,105,105,106,106,107,107,108,108,109,109,110,110,111,111,112,112,113,113,114,114,115,115,116,116,117,117,118,118,119,119,120,120,121,121,122,122,123,123,124,124,125,125,126,126],"right_children":[2,4,6,8,10,12,14,16,18,20,22,24,26,28,30,32,34,36,38,40,42,44,46,48,50,52,54,56,58,60,62,64,66,68,70,72,74,76,78,80,82,84,86,88,90,92,94,96,98,100,102,104,106,108,110,112,114,116,118,120,122,124,126,128,130,132,134,136,138,140,142,144,146,148,150,152,154,156,158,160,162,164,166,168,170,172,174,176,178,180,182,184,186,188,190,192,194,196,198,200,202,204,206,208,210,212,214,216,218,220,222,224,226,228,230,232,234,236,238,240,242,244,246,248,250,252,254,-1,-1,-1,-1,-1,-1,-1,-1,-1,-1,-1,-1,-1,-1,-1,-1,-1,-1,-1,-1,-1,-1,-1,-1,-1,-1,-1,-1,-1,-1,-1,-1,-1,-1,-1,-1,-1,-1,-1,-1,-1,-1,-1,-1,-1,-1,-1,-1,-1,-1,-1,-1,-1,-1,-1,-1,-1,-1,-1,-1,-1,-1,-1,-1,-1,-1,-1,-1,-1,-1,-1,-1,-1,-1,-1,-1,-1,-1,-1,-1,-1,-1,-1,-1,-1,-1,-1,-1,-1,-1,-1,-1,-1,-1,-1,-1,-1,-1,-1,-1,-1,-1,-1,-1,-1,-1,-1,-1,-1,-1,-1,-1,-1,-1,-1,-1,-1,-1,-1,-1,-1,-1,-1,-1,-1,-1,-1,-1],"split_conditions":[-5E-1,6.123234E-17,-5E-1,2.4E0,-1.8369701E-16,1.934561E1,5E-1,5E-1,2.293E3,-8.660254E-1,2E0,-9.920774E1,2.1E0,1E0,-1.8369701E-16,6.123234E-17,1.934561E1,4.6E0,2.5881904E-1,2.246E3,2.594E3,1.8E1,-5E-1,1.9E1,5E-1,-8.660254E-1,3.1E0,8.5E1,1.9E0,7E1,-9.911959E1,2.1E1,1E-1,-1.8369701E-16,-1.8369701E-16,-2.4492937E-16,-7.0710677E-1,1E0,1.9360794E1,2.1E0,2.249E3,-9.9009384E1,1.3E1,9.794878E5,1.9468405E1,1.94827E1,7.363498E5,5E0,2.7E1,4.3E0,1.9291967E1,8.660254E-1,-9.9009384E1,1.9460415E1,1.6E1,1.4E1,-5E-1,5E-1,5E-1,8.983716E5,1.91769E1,1.942461E1,1.2E0,7.363498E5,-9.910363E1,8.983716E5,9.794878E5,2.249E3,2.249E3,8E0,8E0,1.9460415E1,-9.903033E1,3.1E1,1.9529078E1,3E1,4.5E0,2.7E0,3.5E0,8.2E1,6E1,6.7E1,2.594E3,1.7E1,1.6E1,1.9272161E1,1.1E0,-9.909452E1,7.4E1,1.2E0,-9.920414E1,3.9E0,6.6E1,-9.909452E1,2.6E0,7E-1,3.1E0,2.3E1,3E0,-9.917611E1,8.660254E-1,7.7E0,1.9325146E1,-9.899019E1,1.9360794E1,7.783208E5,-5E-1,5.1E1,-9.907388E1,3.4E0,2.293E3,1.9E1,-9.902821E1,-9.917611E1,2.249E3,9.794878E5,5.1E1,1.5E1,3.1E0,8.660254E-1,1.1E1,8.3E1,7.7E1,1.9E1,-2.5881904E-1,1.2E1,8.85541E5,-5.968962E-1,-1.1147108E-1,8.2214683E-1,-2.1270038E-1,5.860406E-2,-1.6041093E0,9.734024E-1,2.4779425E0,-1.078205E0,-1.5604646E0,-4.1321746E-1,-1.0359994E0,-1.1160051E0,-5.496815E-1,-3.9845094E-1,3.2127053E-1,-8.305931E-1,-1.3092809E0,-1.8971611E0,-1.0191545E0,-2.124306E0,-1.3255473E0,-2.358227E0,2.3931313E0,-8.420301E-1,7.5776416E-1,-3.71961E-1,-1.399979E0,-1.3589766E0,-2.0151222E0,7.3442525E-1,-1.5298954E0,-7.2640276E-1,9.671287E-1,-1.5930773E0,-8.5387653E-1,-4.7605287E-2,1.7328085E0,-4.8659638E-1,-1.0254362E0,-1.1414934E0,-9.10925E-1,-9.6694416E-1,-3.1360352E-1,-1.4519444E0,-1.798827E0,-1.3081201E0,-4.1956028E-1,-6.4753276E-1,-9.36331E-1,1.8667948E-1,-7.875292E-1,6.9127834E-1,-1.5694973E-1,3.1952314E0,-7.1835417E-1,-4.47698E-1,-9.408057E-1,-1.3068379E0,-2.1661742E0,-1.6346173E0,-1.137146E0,-8.607057E-1,-1.2692105E0,-1.4257177E0,3.8851988E0,-9.513322E-1,-1.7207863E0,-1.0154281E0,2.7614823E-1,4.6703845E-1,-5.0636953E-1,7.585915E-1,2.8610355E-1,-4.87711E-1,-2.1631415E0,-6.892957E-1,-2.0061354E1,7.1387273E-1,-1.12712555E-1,1.3908309E0,-4.8737672E-1,3.847462E0,1.9548796E0,1.1066393E0,5.765225E-1,8.060915E-1,2.4379282E0,9.8404324E-1,-3.4585673E-1,9.854355E-1,-6.719235E-1,-5.888854E-1,-1.7472023E0,-5.082208E-1,6.972078E-1,-5.383914E-1,-1.5926166E-1,-1.9004594E-1,5.851795E-1,-1.4723938E0,-8.880479E-1,5.9346664E-1,-6.803185E-1,5.6327206E-1,1.95547E0,-6.4895935E-2,4.1512376E-1,1.2308674E-1,-8.4356195E-1,-9.852954E-1,-2.3195956E0,7.5768924E-1,2.3427989E-1,-1.8922116E0,1.2472272E0,2.1263444E0,2.1365929E-1,-9.715607E-2,-8.0773497E-1,-7.015256E-1,2.7969135E-2,8.635051E-1,5.4459292E-2,1.762979E0,2.747848E-1,-2.135634E-1,1.7593038E-1],"split_indices":[7,6,6,11,8,0,7,5,2,5,11,1,11,8,8,8,0,11,5,2,2,9,5,9,5,6,11,10,11,10,1,9,11,8,8,5,5,4,0,11,2,1,9,3,0,0,3,10,10,11,0,8,1,0,9,4,8,6,5,3,0,0,11,3,1,3,3,2,2,4,4,0,1,10,0,10,11,11,11,10,10,10,2,4,9,0,11,1,10,11,1,11,10,1,11,11,11,9,11,1,8,11,0,1,0,3,8,10,1,11,2,9,1,1,2,3,10,4,11,7,10,10,10,9,6,9,3,0,0,0,0,0,0,0,0,0,0,0,0,0,0,0,0,0,0,0,0,0,0,0,0,0,0,0,0,0,0,0,0,0,0,0,0,0,0,0,0,0,0,0,0,0,0,0,0,0,0,0,0,0,0,0,0,0,0,0,0,0,0,0,0,0,0,0,0,0,0,0,0,0,0,0,0,0,0,0,0,0,0,0,0,0,0,0,0,0,0,0,0,0,0,0,0,0,0,0,0,0,0,0,0,0,0,0,0,0,0,0,0,0,0,0,0,0,0,0,0,0,0,0,0,0,0,0,0],"split_type":[0,0,0,0,0,0,0,0,0,0,0,0,0,0,0,0,0,0,0,0,0,0,0,0,0,0,0,0,0,0,0,0,0,0,0,0,0,0,0,0,0,0,0,0,0,0,0,0,0,0,0,0,0,0,0,0,0,0,0,0,0,0,0,0,0,0,0,0,0,0,0,0,0,0,0,0,0,0,0,0,0,0,0,0,0,0,0,0,0,0,0,0,0,0,0,0,0,0,0,0,0,0,0,0,0,0,0,0,0,0,0,0,0,0,0,0,0,0,0,0,0,0,0,0,0,0,0,0,0,0,0,0,0,0,0,0,0,0,0,0,0,0,0,0,0,0,0,0,0,0,0,0,0,0,0,0,0,0,0,0,0,0,0,0,0,0,0,0,0,0,0,0,0,0,0,0,0,0,0,0,0,0,0,0,0,0,0,0,0,0,0,0,0,0,0,0,0,0,0,0,0,0,0,0,0,0,0,0,0,0,0,0,0,0,0,0,0,0,0,0,0,0,0,0,0,0,0,0,0,0,0,0,0,0,0,0,0,0,0,0,0,0,0,0,0,0,0,0,0,0,0,0,0,0,0],"sum_hessian":[3.29166E5,7.5738E4,2.53428E5,3.879E4,3.6948E4,7.562E4,1.77808E5,3.0549E4,8.241E3,1.2998E4,2.395E4,2.8878E4,4.6742E4,6.952E4,1.08288E5,1.8397E4,1.2152E4,4.865E3,3.376E3,1.073E3,1.1925E4,1.7808E4,6.142E3,3.297E3,2.5581E4,3.4546E4,1.2196E4,5.4811E4,1.4709E4,4.2409E4,6.5879E4,1.2387E4,6.01E3,4.844E3,7.308E3,4.177E3,6.88E2,2.775E3,6.01E2,3.83E2,6.9E2,1.0343E4,1.582E3,1.6243E4,1.565E3,2.67E3,3.472E3,2.099E3,1.198E3,1.8188E4,7.393E3,1.5104E4,1.9442E4,8.781E3,3.415E3,4.7163E4,7.648E3,1.0533E4,4.176E3,3.7473E4,4.936E3,2.9929E4,3.595E4,8.401E3,3.986E3,2.944E3,3.066E3,1.718E3,3.126E3,2.585E3,4.723E3,3.399E3,7.78E2,5.4E2,1.48E2,8.13E2,1.962E3,5.14E2,8.7E1,2.13E2,1.7E2,8.3E1,6.07E2,9.373E3,9.7E2,1.211E3,3.71E2,1.5461E4,7.82E2,1.135E3,4.3E2,2.387E3,2.83E2,1.018E3,2.454E3,1.7E1,2.082E3,5.17E2,6.81E2,1.7039E4,1.149E3,3.511E3,3.882E3,9.504E3,5.6E3,1.727E4,2.172E3,5.665E3,3.116E3,5.81E2,2.834E3,3.4465E4,1.2698E4,6.318E3,1.33E3,5.129E3,5.404E3,3.256E3,9.2E2,3.1218E4,6.255E3,8.99E2,4.037E3,2.2647E4,7.282E3,1.1343E4,2.4607E4,3.39E3,5.011E3,1.885E3,2.101E3,2.745E3,1.99E2,2.713E3,3.53E2,3.29E2,1.389E3,6.76E2,2.45E3,1.179E3,1.406E3,1.812E3,2.911E3,2.328E3,1.071E3,4.97E2,2.81E2,1.38E2,4.02E2,1.46E2,2E0,1.22E2,6.91E2,1.726E3,2.36E2,2.31E2,2.83E2,7.6E1,1.1E1,2.03E2,1E1,1.08E2,6.2E1,6.3E1,2E1,4.65E2,1.42E2,7.928E3,1.445E3,7.19E2,2.51E2,1.034E3,1.77E2,2.69E2,1.02E2,1.1977E4,3.484E3,4.8E2,3.02E2,5.71E2,5.64E2,3E0,4.27E2,1.579E3,8.08E2,2.12E2,7.1E1,6.16E2,4.02E2,1.223E3,1.231E3,6E0,1.1E1,1.784E3,2.98E2,3.71E2,1.46E2,4.92E2,1.89E2,5.881E3,1.1158E4,9.37E2,2.12E2,3.509E3,2E0,1.082E3,2.8E3,9.179E3,3.25E2,4.89E2,5.111E3,7.587E3,9.683E3,5.5E2,1.622E3,5.068E3,5.97E2,1.111E3,2.005E3,1.43E2,4.38E2,2.297E3,5.37E2,2.6638E4,7.827E3,1.0222E4,2.476E3,2.127E3,4.191E3,4.09E2,9.21E2,4.757E3,3.72E2,2.82E3,2.584E3,2.64E3,6.16E2,7.5E2,1.7E2,1.4787E4,1.6431E4,2.17E2,6.038E3,2.92E2,6.07E2,1.946E3,2.091E3,1.9473E4,3.174E3,8.6E2,6.422E3,4.27E3,7.073E3,1.6516E4,8.091E3],"tree_param":{"num_deleted":"0","num_feature":"12","num_nodes":"255","size_leaf_vector":"1"}},{"base_weights":[-3.0581158E-4,-7.1881956E-1,8.144818E-1,-1.2056353E0,6.2029403E-1,1.7624421E0,2.2737198E-1,-7.0662075E-1,-1.985757E0,1.8025609E0,-1.3407634E-1,2.350463E0,-5.980874E-1,8.1236005E-1,-6.6923934E-1,3.071131E-1,-1.1289772E0,-1.7775722E0,-3.0574389E0,2.2615807E0,-1.6214811E0,2.0287879E-1,-1.4554881E0,8.0216163E-1,3.1473548E0,1.19446605E-1,-4.954246E0,-4.986526E-1,1.1990927E0,-1.6437291E0,2.0157002E-1,9.307296E-1,-1.111241E0,-9.418745E-1,-1.9967546E0,-1.4248682E0,-2.3052194E0,-4.730636E0,-2.7386954E0,7.7293843E-1,3.0642605E0,-4.3968153E-1,-5.1398034E0,7.568936E-1,-6.219667E-1,-9.3354464E-1,-3.2465785E0,1.6544485E0,-4.8787186E-1,1.6490079E0,4.0715284E0,-1.7189666E0,1.118676E0,-4.822814E0,-4.046953E1,-9.9420387E-1,1.2839108E0,-5.1349825E-1,1.5240391E0,-2.2241771E0,-7.589992E-1,2.202933E0,-4.7581345E-1,-5.4238534E-1,1.6561965E0,-7.379664E-1,-4.4792447E0,-1.3786083E0,-2.1204677E-1,-2.9328558E0,-1.1864653E0,-1.6414562E0,-1.8121102E-1,-1.3448882E0,-2.657328E0,-5.084382E0,-1.1073895E0,-2.1942172E0,-3.4289525E0,2.5989044E0,-1.0481057E0,3.961994E0,1.3857329E0,5.3431696E-1,-2.896094E0,-3.0074582E0,-7.936466E0,-2.2357153E-2,1.5977429E0,1.5767956E-2,-2.0732026E0,-2.821733E0,-4.1587922E-1,-3.3229063E0,1.3832191E1,1.8618236E0,-1.9448987E0,-1.3736031E0,1.3516635E0,6.819158E-1,3.0269654E0,1.5043027E0,4.820051E0,-2.869982E0,1.5004945E-1,3.114789E0,2.3410328E-1,-3.2071335E0,-6.4404745E0,-1.5203232E1,-2.5020153E1,-8.5830234E-2,-1.6927096E0,8.3081946E-2,2.5654876E0,5.303245E-1,-1.5376643E0,1.7203759E0,-6.568015E-1,-1.9724562E0,-3.4423144E0,-9.327191E-1,1.577968E0,3.8748207E0,1.5722483E-1,4.264124E-1,-9.2355835E-1,1.1689387E-1,-3.4492734E-1,8.334087E-2,7.2911155E-1,-6.974554E-2,-8.0558604E-1,-8.720433E-1,-1.633731E0,-6.189624E-1,-3.1118476E-1,-2.605016E-1,1.399186E-1,-1.0224E0,-6.940908E-1,-8.447718E-1,-2.5735378E-1,-5.9788465E-1,-3.1115693E-1,4.58677E-1,-1.894287E-1,-3.7360084E-1,-1.8166225E0,-3.7883782E-1,-8.6625427E-1,-1.4568213E0,-2.23827E0,-1.5269467E0,-2.3645252E-2,-4.0760162E-1,-8.520296E-1,-8.934393E-1,-1.5182314E0,2.7727023E-1,1.2584221E0,-8.635352E-1,1.4719346E-1,1.3546796E0,6.74302E-1,-1.0232188E0,8.831312E-1,-1.5341435E-1,8.167207E-1,-1.3364681E0,-4.252483E-1,-5.772413E-1,-2.608294E0,-2.5541008E0,-1.5790876E0,2.1684128E-1,-6.858038E-1,7.109845E-1,1.7902376E-2,5.797288E-1,-1.1835852E-1,-8.701582E-1,-2.548525E-1,-5.684401E-1,-1.5447193E0,7.2937846E-2,-4.778042E-1,-9.2918366E-1,-2.228669E0,1.2111467E0,6.684453E0,1.14933364E-1,6.5655947E-1,1.1564734E0,-6.9082326E-1,6.65007E-2,-8.2244027E-1,-2.5327802E-1,6.2525403E-1,2.5815707E-1,-1.6163715E0,1.8840721E0,7.2171974E-1,8.560364E-1,-1.5748249E-1,6.995793E-1,1.5820894E0,-1.3150561E0,-5.4196084E-1,4.3373494E-3,6.9037137E0,1.2970226E0,-2.0523E-1,4.197243E-1,-3.4025213E-1,-1.2618297E0,-3.7316453E-1,-1.8000709E0,-3.2734292E0,-6.5952926E0,-1.0063231E0,4.4036317E-1,-2.7496302E-1,-1.3074566E0,-3.230418E-1,-1.4297683E0,1.0931227E-1,4.3788803E-1,1.1684337E0,-5.4727274E-1,3.6259577E-1,-7.5020003E-1,1.6595413E-1,4.6206322E-1,1.0918912E0,2.813265E-1,-5.6960195E-1,-2.4703358E-1,-6.584951E-1,-1.5444344E0,-6.3702536E-1,-3.324147E-1,9.261322E-2,-1.1237466E0,1.413483E0,7.889082E-1,3.177034E0,-2.777892E-1,2.2818863E-1,5.5116437E-2,1.5360056E0,-1.2855975E-1,-1.0462669E0],"categories":[],"categories_nodes":[],"categories_segments":[],"categories_sizes":[],"default_left":[0,0,0,0,0,0,0,0,0,0,0,0,0,0,0,0,0,0,0,0,0,0,0,0,0,0,0,0,0,0,0,0,0,0,0,0,0,0,0,0,0,0,0,0,0,0,0,0,0,0,0,0,0,0,0,0,0,0,0,0,0,0,0,0,0,0,0,0,0,0,0,0,0,0,0,0,0,0,0,0,0,0,0,0,0,0,0,0,0,0,0,0,0,0,0,0,0,0,0,0,0,0,0,0,0,0,0,0,0,0,0,0,0,0,0,0,0,0,0,0,0,0,0,0,0,0,0,0,0,0,0,0,0,0,0,0,0,0,0,0,0,0,0,0,0,0,0,0,0,0,0,0,0,0,0,0,0,0,0,0,0,0,0,0,0,0,0,0,0,0,0,0,0,0,0,0,0,0,0,0,0,0,0,0,0,0,0,0,0,0,0,0,0,0,0,0,0,0,0,0,0,0,0,0,0,0,0,0,0,0,0,0,0,0,0,0,0,0,0,0,0,0,0,0,0,0,0,0,0,0,0,0,0,0,0,0,0,0,0,0,0,0,0,0,0,0,0,0,0,0,0,0,0],"id":4,"left_children":[1,3,5,7,9,11,13,15,17,19,21,23,25,27,29,31,33,35,37,39,41,43,45,47,49,51,53,55,57,59,61,63,65,67,69,71,73,75,77,79,81,83,85,87,89,91,93,95,97,99,101,103,105,107,109,111,113,115,117,119,121,123,125,127,129,131,133,135,137,139,141,143,145,147,149,151,153,155,157,159,161,163,165,167,169,171,173,175,177,179,181,183,185,187,189,191,193,195,197,199,201,203,205,207,209,211,213,215,217,219,-1,221,223,225,227,229,231,233,235,237,239,241,243,245,247,249,251,-1,-1,-1,-1,-1,-1,-1,-1,-1,-1,-1,-1,-1,-1,-1,-1,-1,-1,-1,-1,-1,-1,-1,-1,-1,-1,-1,-1,-1,-1,-1,-1,-1,-1,-1,-1,-1,-1,-1,-1,-1,-1,-1,-1,-1,-1,-1,-1,-1,-1,-1,-1,-1,-1,-1,-1,-1,-1,-1,-1,-1,-1,-1,-1,-1,-1,-1,-1,-1,-1,-1,-1,-1,-1,-1,-1,-1,-1,-1,-1,-1,-1,-1,-1,-1,-1,-1,-1,-1,-1,-1,-1,-1,-1,-1,-1,-1,-1,-1,-1,-1,-1,-1,-1,-1,-1,-1,-1,-1,-1,-1,-1,-1,-1,-1,-1,-1,-1,-1,-1,-1,-1,-1,-1,-1,-1],"loss_changes":[1.9270681E5,1.1403007E5,8.5848484E4,4.993814E4,4.1593355E4,8.188886E4,4.9962977E4,3.349892E4,1.1160016E4,2.8555223E4,1.2677192E4,5.827122E4,3.677748E4,2.9227781E4,3.191683E4,2.0354473E4,8.965289E3,7.7957344E3,4.327742E3,1.9138797E4,8.92902E3,1.0367898E4,5.4050635E3,1.7647438E4,4.3170656E4,1.8561098E4,7.572125E3,1.1601449E4,2.477339E4,9.113129E3,2.6929121E4,1.7082936E4,8.832229E3,1.448168E4,7.4261562E3,6.7660625E3,5.673133E3,1.661875E3,2.5627734E3,1.8666871E4,1.56765E4,3.8511475E3,3.1963955E3,8.89285E3,8.436922E3,4.3787793E3,1.7471396E3,7.2177266E3,1.0406783E4,1.585202E4,3.7051312E4,7.654635E3,1.1557588E4,4.3153438E3,5.240283E3,6.5200166E3,4.39658E3,7.5910557E3,1.6021891E4,3.279371E3,2.8567126E3,1.717903E4,5.995668E3,2.9865742E3,1.1428158E4,6.228241E3,1.0495479E3,6.6399727E3,7.5746553E3,1.329043E3,2.8098506E3,4.54191E3,2.8705063E3,2.1055122E3,3.9392344E3,6.067324E2,4.7885626E2,2.0608926E3,2.202207E3,7.4871367E3,7.918437E3,6.424453E3,2.7122336E4,2.6395444E3,1.0469968E3,1.8807622E3,3.1465234E2,1.1885078E4,7.7531953E3,4.981814E3,2.8150234E3,2.0698608E3,2.7286611E3,1.1813418E3,4.0661426E2,4.4142715E3,1.1026317E3,9.407708E3,3.3411108E3,7.5847812E3,9.900117E3,1.19244375E4,1.6838281E4,3.5363457E3,4.2062856E3,9.231697E3,7.233619E3,1.6265039E3,1.5642734E3,3.2799463E2,0E0,5.7681265E3,9.531814E3,2.0149706E3,2.0258711E3,5.6194478E3,7.2177256E3,1.1863781E4,6.122685E3,2.2697148E3,4.1151523E3,1.4253594E3,8.1421973E3,2.3083031E4,1.4778411E3,5.606827E3,1.2588147E4,0E0,0E0,0E0,0E0,0E0,0E0,0E0,0E0,0E0,0E0,0E0,0E0,0E0,0E0,0E0,0E0,0E0,0E0,0E0,0E0,0E0,0E0,0E0,0E0,0E0,0E0,0E0,0E0,0E0,0E0,0E0,0E0,0E0,0E0,0E0,0E0,0E0,0E0,0E0,0E0,0E0,0E0,0E0,0E0,0E0,0E0,0E0,0E0,0E0,0E0,0E0,0E0,0E0,0E0,0E0,0E0,0E0,0E0,0E0,0E0,0E0,0E0,0E0,0E0,0E0,0E0,0E0,0E0,0E0,0E0,0E0,0E0,0E0,0E0,0E0,0E0,0E0,0E0,0E0,0E0,0E0,0E0,0E0,0E0,0E0,0E0,0E0,0E0,0E0,0E0,0E0,0E0,0E0,0E0,0E0,0E0,0E0,0E0,0E0,0E0,0E0,0E0,0E0,0E0,0E0,0E0,0E0,0E0,0E0,0E0,0E0,0E0,0E0,0E0,0E0,0E0,0E0,0E0,0E0,0E0,0E0,0E0,0E0,0E0,0E0,0E0],"parents":[2147483647,0,0,1,1,2,2,3,3,4,4,5,5,6,6,7,7,8,8,9,9,10,10,11,11,12,12,13,13,14,14,15,15,16,16,17,17,18,18,19,19,20,20,21,21,22,22,23,23,24,24,25,25,26,26,27,27,28,28,29,29,30,30,31,31,32,32,33,33,34,34,35,35,36,36,37,37,38,38,39,39,40,40,41,41,42,42,43,43,44,44,45,45,46,46,47,47,48,48,49,49,50,50,51,51,52,52,53,53,54,54,55,55,56,56,57,57,58,58,59,59,60,60,61,61,62,62,63,63,64,64,65,65,66,66,67,67,68,68,69,69,70,70,71,71,72,72,73,73,74,74,75,75,76,76,77,77,78,78,79,79,80,80,81,81,82,82,83,83,84,84,85,85,86,86,87,87,88,88,89,89,90,90,91,91,92,92,93,93,94,94,95,95,96,96,97,97,98,98,99,99,100,100,101,101,102,102,103,103,104,104,105,105,106,106,107,107,108,108,109,109,111,111,112,112,113,113,114,114,115,115,116,116,117,117,118,118,119,119,120,120,121,121,122,122,123,123,124,124,125,125,126,126],"right_children":[2,4,6,8,10,12,14,16,18,20,22,24,26,28,30,32,34,36,38,40,42,44,46,48,50,52,54,56,58,60,62,64,66,68,70,72,74,76,78,80,82,84,86,88,90,92,94,96,98,100,102,104,106,108,110,112,114,116,118,120,122,124,126,128,130,132,134,136,138,140,142,144,146,148,150,152,154,156,158,160,162,164,166,168,170,172,174,176,178,180,182,184,186,188,190,192,194,196,198,200,202,204,206,208,210,212,214,216,218,220,-1,222,224,226,228,230,232,234,236,238,240,242,244,246,248,250,252,-1,-1,-1,-1,-1,-1,-1,-1,-1,-1,-1,-1,-1,-1,-1,-1,-1,-1,-1,-1,-1,-1,-1,-1,-1,-1,-1,-1,-1,-1,-1,-1,-1,-1,-1,-1,-1,-1,-1,-1,-1,-1,-1,-1,-1,-1,-1,-1,-1,-1,-1,-1,-1,-1,-1,-1,-1,-1,-1,-1,-1,-1,-1,-1,-1,-1,-1,-1,-1,-1,-1,-1,-1,-1,-1,-1,-1,-1,-1,-1,-1,-1,-1,-1,-1,-1,-1,-1,-1,-1,-1,-1,-1,-1,-1,-1,-1,-1,-1,-1,-1,-1,-1,-1,-1,-1,-1,-1,-1,-1,-1,-1,-1,-1,-1,-1,-1,-1,-1,-1,-1,-1,-1,-1,-1,-1],"split_conditions":[5E-1,8.660254E-1,-2.5881904E-1,6.5E1,-2.5881904E-1,2.6E0,5E-1,-7.0710677E-1,9E1,2.5E0,2.3E0,1.934561E1,8.660254E-1,-9.917611E1,9E0,2.1E0,3.1E0,1.6E0,-9.920774E1,1.934561E1,-2.4492937E-16,2.294E3,-2.4492937E-16,5E-1,2E1,1.8E1,9.8E1,1.9E1,2.23E3,1.942461E1,1E0,1.934561E1,3.8E0,1.4E1,2.246E3,1.8E1,-5E-1,1.4E1,9.6E1,2.5881904E-1,1.9473692E1,3.5E0,-2.4492937E-16,5E-1,8.660254E-1,2.5E1,-9.8902855E1,7.2E1,1.2E1,-2.4492937E-16,6E0,-9.902821E1,3E0,3.8E0,7.7E0,9E-1,2.8E1,1.6E0,7.3E1,2.5E0,7.3E1,8.660254E-1,1.7E0,-2.4492937E-16,6E0,2.5881904E-1,3.3E1,7.363498E5,2.249E3,8.85541E5,2.5E1,-1.8369701E-16,6E-1,1.9532969E1,1.9272161E1,1.6E0,-5E-1,-9.91596E1,3.969553E5,2.6E1,1.9304441E1,1.7E0,1.94827E1,3.6E1,1.7E1,3.6E0,8.660254E-1,1.9473692E1,1.1E0,6.123234E-17,1.932611E1,3.9E0,-7.0710677E-1,4.5E0,-2.4492937E-16,-9.92046E1,-2.4492937E-16,2.5881904E-1,2.8E1,-9.899019E1,-5E-1,5E-1,2.227E3,1.1E1,8.1E0,2.5881904E-1,-1.8369701E-16,-9.902821E1,7.0710677E-1,2.5881904E-1,-2.5020153E1,8.660254E-1,3.3E1,8E0,2.1E1,1.6E1,2.5E1,1.6E1,1.91769E1,-8.660254E-1,8.660254E-1,2.1E1,1E-1,8.983716E5,2.246E3,1.066051E6,7.0710677E-1,1.1689387E-1,-3.4492734E-1,8.334087E-2,7.2911155E-1,-6.974554E-2,-8.0558604E-1,-8.720433E-1,-1.633731E0,-6.189624E-1,-3.1118476E-1,-2.605016E-1,1.399186E-1,-1.0224E0,-6.940908E-1,-8.447718E-1,-2.5735378E-1,-5.9788465E-1,-3.1115693E-1,4.58677E-1,-1.894287E-1,-3.7360084E-1,-1.8166225E0,-3.7883782E-1,-8.6625427E-1,-1.4568213E0,-2.23827E0,-1.5269467E0,-2.3645252E-2,-4.0760162E-1,-8.520296E-1,-8.934393E-1,-1.5182314E0,2.7727023E-1,1.2584221E0,-8.635352E-1,1.4719346E-1,1.3546796E0,6.74302E-1,-1.0232188E0,8.831312E-1,-1.5341435E-1,8.167207E-1,-1.3364681E0,-4.252483E-1,-5.772413E-1,-2.608294E0,-2.5541008E0,-1.5790876E0,2.1684128E-1,-6.858038E-1,7.109845E-1,1.7902376E-2,5.797288E-1,-1.1835852E-1,-8.701582E-1,-2.548525E-1,-5.684401E-1,-1.5447193E0,7.2937846E-2,-4.778042E-1,-9.2918366E-1,-2.228669E0,1.2111467E0,6.684453E0,1.14933364E-1,6.5655947E-1,1.1564734E0,-6.9082326E-1,6.65007E-2,-8.2244027E-1,-2.5327802E-1,6.2525403E-1,2.5815707E-1,-1.6163715E0,1.8840721E0,7.2171974E-1,8.560364E-1,-1.5748249E-1,6.995793E-1,1.5820894E0,-1.3150561E0,-5.4196084E-1,4.3373494E-3,6.9037137E0,1.2970226E0,-2.0523E-1,4.197243E-1,-3.4025213E-1,-1.2618297E0,-3.7316453E-1,-1.8000709E0,-3.2734292E0,-6.5952926E0,-1.0063231E0,4.4036317E-1,-2.7496302E-1,-1.3074566E0,-3.230418E-1,-1.4297683E0,1.0931227E-1,4.3788803E-1,1.1684337E0,-5.4727274E-1,3.6259577E-1,-7.5020003E-1,1.6595413E-1,4.6206322E-1,1.0918912E0,2.813265E-1,-5.6960195E-1,-2.4703358E-1,-6.584951E-1,-1.5444344E0,-6.3702536E-1,-3.324147E-1,9.261322E-2,-1.1237466E0,1.413483E0,7.889082E-1,3.177034E0,-2.777892E-1,2.2818863E-1,5.5116437E-2,1.5360056E0,-1.2855975E-1,-1.0462669E0],"split_indices":[7,8,6,10,6,11,8,6,10,11,11,0,8,1,4,11,11,11,1,0,5,2,5,8,10,10,10,9,2,0,11,0,11,9,2,9,5,9,10,5,0,11,7,5,5,10,1,10,4,5,4,1,4,11,11,11,10,11,10,11,10,7,11,5,4,5,10,3,2,3,10,8,11,0,0,11,6,1,3,10,0,11,0,10,9,11,5,0,11,6,0,11,5,11,7,1,5,5,10,1,8,8,2,10,11,5,8,1,5,5,0,7,10,10,9,9,9,4,0,5,7,9,11,3,2,3,5,0,0,0,0,0,0,0,0,0,0,0,0,0,0,0,0,0,0,0,0,0,0,0,0,0,0,0,0,0,0,0,0,0,0,0,0,0,0,0,0,0,0,0,0,0,0,0,0,0,0,0,0,0,0,0,0,0,0,0,0,0,0,0,0,0,0,0,0,0,0,0,0,0,0,0,0,0,0,0,0,0,0,0,0,0,0,0,0,0,0,0,0,0,0,0,0,0,0,0,0,0,0,0,0,0,0,0,0,0,0,0,0,0,0,0,0,0,0,0,0,0,0,0,0,0,0],"split_type":[0,0,0,0,0,0,0,0,0,0,0,0,0,0,0,0,0,0,0,0,0,0,0,0,0,0,0,0,0,0,0,0,0,0,0,0,0,0,0,0,0,0,0,0,0,0,0,0,0,0,0,0,0,0,0,0,0,0,0,0,0,0,0,0,0,0,0,0,0,0,0,0,0,0,0,0,0,0,0,0,0,0,0,0,0,0,0,0,0,0,0,0,0,0,0,0,0,0,0,0,0,0,0,0,0,0,0,0,0,0,0,0,0,0,0,0,0,0,0,0,0,0,0,0,0,0,0,0,0,0,0,0,0,0,0,0,0,0,0,0,0,0,0,0,0,0,0,0,0,0,0,0,0,0,0,0,0,0,0,0,0,0,0,0,0,0,0,0,0,0,0,0,0,0,0,0,0,0,0,0,0,0,0,0,0,0,0,0,0,0,0,0,0,0,0,0,0,0,0,0,0,0,0,0,0,0,0,0,0,0,0,0,0,0,0,0,0,0,0,0,0,0,0,0,0,0,0,0,0,0,0,0,0,0,0,0,0,0,0,0,0,0,0,0,0,0,0,0,0,0,0,0,0],"sum_hessian":[3.29166E5,1.74917E5,1.54249E5,1.28282E5,4.6635E4,5.8994E4,9.5255E4,7.8238E4,5.0044E4,1.8165E4,2.847E4,4.7229E4,1.1765E4,5.7645E4,3.761E4,2.301E4,5.5228E4,4.1906E4,8.138E3,1.6018E4,2.147E3,2.2686E4,5.784E3,1.6049E4,3.118E4,1.0102E4,1.663E3,1.3131E4,4.4514E4,1.7748E4,1.9862E4,1.5983E4,7.027E3,4.5434E4,9.794E3,2.5119E4,1.6787E4,1.3E3,6.838E3,5.612E3,1.0406E4,1.608E3,5.39E2,1.3571E4,9.115E3,4.48E3,1.304E3,9.664E3,6.385E3,1.1896E4,1.9284E4,3.557E3,6.545E3,1.658E3,5E0,1.0275E4,2.856E3,7.099E3,3.7415E4,1.0716E4,7.032E3,5.022E3,1.484E4,5.274E3,1.0709E4,6.327E3,7E2,2.8424E4,1.701E4,4.543E3,5.251E3,2.1393E4,3.726E3,4.505E3,1.2282E4,1.184E3,1.16E2,3.825E3,3.013E3,2.802E3,2.81E3,6.779E3,3.627E3,1.152E3,4.56E2,3.07E2,2.32E2,7.044E3,6.527E3,6.333E3,2.782E3,9.63E2,3.517E3,1.299E3,5E0,9.138E3,5.26E2,4.31E3,2.075E3,6.991E3,4.905E3,4.354E3,1.493E4,2.201E3,1.356E3,2.009E3,4.536E3,8.31E2,8.27E2,4E0,1E0,4.467E3,5.808E3,1.475E3,1.381E3,3.516E3,3.583E3,3.4325E4,3.09E3,8.883E3,1.833E3,6.546E3,4.86E2,2.763E3,2.259E3,4.922E3,9.918E3,2.081E3,3.193E3,3.852E3,6.857E3,5.024E3,1.303E3,2.68E2,4.32E2,9.455E3,1.8969E4,8.646E3,8.364E3,2.568E3,1.975E3,8.8E2,4.371E3,1.3524E4,7.869E3,7.76E2,2.95E3,4.413E3,9.2E1,1.741E3,1.0541E4,1.083E3,1.01E2,2.3E1,9.3E1,1.669E3,2.156E3,2.363E3,6.5E2,1.368E3,1.434E3,1.283E3,1.527E3,5.123E3,1.656E3,8.89E2,2.738E3,7.8E2,3.72E2,2.21E2,2.35E2,2.59E2,4.8E1,1.89E2,4.3E1,5.3E3,1.744E3,4.345E3,2.182E3,1.116E3,5.217E3,1.659E3,1.123E3,6.9E2,2.73E2,2.255E3,1.262E3,1.233E3,6.6E1,3E0,2E0,1.654E3,7.484E3,3E1,4.96E2,1.99E3,2.32E3,5.19E2,1.556E3,6.792E3,1.99E2,7.85E2,4.12E3,2.615E3,1.739E3,2.303E3,1.2627E4,9.07E2,1.294E3,1.349E3,7E0,1.524E3,4.85E2,2.45E3,2.086E3,5.5E2,2.81E2,7.55E2,7.2E1,2E0,2E0,1.556E3,2.911E3,1.089E3,4.719E3,8E1,1.395E3,7.55E2,6.26E2,7.86E2,2.73E3,2.453E3,1.13E3,3.1381E4,2.944E3,1.353E3,1.737E3,1.442E3,7.441E3,7.98E2,1.035E3,5.736E3,8.1E2,1.8E2,3.06E2,2.332E3,4.31E2,8.08E2,1.451E3,4.681E3,2.41E2,8.314E3,1.604E3],"tree_param":{"num_deleted":"0","num_feature":"12","num_nodes":"253","size_leaf_vector":"1"}},{"base_weights":[-3.6884318E-4,-6.9507325E-1,4.3716913E-1,3.4128052E-1,-9.785959E-1,1.865589E0,2.2782302E-1,-5.5754364E-1,9.212286E-1,-1.2509675E0,-5.7207686E-1,-4.2336452E-1,2.5484746E0,7.0485875E-2,1.621324E0,-3.1871388E0,-3.4078872E-1,1.7184186E0,-3.5230023E-1,-1.4180661E0,-7.268071E-1,-7.298839E-2,-1.1587592E0,2.6427844E0,-7.8166586E-1,-3.0649012E-1,2.9756806E0,2.612973E-1,-8.313975E-1,3.477217E0,1.0507252E0,-4.008695E0,-2.0134332E0,5.654985E-1,-9.400579E-1,2.1115518E0,2.2125136E-2,-2.7671647E0,1.2116672E0,-9.4223034E-1,-1.6753278E0,-2.3590572E-1,-1.2034231E0,2.219916E-1,-1.9165149E0,-9.6464074E-1,-2.1282792E0,6.650018E0,8.338359E-1,-2.4764895E0,-3.00342E-1,9.257123E-1,-2.8686965E0,1.9047245E0,3.862584E0,3.7827042E-1,-1.4261906E0,-4.443604E-1,-2.6669369E0,1.9390489E0,6.779082E0,1.4252043E0,-2.1233435E0,-6.770729E0,-3.4791818E0,6.5427895E0,-2.2942412E0,-8.637959E-1,1.3768173E0,-1.5089103E0,-1.00090444E-1,1.6422106E0,3.491357E0,1.0729696E0,-1.662953E0,-3.5786839E0,-1.4021789E0,4.34738E0,4.4943354E-1,-8.051505E-2,-1.4407233E0,-2.0955663E0,-1.3659306E0,-7.311942E-1,1.0038924E0,-2.0389667E0,-8.084658E-1,-7.6734096E-2,1.7421466E0,-1.4388669E0,-4.856842E0,-7.3726946E-1,-1.657413E0,-1.3260509E0,-3.4494295E0,6.118565E0,1.2548695E1,-3.633719E0,1.6271434E0,-4.915528E0,-1.7007626E0,1.1126588E-1,-1.9291608E0,4.8911072E-2,2.6974022E0,-1.9462899E0,-5.1046476E0,2.8908446E0,2.973814E-1,1.8307457E0,4.6504874E0,-4.656315E-3,8.38521E-1,-6.412572E-1,-2.631961E0,-2.3897078E0,-1.24891646E-1,-2.2250464E0,-5.8321657E0,-6.0081284E-2,4.6705832E0,9.08817E0,3.4463434E0,2.294884E0,7.5667155E-1,-1.35811E0,-4.6307325E0,-9.6493775E-1,-2.2359285E0,-9.1296554E-1,-1.4773763E0,4.0181756E0,-4.1964123E-1,-4.8247042E-1,-1.3098848E0,-1.4282058E0,-1.5468758E-1,1.2540789E-1,6.750146E-1,-8.507318E-1,-2.306918E-1,-8.071528E-1,7.8013055E-2,1.3417715E-1,6.3483024E-1,7.32679E-1,1.4493153E0,5.046066E-1,-3.531909E-1,-1.2852325E0,-1.6091715E-1,-8.766214E-1,-1.35732E0,-5.254285E-1,7.42635E-1,1.8237108E0,3.1754458E-1,2.5310397E-1,-8.707282E-1,3.3659396E-1,-2.8969085E-1,-2.616284E-1,-6.0326195E-1,-4.883931E-1,-7.658227E-1,-8.0583885E-2,-5.3237486E-1,4.3815237E-2,-4.775311E-1,1.0500244E0,1.5814349E-1,-9.706849E-1,-4.9242333E-1,-1.1780694E-1,-3.8224342E-1,1.7196454E-1,-2.723935E-1,7.945227E-1,-2.6837495E-1,-3.3759257E-1,-1.0542393E0,-9.553594E-1,-1.8267014E0,-4.2541936E-1,-8.0140896E-2,-2.822154E-1,-7.9320604E-1,-4.4493505E-1,2.7399364E-1,-1.0514258E0,3.009319E0,2.5198267E0,1.14618E0,4.157736E0,2.1468072E0,-1.5710924E0,7.06362E-2,7.756393E-1,-3.1320833E-2,-9.6660846E-1,-2.2084477E0,6.8539596E-1,-6.254977E-1,-9.041E-1,1.19100645E-1,-3.6233705E-1,-1.7081656E0,1.6715997E-1,-2.752386E-1,-5.0746057E-2,1.1697724E0,-9.445873E-1,4.242903E-1,-6.4755416E-1,-2.5413547E0,4.9109304E-1,1.0544859E0,-4.0581134E-1,3.9946833E-1,1.1069165E0,4.1064925E-2,2.7570238E0,1.2670825E0,-8.670841E-2,5.841454E-1,6.1642385E-1,5.8425635E-2,-7.423001E-1,1.22404784E-1,-9.211168E-1,2.7155164E-1,-1.0810546E0,-1.9916268E-2,3.077636E-1,-2.1045013E-1,-1.1087495E0,-4.63307E-1,-1.6784058E0,-6.154442E0,4.873308E-1,-5.233578E-1,1.8060671E0,6.789839E-1,6.112502E0,2.335213E0,4.9902242E-1,1.991959E0,6.202192E-1,3.68835E0,4.6570385E-1,-9.742459E-2,-9.8986095E-1,-2.1092537E-1,-2.7621837E0,-1.0818553E0],"categories":[],"categories_nodes":[],"categories_segments":[],"categories_sizes":[],"default_left":[0,0,0,0,0,0,0,0,0,0,0,0,0,0,0,0,0,0,0,0,0,0,0,0,0,0,0,0,0,0,0,0,0,0,0,0,0,0,0,0,0,0,0,0,0,0,0,0,0,0,0,0,0,0,0,0,0,0,0,0,0,0,0,0,0,0,0,0,0,0,0,0,0,0,0,0,0,0,0,0,0,0,0,0,0,0,0,0,0,0,0,0,0,0,0,0,0,0,0,0,0,0,0,0,0,0,0,0,0,0,0,0,0,0,0,0,0,0,0,0,0,0,0,0,0,0,0,0,0,0,0,0,0,0,0,0,0,0,0,0,0,0,0,0,0,0,0,0,0,0,0,0,0,0,0,0,0,0,0,0,0,0,0,0,0,0,0,0,0,0,0,0,0,0,0,0,0,0,0,0,0,0,0,0,0,0,0,0,0,0,0,0,0,0,0,0,0,0,0,0,0,0,0,0,0,0,0,0,0,0,0,0,0,0,0,0,0,0,0,0,0,0,0,0,0,0,0,0,0,0,0,0,0,0,0,0,0,0,0,0,0,0,0,0,0,0,0,0,0,0,0,0,0,0,0],"id":5,"left_children":[1,3,5,7,9,11,13,15,17,19,21,23,25,27,29,31,33,35,37,39,41,43,45,47,49,51,53,55,57,59,61,63,65,67,69,71,73,75,77,79,81,83,85,87,89,91,93,95,97,99,101,103,105,107,109,111,113,115,117,119,121,123,125,127,129,131,133,135,137,139,141,143,145,147,149,151,153,155,157,159,161,163,165,167,169,171,173,175,177,179,181,183,185,187,189,191,193,195,197,199,201,203,205,207,209,211,213,215,217,219,221,223,225,227,229,231,233,235,237,239,241,243,245,247,249,251,253,-1,-1,-1,-1,-1,-1,-1,-1,-1,-1,-1,-1,-1,-1,-1,-1,-1,-1,-1,-1,-1,-1,-1,-1,-1,-1,-1,-1,-1,-1,-1,-1,-1,-1,-1,-1,-1,-1,-1,-1,-1,-1,-1,-1,-1,-1,-1,-1,-1,-1,-1,-1,-1,-1,-1,-1,-1,-1,-1,-1,-1,-1,-1,-1,-1,-1,-1,-1,-1,-1,-1,-1,-1,-1,-1,-1,-1,-1,-1,-1,-1,-1,-1,-1,-1,-1,-1,-1,-1,-1,-1,-1,-1,-1,-1,-1,-1,-1,-1,-1,-1,-1,-1,-1,-1,-1,-1,-1,-1,-1,-1,-1,-1,-1,-1,-1,-1,-1,-1,-1,-1,-1,-1,-1,-1,-1,-1,-1],"loss_changes":[1.00053766E5,3.7376062E4,6.03943E4,1.4244253E4,1.1058211E4,4.0353883E4,3.8620895E4,6.107365E3,1.68628E4,5.2371562E3,1.1733545E4,6.5200913E3,2.4252602E4,2.7238736E4,1.8921207E4,7.7876855E2,5.3784062E3,6.8120254E3,2.4155791E4,5.549672E3,3.3827095E3,1.1775945E4,3.464623E3,4.4960093E3,4.333385E3,8.1765347E3,1.6420984E4,2.5788059E4,1.9634877E4,2.132807E4,1.6251493E4,6.769966E2,8.271085E2,4.5723853E3,2.8481191E3,5.3648047E3,3.4069458E3,2.7797715E3,9.276594E3,6.836745E3,3.824039E3,4.3752812E3,2.4192607E3,8.477447E3,4.188077E3,2.416499E3,3.251329E3,5.2825E2,1.5263506E3,2.214773E3,2.7751436E3,2.7167996E3,1.7245894E3,1.2421045E4,1.5135922E4,2.1532227E4,8.013793E3,1.4186797E4,6.7188867E3,1.5661546E4,1.0242285E4,7.10774E3,2.7624497E3,1.6035156E2,2.3959131E2,6.1723303E2,4.59208E2,1.9350308E3,2.1047344E3,3.4871206E3,2.2471174E3,3.5043066E3,2.9452969E3,1.6260632E3,2.1798914E3,9.6542773E2,1.2759849E3,4.316251E3,4.1306855E3,6.2105225E3,3.2671914E3,2.6634844E3,7.602504E3,3.8436118E3,2.4187202E3,1.1145684E3,9.642986E2,8.430299E3,7.328787E3,1.6690371E3,8.398633E2,3.6989243E3,2.6788213E3,6.742092E2,9.002578E2,9.0610693E2,6.8239746E0,4.0444574E2,6.0594244E2,1.1485352E3,1.3722273E3,2.9522524E3,2.260784E3,5.7570245E2,1.995394E3,2.416664E3,2.4116885E3,3.795086E3,5.0888335E3,8.328203E3,1.3169625E4,3.701611E4,4.344257E4,9.869963E3,5.18083E3,9.080363E3,1.3012159E4,4.2241445E3,1.9389707E3,4.7045317E3,3.9241582E3,1.1440336E4,3.1091787E3,1.206277E4,5.950575E3,1.4054342E3,1.5469541E3,0E0,0E0,0E0,0E0,0E0,0E0,0E0,0E0,0E0,0E0,0E0,0E0,0E0,0E0,0E0,0E0,0E0,0E0,0E0,0E0,0E0,0E0,0E0,0E0,0E0,0E0,0E0,0E0,0E0,0E0,0E0,0E0,0E0,0E0,0E0,0E0,0E0,0E0,0E0,0E0,0E0,0E0,0E0,0E0,0E0,0E0,0E0,0E0,0E0,0E0,0E0,0E0,0E0,0E0,0E0,0E0,0E0,0E0,0E0,0E0,0E0,0E0,0E0,0E0,0E0,0E0,0E0,0E0,0E0,0E0,0E0,0E0,0E0,0E0,0E0,0E0,0E0,0E0,0E0,0E0,0E0,0E0,0E0,0E0,0E0,0E0,0E0,0E0,0E0,0E0,0E0,0E0,0E0,0E0,0E0,0E0,0E0,0E0,0E0,0E0,0E0,0E0,0E0,0E0,0E0,0E0,0E0,0E0,0E0,0E0,0E0,0E0,0E0,0E0,0E0,0E0,0E0,0E0,0E0,0E0,0E0,0E0,0E0,0E0,0E0,0E0,0E0,0E0],"parents":[2147483647,0,0,1,1,2,2,3,3,4,4,5,5,6,6,7,7,8,8,9,9,10,10,11,11,12,12,13,13,14,14,15,15,16,16,17,17,18,18,19,19,20,20,21,21,22,22,23,23,24,24,25,25,26,26,27,27,28,28,29,29,30,30,31,31,32,32,33,33,34,34,35,35,36,36,37,37,38,38,39,39,40,40,41,41,42,42,43,43,44,44,45,45,46,46,47,47,48,48,49,49,50,50,51,51,52,52,53,53,54,54,55,55,56,56,57,57,58,58,59,59,60,60,61,61,62,62,63,63,64,64,65,65,66,66,67,67,68,68,69,69,70,70,71,71,72,72,73,73,74,74,75,75,76,76,77,77,78,78,79,79,80,80,81,81,82,82,83,83,84,84,85,85,86,86,87,87,88,88,89,89,90,90,91,91,92,92,93,93,94,94,95,95,96,96,97,97,98,98,99,99,100,100,101,101,102,102,103,103,104,104,105,105,106,106,107,107,108,108,109,109,110,110,111,111,112,112,113,113,114,114,115,115,116,116,117,117,118,118,119,119,120,120,121,121,122,122,123,123,124,124,125,125,126,126],"right_children":[2,4,6,8,10,12,14,16,18,20,22,24,26,28,30,32,34,36,38,40,42,44,46,48,50,52,54,56,58,60,62,64,66,68,70,72,74,76,78,80,82,84,86,88,90,92,94,96,98,100,102,104,106,108,110,112,114,116,118,120,122,124,126,128,130,132,134,136,138,140,142,144,146,148,150,152,154,156,158,160,162,164,166,168,170,172,174,176,178,180,182,184,186,188,190,192,194,196,198,200,202,204,206,208,210,212,214,216,218,220,222,224,226,228,230,232,234,236,238,240,242,244,246,248,250,252,254,-1,-1,-1,-1,-1,-1,-1,-1,-1,-1,-1,-1,-1,-1,-1,-1,-1,-1,-1,-1,-1,-1,-1,-1,-1,-1,-1,-1,-1,-1,-1,-1,-1,-1,-1,-1,-1,-1,-1,-1,-1,-1,-1,-1,-1,-1,-1,-1,-1,-1,-1,-1,-1,-1,-1,-1,-1,-1,-1,-1,-1,-1,-1,-1,-1,-1,-1,-1,-1,-1,-1,-1,-1,-1,-1,-1,-1,-1,-1,-1,-1,-1,-1,-1,-1,-1,-1,-1,-1,-1,-1,-1,-1,-1,-1,-1,-1,-1,-1,-1,-1,-1,-1,-1,-1,-1,-1,-1,-1,-1,-1,-1,-1,-1,-1,-1,-1,-1,-1,-1,-1,-1,-1,-1,-1,-1,-1,-1],"split_conditions":[-2.4492937E-16,-7.0710677E-1,-8.660254E-1,1.934561E1,6.123234E-17,5.384893E5,9.794878E5,-9.920774E1,-9.904617E1,1.4E1,5E-1,1E0,-8.660254E-1,2.9E0,1.2E0,-5E-1,-2.4492937E-16,2E0,1.1E1,4E0,1.1E0,3.1E0,1.94827E1,2.249E3,2.5E1,4.3E1,2.3E1,8.4E1,8.660254E-1,8.660254E-1,6.6E1,4.9E1,1E0,3E1,-5E-1,2.1E1,4.4E1,6.123234E-17,1.4E1,-5E-1,1.4E1,-5E-1,2.245E3,2E1,6.6E1,2.2E0,1E0,1E0,1.1E1,2E1,3E0,2.5E1,-9.904617E1,1.6E0,6E0,-9.911959E1,1.2E1,1.5E1,7.0710677E-1,1.5E1,2.5881904E-1,-1.8369701E-16,2.8E0,1E0,8.1E1,5E0,7.8E1,-9.92046E1,-1.8369701E-16,-1.8369701E-16,1.91769E1,1.942461E1,-1.8369701E-16,-2.4492937E-16,7E0,2.5881904E-1,7.2E1,4.6E1,2.9E0,-1.8369701E-16,8E-1,5E-1,1E0,1.9370464E1,2.227E3,-8.660254E-1,-2.5881904E-1,2.294E3,1.9460415E1,-7.0710677E-1,3.7E0,4.3E1,6.3E1,1.8E1,9.8E1,8.660254E-1,2.5881904E-1,3.5E0,5E-1,5E-1,1.91769E1,1.2E0,5.7E1,1.9460415E1,1.8E1,2.2E1,1.9411617E1,-2.4492937E-16,1.6E1,5E-1,1.1E0,1.9E1,1.1E0,4E0,8.660254E-1,1E0,-8.660254E-1,-1.8369701E-16,7.5E0,5E1,4.4E1,4.2E1,6.2E1,1E0,1.9360794E1,1.2246469E-16,1E0,-9.6493775E-1,-2.2359285E0,-9.1296554E-1,-1.4773763E0,4.0181756E0,-4.1964123E-1,-4.8247042E-1,-1.3098848E0,-1.4282058E0,-1.5468758E-1,1.2540789E-1,6.750146E-1,-8.507318E-1,-2.306918E-1,-8.071528E-1,7.8013055E-2,1.3417715E-1,6.3483024E-1,7.32679E-1,1.4493153E0,5.046066E-1,-3.531909E-1,-1.2852325E0,-1.6091715E-1,-8.766214E-1,-1.35732E0,-5.254285E-1,7.42635E-1,1.8237108E0,3.1754458E-1,2.5310397E-1,-8.707282E-1,3.3659396E-1,-2.8969085E-1,-2.616284E-1,-6.0326195E-1,-4.883931E-1,-7.658227E-1,-8.0583885E-2,-5.3237486E-1,4.3815237E-2,-4.775311E-1,1.0500244E0,1.5814349E-1,-9.706849E-1,-4.9242333E-1,-1.1780694E-1,-3.8224342E-1,1.7196454E-1,-2.723935E-1,7.945227E-1,-2.6837495E-1,-3.3759257E-1,-1.0542393E0,-9.553594E-1,-1.8267014E0,-4.2541936E-1,-8.0140896E-2,-2.822154E-1,-7.9320604E-1,-4.4493505E-1,2.7399364E-1,-1.0514258E0,3.009319E0,2.5198267E0,1.14618E0,4.157736E0,2.1468072E0,-1.5710924E0,7.06362E-2,7.756393E-1,-3.1320833E-2,-9.6660846E-1,-2.2084477E0,6.8539596E-1,-6.254977E-1,-9.041E-1,1.19100645E-1,-3.6233705E-1,-1.7081656E0,1.6715997E-1,-2.752386E-1,-5.0746057E-2,1.1697724E0,-9.445873E-1,4.242903E-1,-6.4755416E-1,-2.5413547E0,4.9109304E-1,1.0544859E0,-4.0581134E-1,3.9946833E-1,1.1069165E0,4.1064925E-2,2.7570238E0,1.2670825E0,-8.670841E-2,5.841454E-1,6.1642385E-1,5.8425635E-2,-7.423001E-1,1.22404784E-1,-9.211168E-1,2.7155164E-1,-1.0810546E0,-1.9916268E-2,3.077636E-1,-2.1045013E-1,-1.1087495E0,-4.63307E-1,-1.6784058E0,-6.154442E0,4.873308E-1,-5.233578E-1,1.8060671E0,6.789839E-1,6.112502E0,2.335213E0,4.9902242E-1,1.991959E0,6.202192E-1,3.68835E0,4.6570385E-1,-9.742459E-2,-9.8986095E-1,-2.1092537E-1,-2.7621837E0,-1.0818553E0],"split_indices":[7,6,6,0,8,3,3,1,1,4,6,10,8,11,11,7,5,11,4,4,11,11,0,2,10,10,10,10,8,8,10,10,10,10,7,9,10,8,9,5,9,7,2,9,10,11,11,7,4,9,11,9,1,11,4,1,9,10,5,9,6,8,11,10,10,9,10,1,8,8,0,0,8,5,4,5,10,10,11,6,11,5,11,0,2,7,5,2,0,5,11,10,10,9,10,7,5,11,8,8,0,11,10,0,10,9,0,5,10,8,11,9,11,9,7,7,5,6,11,10,10,10,10,5,0,7,9,0,0,0,0,0,0,0,0,0,0,0,0,0,0,0,0,0,0,0,0,0,0,0,0,0,0,0,0,0,0,0,0,0,0,0,0,0,0,0,0,0,0,0,0,0,0,0,0,0,0,0,0,0,0,0,0,0,0,0,0,0,0,0,0,0,0,0,0,0,0,0,0,0,0,0,0,0,0,0,0,0,0,0,0,0,0,0,0,0,0,0,0,0,0,0,0,0,0,0,0,0,0,0,0,0,0,0,0,0,0,0,0,0,0,0,0,0,0,0,0,0,0,0,0,0,0,0,0],"split_type":[0,0,0,0,0,0,0,0,0,0,0,0,0,0,0,0,0,0,0,0,0,0,0,0,0,0,0,0,0,0,0,0,0,0,0,0,0,0,0,0,0,0,0,0,0,0,0,0,0,0,0,0,0,0,0,0,0,0,0,0,0,0,0,0,0,0,0,0,0,0,0,0,0,0,0,0,0,0,0,0,0,0,0,0,0,0,0,0,0,0,0,0,0,0,0,0,0,0,0,0,0,0,0,0,0,0,0,0,0,0,0,0,0,0,0,0,0,0,0,0,0,0,0,0,0,0,0,0,0,0,0,0,0,0,0,0,0,0,0,0,0,0,0,0,0,0,0,0,0,0,0,0,0,0,0,0,0,0,0,0,0,0,0,0,0,0,0,0,0,0,0,0,0,0,0,0,0,0,0,0,0,0,0,0,0,0,0,0,0,0,0,0,0,0,0,0,0,0,0,0,0,0,0,0,0,0,0,0,0,0,0,0,0,0,0,0,0,0,0,0,0,0,0,0,0,0,0,0,0,0,0,0,0,0,0,0,0,0,0,0,0,0,0,0,0,0,0,0,0,0,0,0,0,0,0],"sum_hessian":[3.29166E5,1.27201E5,2.01965E5,2.7324E4,9.9877E4,2.5815E4,1.7615E5,1.0716E4,1.6608E4,5.9805E4,4.0072E4,5.932E3,1.9883E4,1.5828E5,1.787E4,8.15E2,9.901E3,1.0214E4,6.394E3,4.5347E4,1.4458E4,2.1653E4,1.8419E4,6.2E2,5.312E3,2.588E3,1.7295E4,1.30641E5,2.7639E4,4.201E3,1.3669E4,4.78E2,3.37E2,3.941E3,5.96E3,8.292E3,1.922E3,2.513E3,3.881E3,1.5915E4,2.9432E4,7.123E3,7.335E3,1.8667E4,2.986E3,1.5348E4,3.071E3,1.92E2,4.28E2,1.174E3,4.138E3,1.748E3,8.4E2,7.836E3,9.459E3,1.22173E5,8.468E3,2.2827E4,4.812E3,2.867E3,1.334E3,1.2227E4,1.442E3,7.5E1,4.03E2,1E1,3.27E2,1.427E3,2.514E3,3.553E3,2.407E3,6.189E3,2.103E3,1.184E3,7.38E2,1.575E3,9.38E2,7.58E2,3.123E3,5.833E3,1.0082E4,1.2478E4,1.6954E4,5.09E3,2.033E3,2.353E3,4.982E3,1.5602E4,3.065E3,2.57E3,4.16E2,1.1557E4,3.791E3,1.912E3,1.159E3,1.78E2,1.4E1,6.4E1,3.64E2,2.82E2,8.92E2,3.304E3,8.34E2,1.17E3,5.78E2,5.96E2,2.44E2,4.856E3,2.98E3,2.644E3,6.815E3,6.6689E4,5.5484E4,5.13E3,3.338E3,3.219E3,1.9608E4,4.224E3,5.88E2,1.656E3,1.211E3,7.87E2,5.47E2,5.313E3,6.914E3,1.106E3,3.36E2,1.3E1,6.2E1,3.12E2,9.1E1,5E0,5E0,2.47E2,8E1,1.16E2,1.311E3,1.199E3,1.315E3,1.271E3,2.282E3,2.93E2,2.114E3,1.758E3,4.431E3,1.181E3,9.22E2,9.32E2,2.52E2,2.21E2,5.17E2,9.32E2,6.43E2,8.61E2,7.7E1,4.96E2,2.62E2,2.795E3,3.28E2,2.473E3,3.36E3,5.049E3,5.033E3,6.171E3,6.307E3,4.601E3,1.2353E4,2.521E3,2.569E3,3.25E2,1.708E3,5.85E2,1.768E3,2.633E3,2.349E3,8.756E3,6.846E3,2.281E3,7.84E2,2.234E3,3.36E2,1.78E2,2.38E2,4.72E3,6.837E3,2.197E3,1.594E3,1.787E3,1.25E2,1.155E3,4E0,8.8E1,9E1,1E1,4E0,4.5E1,1.9E1,2.34E2,1.3E2,1.68E2,1.14E2,7.8E1,8.14E2,2.76E2,3.028E3,7.01E2,1.33E2,7.67E2,4.03E2,1.71E2,4.07E2,4.39E2,1.57E2,1.31E2,1.13E2,1.615E3,3.241E3,1.148E3,1.832E3,1.26E3,1.384E3,5.84E2,6.231E3,5.8209E4,8.48E3,1.9203E4,3.6281E4,1.867E3,3.263E3,2.97E3,3.68E2,2.114E3,1.105E3,6.545E3,1.3063E4,1.335E3,2.889E3,5.8E2,8E0,8.28E2,8.28E2,7.75E2,4.36E2,8E1,7.07E2,3.52E2,1.95E2,5.196E3,1.17E2,3.983E3,2.931E3,2.78E2,8.28E2,6E1,2.76E2],"tree_param":{"num_deleted":"0","num_feature":"12","num_nodes":"255","size_leaf_vector":"1"}},{"base_weights":[-2.6699147E-4,4.0350267E-1,-4.2061576E-1,7.094738E-1,-4.4106892E-1,-1.1227572E0,-2.1193816E-1,-7.718776E-2,1.1608311E0,1.9675615E-1,-1.0232184E0,-1.5927868E0,-8.676097E-1,-2.8830516E-1,1.2267127E0,6.7043805E-1,-7.4705094E-1,6.341439E-1,1.8906806E0,-7.864823E-1,1.1471262E0,-5.901645E-1,-2.062008E0,-1.3200108E0,-1.8684397E0,-1.881278E0,-7.8048223E-1,3.7347812E-2,-7.034573E-1,5.418185E-1,3.956051E0,1.2005234E0,-5.168774E-1,1.5770024E-1,-1.264422E0,1.4818842E0,1.6281384E-1,1.3992541E0,3.3715792E0,-5.3322375E-1,-2.2320347E0,-3.6037307E0,1.706134E0,-2.6768848E-1,-2.2719016E0,-2.80223E0,-4.1188806E-1,-1.5769216E0,-9.266302E-1,-4.5276958E-1,-1.9394487E0,-2.4621663E0,-6.997934E-1,-9.233653E-1,1.7116494E-2,-3.7242866E-1,6.597804E-1,-2.2529457E0,-4.9687275E-1,-1.7330927E0,9.32634E-1,2.5030084E0,6.5926313E0,4.4914308E-1,2.039937E0,-1.147856E0,1.07287E0,-6.9526E-1,1.187456E0,-1.5587605E0,2.533188E-1,9.73373E-1,3.5705974E0,-1.4745377E0,6.748465E-1,9.256359E-1,2.4441497E0,4.085686E0,1.7032763E0,9.7349876E-1,-7.547719E-1,-1.85252E0,-5.590304E0,-5.749622E0,-1.7655126E0,2.042086E0,-7.3161227E-1,1.3407198E0,-8.585091E-1,-6.0361654E-1,-3.3131878E0,-3.8026252E0,-1.9039546E0,4.990225E-1,-1.7270586E0,-1.4084593E0,-2.4751096E0,-7.407351E-1,-2.5310266E0,6.2599277E0,-1.1678164E0,-1.9549015E0,4.5151515E0,-1.9987581E0,-3.2992673E0,3.5845104E-1,-2.7244303E0,3.483621E-1,-1.0103266E0,-4.2019218E-1,2.2265205E0,-5.631694E-1,1.9300157E-2,1.6891205E0,-2.1733511E-2,-1.4813231E0,-3.0122967E0,1.2188803E0,-6.445266E-1,-1.8460286E0,1.9367464E1,2.4119096E0,3.7677333E-1,1.4678073E0,5.4073167E0,2.1594014E0,3.0374561E1,-1.9652484E-2,6.093041E-1,-3.0943396E-2,8.544726E-1,-2.1821149E-1,-7.279288E-1,-2.3363845E-1,4.6957427E-1,-4.2492422E-1,8.6820155E-2,4.805236E-1,-4.632997E-1,-8.0458677E-1,-3.178239E-1,-6.51503E-1,3.0402926E-1,6.5863883E-1,1.8204582E-1,1.0096655E0,3.4437559E0,-1.5123279E0,-7.586049E-2,-2.970871E-2,3.4982422E-1,-2.2310562E-1,3.900996E-1,8.7696815E-1,-5.5340326E-1,1.3089287E0,5.802984E-2,-2.9833975E-1,1.1128662E0,-5.0621533E-1,4.3494248E-1,-1.7277738E-1,-5.685741E-1,-6.512064E-1,2.839569E-1,-2.411817E0,-1.334558E0,-2.074582E0,-5.114352E-1,2.4516448E-1,-7.601686E-1,5.0395757E-1,1.0241699E0,-2.831042E-1,7.448028E-1,4.755007E-1,-9.987065E-1,-7.204297E-1,-7.5465515E-2,1.0475199E1,-2.1231067E-1,-1.5479985E0,-7.5764525E-1,-8.2246846E-1,-1.4722853E0,-5.440231E-1,-5.7258935E0,8.848683E-1,-6.653775E-2,-1.1195066E0,1.9610572E-1,-3.0566594E-1,-4.9719453E-1,-6.242285E-1,-9.772692E-1,5.491069E-1,-2.532646E-1,-8.483379E-1,-5.129447E-2,2.1501222E0,1.0040741E0,-1.6955785E-1,-7.321313E-1,-6.171055E-1,-4.311781E-1,1.860869E0,-1.2910383E0,-6.387543E-1,2.7021116E-1,-1.1458308E0,-4.5141727E-1,8.487966E-2,4.709504E0,-9.2253745E-1,3.7859309E0,5.747806E-1,-1.2060856E-1,-2.6498625E-1,-5.1039964E-1,3.4798938E-1,-2.9566032E-1,-4.2219326E-1,9.4514835E-1,-4.3513577E-2,-2.7623996E-1,-2.3073794E-1,1.18218295E-1,4.674394E-1,4.16739E0,-3.075865E-1,1.06256045E-1,-6.869394E-1,-2.0172136E-1,-1.4311006E0,-7.581835E-1,8.9871365E-1,-9.2241526E-2,-3.607004E-1,-4.9181715E-2,-2.0986106E-1,-1.220141E0,-8.575921E-1,8.318714E0,9.1431546E-1,-1.0071102E-2,1.1383824E0,3.2287348E-2,-1.0726992E-1,9.883119E-1,1.1826166E0,2.6048875E0,2.0192485E0,4.790478E-1,2.9075035E1,5.3006735E0],"categories":[],"categories_nodes":[],"categories_segments":[],"categories_sizes":[],"default_left":[0,0,0,0,0,0,0,0,0,0,0,0,0,0,0,0,0,0,0,0,0,0,0,0,0,0,0,0,0,0,0,0,0,0,0,0,0,0,0,0,0,0,0,0,0,0,0,0,0,0,0,0,0,0,0,0,0,0,0,0,0,0,0,0,0,0,0,0,0,0,0,0,0,0,0,0,0,0,0,0,0,0,0,0,0,0,0,0,0,0,0,0,0,0,0,0,0,0,0,0,0,0,0,0,0,0,0,0,0,0,0,0,0,0,0,0,0,0,0,0,0,0,0,0,0,0,0,0,0,0,0,0,0,0,0,0,0,0,0,0,0,0,0,0,0,0,0,0,0,0,0,0,0,0,0,0,0,0,0,0,0,0,0,0,0,0,0,0,0,0,0,0,0,0,0,0,0,0,0,0,0,0,0,0,0,0,0,0,0,0,0,0,0,0,0,0,0,0,0,0,0,0,0,0,0,0,0,0,0,0,0,0,0,0,0,0,0,0,0,0,0,0,0,0,0,0,0,0,0,0,0,0,0,0,0,0,0,0,0,0,0,0,0,0,0,0,0,0,0,0,0,0,0,0,0],"id":6,"left_children":[1,3,5,7,9,11,13,15,17,19,21,23,25,27,29,31,33,35,37,39,41,43,45,47,49,51,53,55,57,59,61,63,65,67,69,71,73,75,77,79,81,83,85,87,89,91,93,95,97,99,101,103,105,107,109,111,113,115,117,119,121,123,125,127,129,131,133,135,137,139,141,143,145,147,149,151,153,155,157,159,161,163,165,167,169,171,173,175,177,179,181,183,185,187,189,191,193,195,197,199,201,203,205,207,209,211,213,215,217,219,221,223,225,227,229,231,233,235,237,239,241,243,245,247,249,251,253,-1,-1,-1,-1,-1,-1,-1,-1,-1,-1,-1,-1,-1,-1,-1,-1,-1,-1,-1,-1,-1,-1,-1,-1,-1,-1,-1,-1,-1,-1,-1,-1,-1,-1,-1,-1,-1,-1,-1,-1,-1,-1,-1,-1,-1,-1,-1,-1,-1,-1,-1,-1,-1,-1,-1,-1,-1,-1,-1,-1,-1,-1,-1,-1,-1,-1,-1,-1,-1,-1,-1,-1,-1,-1,-1,-1,-1,-1,-1,-1,-1,-1,-1,-1,-1,-1,-1,-1,-1,-1,-1,-1,-1,-1,-1,-1,-1,-1,-1,-1,-1,-1,-1,-1,-1,-1,-1,-1,-1,-1,-1,-1,-1,-1,-1,-1,-1,-1,-1,-1,-1,-1,-1,-1,-1,-1,-1,-1],"loss_changes":[5.586774E4,4.338682E4,2.3629676E4,4.3760473E4,1.6579172E4,4.429793E3,1.3659379E4,2.2503762E4,3.0102516E4,1.9911021E4,1.0500121E4,9.749492E2,2.1138438E3,1.5961075E4,1.1712812E4,1.3365472E4,1.1093982E4,1.8175594E4,2.3883758E4,3.83296E3,2.8781373E4,8.935196E3,8.387801E3,6.591924E2,6.4881836E2,1.2988359E3,2.513706E3,1.6875408E4,1.6611445E4,4.456749E3,4.7991465E3,9.258666E3,6.57653E3,7.5747573E3,6.7361836E3,1.7260453E4,2.4511799E4,1.2195582E4,9.735875E3,2.9759966E3,1.9791577E3,4.490657E3,7.9413633E3,1.3140685E4,4.603218E3,4.253168E3,2.5502117E3,5.946455E2,7.691001E2,1.4952773E3,6.226328E2,4.8606348E2,1.3422196E3,2.0690684E3,3.2396099E3,2.981061E3,1.8425889E4,3.5726562E3,1.1602124E4,1.7872666E3,3.515945E3,2.433376E3,4.695653E4,6.30787E3,1.2011809E4,2.5212861E3,1.69975E3,3.3499133E3,4.4242236E3,7.0803203E3,4.5182085E3,5.854867E3,5.121371E3,3.0346287E4,8.466907E3,1.0610495E4,1.5799715E4,6.181797E3,1.3280354E4,1.4510889E3,1.5839663E3,1.2524082E3,4.060537E2,2.4682324E3,1.2245369E3,4.228422E3,8.032802E2,4.243111E3,9.470107E3,3.7958767E3,2.3610996E3,2.6152188E3,3.8548066E3,2.2227664E3,4.159297E3,3.2124316E2,1.8545435E2,6.1826587E2,1.8721875E2,5.528833E1,2.1412286E2,3.2160352E2,2.4994745E2,3.1200537E2,4.1524512E2,4.7284027E2,1.1957499E3,1.4099684E3,1.5355215E3,2.5015715E3,1.8645247E3,4.0121611E3,3.8609324E3,1.6701926E4,5.9625264E3,1.9800508E3,2.610793E3,9.843026E3,1.1303479E4,1.8611802E3,8.2264905E2,1.8161738E3,2.8605E3,2.0016766E3,9.8810156E2,9.588104E2,5.7469926E4,0E0,0E0,0E0,0E0,0E0,0E0,0E0,0E0,0E0,0E0,0E0,0E0,0E0,0E0,0E0,0E0,0E0,0E0,0E0,0E0,0E0,0E0,0E0,0E0,0E0,0E0,0E0,0E0,0E0,0E0,0E0,0E0,0E0,0E0,0E0,0E0,0E0,0E0,0E0,0E0,0E0,0E0,0E0,0E0,0E0,0E0,0E0,0E0,0E0,0E0,0E0,0E0,0E0,0E0,0E0,0E0,0E0,0E0,0E0,0E0,0E0,0E0,0E0,0E0,0E0,0E0,0E0,0E0,0E0,0E0,0E0,0E0,0E0,0E0,0E0,0E0,0E0,0E0,0E0,0E0,0E0,0E0,0E0,0E0,0E0,0E0,0E0,0E0,0E0,0E0,0E0,0E0,0E0,0E0,0E0,0E0,0E0,0E0,0E0,0E0,0E0,0E0,0E0,0E0,0E0,0E0,0E0,0E0,0E0,0E0,0E0,0E0,0E0,0E0,0E0,0E0,0E0,0E0,0E0,0E0,0E0,0E0,0E0,0E0,0E0,0E0,0E0,0E0],"parents":[2147483647,0,0,1,1,2,2,3,3,4,4,5,5,6,6,7,7,8,8,9,9,10,10,11,11,12,12,13,13,14,14,15,15,16,16,17,17,18,18,19,19,20,20,21,21,22,22,23,23,24,24,25,25,26,26,27,27,28,28,29,29,30,30,31,31,32,32,33,33,34,34,35,35,36,36,37,37,38,38,39,39,40,40,41,41,42,42,43,43,44,44,45,45,46,46,47,47,48,48,49,49,50,50,51,51,52,52,53,53,54,54,55,55,56,56,57,57,58,58,59,59,60,60,61,61,62,62,63,63,64,64,65,65,66,66,67,67,68,68,69,69,70,70,71,71,72,72,73,73,74,74,75,75,76,76,77,77,78,78,79,79,80,80,81,81,82,82,83,83,84,84,85,85,86,86,87,87,88,88,89,89,90,90,91,91,92,92,93,93,94,94,95,95,96,96,97,97,98,98,99,99,100,100,101,101,102,102,103,103,104,104,105,105,106,106,107,107,108,108,109,109,110,110,111,111,112,112,113,113,114,114,115,115,116,116,117,117,118,118,119,119,120,120,121,121,122,122,123,123,124,124,125,125,126,126],"right_children":[2,4,6,8,10,12,14,16,18,20,22,24,26,28,30,32,34,36,38,40,42,44,46,48,50,52,54,56,58,60,62,64,66,68,70,72,74,76,78,80,82,84,86,88,90,92,94,96,98,100,102,104,106,108,110,112,114,116,118,120,122,124,126,128,130,132,134,136,138,140,142,144,146,148,150,152,154,156,158,160,162,164,166,168,170,172,174,176,178,180,182,184,186,188,190,192,194,196,198,200,202,204,206,208,210,212,214,216,218,220,222,224,226,228,230,232,234,236,238,240,242,244,246,248,250,252,254,-1,-1,-1,-1,-1,-1,-1,-1,-1,-1,-1,-1,-1,-1,-1,-1,-1,-1,-1,-1,-1,-1,-1,-1,-1,-1,-1,-1,-1,-1,-1,-1,-1,-1,-1,-1,-1,-1,-1,-1,-1,-1,-1,-1,-1,-1,-1,-1,-1,-1,-1,-1,-1,-1,-1,-1,-1,-1,-1,-1,-1,-1,-1,-1,-1,-1,-1,-1,-1,-1,-1,-1,-1,-1,-1,-1,-1,-1,-1,-1,-1,-1,-1,-1,-1,-1,-1,-1,-1,-1,-1,-1,-1,-1,-1,-1,-1,-1,-1,-1,-1,-1,-1,-1,-1,-1,-1,-1,-1,-1,-1,-1,-1,-1,-1,-1,-1,-1,-1,-1,-1,-1,-1,-1,-1,-1,-1,-1],"split_conditions":[6.123234E-17,2.3E0,-5E-1,1.934561E1,-1.8369701E-16,-1.8369701E-16,2.3E1,2.5881904E-1,2.245E3,5E-1,4E0,1.2246469E-16,2.23E3,1.4E0,-9.902821E1,1.932611E1,2.311E3,7.783208E5,8.660254E-1,2.5881904E-1,1.1E1,2.5881904E-1,1E0,7E1,2.227E3,7.0710677E-1,1.8E1,-9.911959E1,2.23E3,1.8E1,3E1,6.123234E-17,-2.5881904E-1,5E-1,1.7E1,2E1,6E0,2.1E1,7.0710677E-1,1E0,3.8E0,-7.0710677E-1,1.6E1,1.9291967E1,5E-1,2.252E3,1.1E1,1.94827E1,9.3E1,1E0,2.1E1,6.5E1,1.9370464E1,-8.660254E-1,-9.902821E1,1.942461E1,1.3E1,2E0,1.91769E1,6.9E0,2E0,1.9411617E1,8.660254E-1,5E-1,2.4E1,8.660254E-1,-5E-1,6.123234E-17,1.6E1,5.6E1,3.3E1,-8.660254E-1,1E0,-2.5881904E-1,-2.4492937E-16,3E0,-9.899019E1,-9.899019E1,-9.915221E1,1.5E1,4.6E0,1.9529078E1,2E0,9E0,1E0,2.8E1,2.5881904E-1,7.4E1,7.363498E5,-1E0,5.2E1,1.2246469E-16,9.9E1,1.3E1,8.85541E5,-7.0710677E-1,-9.920414E1,1.91769E1,1.1E1,7E-1,8.6E1,1.7E1,6.1E1,2.2E1,8.3E1,1.188E2,1.9E1,1.9325146E1,2.2E0,1.5E0,4.8E1,-1.8369701E-16,-2.5881904E-1,1.066051E6,7E0,1.2246469E-16,1.6E1,8.2E1,-9.910363E1,3.8E0,1.4E1,-1.8369701E-16,5.384893E5,1.3E1,2.6E1,3.2E1,2.6E0,-1.9652484E-2,6.093041E-1,-3.0943396E-2,8.544726E-1,-2.1821149E-1,-7.279288E-1,-2.3363845E-1,4.6957427E-1,-4.2492422E-1,8.6820155E-2,4.805236E-1,-4.632997E-1,-8.0458677E-1,-3.178239E-1,-6.51503E-1,3.0402926E-1,6.5863883E-1,1.8204582E-1,1.0096655E0,3.4437559E0,-1.5123279E0,-7.586049E-2,-2.970871E-2,3.4982422E-1,-2.2310562E-1,3.900996E-1,8.7696815E-1,-5.5340326E-1,1.3089287E0,5.802984E-2,-2.9833975E-1,1.1128662E0,-5.0621533E-1,4.3494248E-1,-1.7277738E-1,-5.685741E-1,-6.512064E-1,2.839569E-1,-2.411817E0,-1.334558E0,-2.074582E0,-5.114352E-1,2.4516448E-1,-7.601686E-1,5.0395757E-1,1.0241699E0,-2.831042E-1,7.448028E-1,4.755007E-1,-9.987065E-1,-7.204297E-1,-7.5465515E-2,1.0475199E1,-2.1231067E-1,-1.5479985E0,-7.5764525E-1,-8.2246846E-1,-1.4722853E0,-5.440231E-1,-5.7258935E0,8.848683E-1,-6.653775E-2,-1.1195066E0,1.9610572E-1,-3.0566594E-1,-4.9719453E-1,-6.242285E-1,-9.772692E-1,5.491069E-1,-2.532646E-1,-8.483379E-1,-5.129447E-2,2.1501222E0,1.0040741E0,-1.6955785E-1,-7.321313E-1,-6.171055E-1,-4.311781E-1,1.860869E0,-1.2910383E0,-6.387543E-1,2.7021116E-1,-1.1458308E0,-4.5141727E-1,8.487966E-2,4.709504E0,-9.2253745E-1,3.7859309E0,5.747806E-1,-1.2060856E-1,-2.6498625E-1,-5.1039964E-1,3.4798938E-1,-2.9566032E-1,-4.2219326E-1,9.4514835E-1,-4.3513577E-2,-2.7623996E-1,-2.3073794E-1,1.18218295E-1,4.674394E-1,4.16739E0,-3.075865E-1,1.06256045E-1,-6.869394E-1,-2.0172136E-1,-1.4311006E0,-7.581835E-1,8.9871365E-1,-9.2241526E-2,-3.607004E-1,-4.9181715E-2,-2.0986106E-1,-1.220141E0,-8.575921E-1,8.318714E0,9.1431546E-1,-1.0071102E-2,1.1383824E0,3.2287348E-2,-1.0726992E-1,9.883119E-1,1.1826166E0,2.6048875E0,2.0192485E0,4.790478E-1,2.9075035E1,5.3006735E0],"split_indices":[6,11,7,0,8,8,9,5,2,7,11,5,2,11,1,0,2,3,8,5,10,5,7,10,2,5,9,1,2,10,10,8,5,7,9,9,4,9,5,4,11,5,4,0,8,2,4,0,10,10,9,10,0,5,1,0,9,11,0,11,11,0,7,7,10,8,7,8,9,10,10,6,8,5,5,4,1,1,1,9,11,0,4,10,10,9,5,10,3,9,10,7,10,10,3,5,1,0,4,11,10,9,10,9,10,11,9,0,11,11,10,8,5,3,4,5,9,10,1,11,10,8,3,4,9,10,11,0,0,0,0,0,0,0,0,0,0,0,0,0,0,0,0,0,0,0,0,0,0,0,0,0,0,0,0,0,0,0,0,0,0,0,0,0,0,0,0,0,0,0,0,0,0,0,0,0,0,0,0,0,0,0,0,0,0,0,0,0,0,0,0,0,0,0,0,0,0,0,0,0,0,0,0,0,0,0,0,0,0,0,0,0,0,0,0,0,0,0,0,0,0,0,0,0,0,0,0,0,0,0,0,0,0,0,0,0,0,0,0,0,0,0,0,0,0,0,0,0,0,0,0,0,0,0,0],"split_type":[0,0,0,0,0,0,0,0,0,0,0,0,0,0,0,0,0,0,0,0,0,0,0,0,0,0,0,0,0,0,0,0,0,0,0,0,0,0,0,0,0,0,0,0,0,0,0,0,0,0,0,0,0,0,0,0,0,0,0,0,0,0,0,0,0,0,0,0,0,0,0,0,0,0,0,0,0,0,0,0,0,0,0,0,0,0,0,0,0,0,0,0,0,0,0,0,0,0,0,0,0,0,0,0,0,0,0,0,0,0,0,0,0,0,0,0,0,0,0,0,0,0,0,0,0,0,0,0,0,0,0,0,0,0,0,0,0,0,0,0,0,0,0,0,0,0,0,0,0,0,0,0,0,0,0,0,0,0,0,0,0,0,0,0,0,0,0,0,0,0,0,0,0,0,0,0,0,0,0,0,0,0,0,0,0,0,0,0,0,0,0,0,0,0,0,0,0,0,0,0,0,0,0,0,0,0,0,0,0,0,0,0,0,0,0,0,0,0,0,0,0,0,0,0,0,0,0,0,0,0,0,0,0,0,0,0,0,0,0,0,0,0,0,0,0,0,0,0,0,0,0,0,0,0,0],"sum_hessian":[3.29166E5,1.67894E5,1.61272E5,1.23245E5,4.4649E4,3.6948E4,1.24324E5,4.4933E4,7.8312E4,2.1306E4,2.3343E4,1.2998E4,2.395E4,1.18058E5,6.266E3,2.1234E4,2.3699E4,4.5488E4,3.2824E4,1.0472E4,1.0834E4,1.6476E4,6.867E3,6.536E3,6.462E3,1.894E3,2.2056E4,6.6161E4,5.1897E4,5.01E3,1.256E3,1.468E4,6.554E3,8.622E3,1.5077E4,1.6253E4,2.9235E4,2.4647E4,8.177E3,8.912E3,1.56E3,1.14E3,9.694E3,1.3826E4,2.65E3,4.74E3,2.127E3,3.952E3,2.584E3,3.09E2,6.153E3,1.269E3,6.25E2,1.8705E4,3.351E3,3.9896E4,2.6265E4,6.104E3,4.5793E4,7.34E2,4.276E3,8.11E2,4.45E2,7.747E3,6.933E3,4.692E3,1.862E3,4.716E3,3.906E3,1.2628E4,2.449E3,1.3072E4,3.181E3,6.964E3,2.2271E4,1.6961E4,7.686E3,5.725E3,2.452E3,1.142E3,7.77E3,1.403E3,1.57E2,5.25E2,6.15E2,8.52E3,1.174E3,3.714E3,1.0112E4,1.019E3,1.631E3,2.241E3,2.499E3,1.257E3,8.7E2,3.33E3,6.22E2,2.317E3,2.67E2,2.9E1,2.8E2,6.139E3,1.4E1,8.19E2,4.5E2,4.11E2,2.14E2,1.197E3,1.7508E4,2.798E3,5.53E2,2.6831E4,1.3065E4,1.0462E4,1.5803E4,3.029E3,3.075E3,3.628E3,4.2165E4,7.31E2,3E0,1.167E3,3.109E3,5.99E2,2.12E2,3.76E2,6.9E1,