{"learner":{"attributes":{"best_iteration":"499","best_ntree_limit":"500","scikit_learn":"{\"n_estimators\": 500, \"objective\": \"reg:squarederror\", \"max_depth\": 6, \"max_leaves\": null, \"max_bin\": null, \"grow_policy\": null, \"learning_rate\": 0.05, \"verbosity\": null, \"booster\": null, \"tree_method\": null, \"gamma\": null, \"min_child_weight\": null, \"max_delta_step\": null, \"subsample\": null, \"sampling_method\": null, \"colsample_bytree\": null, \"colsample_bylevel\": null, \"colsample_bynode\": null, \"reg_alpha\": null, \"reg_lambda\": null, \"scale_pos_weight\": null, \"base_score\": null, \"missing\": NaN, \"num_parallel_tree\": null, \"random_state\": null, \"n_jobs\": -1, \"monotone_constraints\": null, \"interaction_constraints\": null, \"importance_type\": null, \"gpu_id\": null, \"validate_parameters\": null, \"predictor\": null, \"enable_categorical\": false, \"feature_types\": null, \"max_cat_to_onehot\": null, \"max_cat_threshold\": null, \"eval_metric\": null, \"early_stopping_rounds\": null, \"callbacks\": null, \"evals_result_\": {\"validation_0\": {\"rmse\": [46.21100023290989, 44.51494469304689, 42.927470938318905, 41.44230469391816, 40.0573222437007, 38.76396758868941, 37.55405620023354, 36.42598944937146, 35.37830127286945, 34.40067638471877, 33.4940074781151, 32.653866432586426, 31.878187893914287, 31.153354091254826, 30.485342739474742, 29.86355279280196, 29.283148376189285, 28.755351265446244, 28.263259896452045, 27.813872011370854, 27.396957601848104, 27.0149129634194, 26.66454630406168, 26.324394928486722, 26.031276072243507, 25.749935375259888, 25.48207196018563, 25.247079037327246, 25.01974264200543, 24.82288782537613, 24.631289721166596, 24.46427573226329, 24.30149631626106, 24.136942821895524, 24.009186472702368, 23.887344886870746, 23.77697301613425, 23.65630467301026, 23.56014214005972, 23.462803731452503, 23.38226092416866, 23.30009731969644, 23.227566649894438, 23.158510290668058, 23.090375386137215, 23.026261074336908, 22.968513030267157, 22.913011565873745, 22.864463140739613, 22.812334844267816, 22.77096932825872, 22.72838663764264, 22.686055977673917, 22.650289882750887, 22.613539402826195, 22.58179231801564, 22.55099239629779, 22.51911622419742, 22.4850546250724, 22.453839293425943, 22.426515940335868, 22.395363749407533, 22.368393007750615, 22.346655760525753, 22.324551596780694, 22.30510194350195, 22.27421827768423, 22.25616282849668, 22.240736280458414, 22.226314958923393, 22.20556554703972, 22.178431542134035, 22.164031014199164, 22.13733298344855, 22.11439693937243, 22.097101683765363, 22.0787841883143, 22.057283717603468, 22.036470895462998, 22.02173900904248, 22.002879369564166, 21.993110953121082, 21.982127277693582, 21.968044199416116, 21.957111007953245, 21.939962557477575, 21.92703964769142, 21.911187793150624, 21.89980332754128, 21.888975309848224, 21.872716819394707, 21.854868974182736, 21.848185662392332, 21.837760502078588, 21.824801035640768, 21.819130814587883, 21.803862566906936, 21.798671739622264, 21.789422007539574, 21.776712566685347, 21.76382665683148, 21.752115051615718, 21.744048942355306, 21.739177203167326, 21.72751156382904, 21.71618806184954, 21.708339873730864, 21.69721172117978, 21.68586934888087, 21.681049936129927, 21.67484603629311, 21.667345557799155, 21.660181800639194, 21.655688423822486, 21.647637493434242, 21.640518810805133, 21.63516369953498, 21.62759538637627, 21.61785423513057, 21.609654972400243, 21.599865586751076, 21.59050129008664, 21.586103426036104, 21.58355051332493, 21.579250751714763, 21.57075549708119, 21.5646276553884, 21.557282999888677, 21.55206195986265, 21.548492581175882, 21.54577764787214, 21.541514283694237, 21.53741532247044, 21.5332419161704, 21.529704662861132, 21.526963866795136, 21.524410083920127, 21.518334788542273, 21.51591039444145, 21.512073191703713, 21.509251430333567, 21.50489520541601, 21.50261316412306, 21.498290877562223, 21.496160489303374, 21.493897925563534, 21.486456474550796, 21.480064321230174, 21.476198945840345, 21.474540487015126, 21.470616422135116, 21.46681632623919, 21.4645713483016, 21.46025879741859, 21.45502737617151, 21.453803564368737, 21.450560081773666, 21.443287553933025, 21.44115004166443, 21.43953331170948, 21.43071411583336, 21.42880128521674, 21.427109480433128, 21.4246313078099, 21.416267486007634, 21.409348312396187, 21.40668101320319, 21.40544407947288, 21.402189415474457, 21.394715435259688, 21.391422821410792, 21.389041747384436, 21.384227015118636, 21.377848079110368, 21.375564052808492, 21.372146086822262, 21.371423774435673, 21.36974160003331, 21.367753182513077, 21.36768782072784, 21.360669744071505, 21.358466132542855, 21.356041813081916, 21.353570012643715, 21.35214519211807, 21.345356144073726, 21.340323109698414, 21.338472315568453, 21.333908376622105, 21.33255412848792, 21.328561389890968, 21.322955652633876, 21.321252272847637, 21.312798365404607, 21.30967355844345, 21.304270566726675, 21.297065280132266, 21.2903792959239, 21.28769600188842, 21.285045065619556, 21.279654470843706, 21.27899381152593, 21.27350219547098, 21.26888262226806, 21.267734449702992, 21.265541613823984, 21.263315846660554, 21.260902453998956, 21.25737805806732, 21.25206531302572, 21.2502357650316, 21.245252922016377, 21.240163842514608, 21.23556182358202, 21.230564666699177, 21.22909115980978, 21.228193666017848, 21.227508056478385, 21.22726341815108, 21.223791065692705, 21.219118043045675, 21.214916384958197, 21.213637932147403, 21.20909979711614, 21.20541413560364, 21.20249523802087, 21.199439030416787, 21.195638167011207, 21.194781308721765, 21.19032739650937, 21.189071905741603, 21.18563410781373, 21.181882619695322, 21.178339286144165, 21.175494201304314, 21.173914856690978, 21.173371324222988, 21.172106594904715, 21.16934928163031, 21.164778027846246, 21.16245594522988, 21.161683638122913, 21.159058399774374, 21.15837119120005, 21.154264386154296, 21.15403986816664, 21.15243372779857, 21.15054083881461, 21.14657108194148, 21.146267753770008, 21.14564730424831, 21.142346668826953, 21.140893746523833, 21.140766510132188, 21.13831173900163, 21.136297817708023, 21.13632723919072, 21.135460071142617, 21.134867592251062, 21.132479676288824, 21.12891347600958, 21.128590765598194, 21.123705123265243, 21.118943565885225, 21.11824254219812, 21.116404867920224, 21.11512034198443, 21.11099568707223, 21.105554337981175, 21.102854716069036, 21.1026755870802, 21.1004995155128, 21.100419942900203, 21.098596694287636, 21.09838632236487, 21.097848153635876, 21.095131024487642, 21.091687735179235, 21.086679094385907, 21.0825787150391, 21.081996559681453, 21.0777285004139, 21.076514482191307, 21.075480577351755, 21.074671754692698, 21.071355694060042, 21.069758464277882, 21.067481046234704, 21.06698918011503, 21.066692511136473, 21.06623928679756, 21.06349616388781, 21.061656164493, 21.06063385860869, 21.059689794456403, 21.056686726974817, 21.05505837437699, 21.054073523393274, 21.052921056430648, 21.0518950386154, 21.050237285263766, 21.049737412777134, 21.04935523331746, 21.047017100592978, 21.045619214166663, 21.044832097967262, 21.041767917992686, 21.040130731089086, 21.038770037925804, 21.035425323198893, 21.03371878056928, 21.032307975780455, 21.03196784603833, 21.03020082025315, 21.02749472665718, 21.02738914325405, 21.02390558835339, 21.02259901939715, 21.021263615156816, 21.01916525355507, 21.017307960642228, 21.014263316483483, 21.013261257821103, 21.010165010837852, 21.009009967299253, 21.008804798198717, 21.008412370723157, 21.007054184066266, 21.004836373367873, 21.004673820241518, 21.004424803070524, 21.00390047584273, 20.999833675846872, 20.999485926626342, 20.997859091966795, 20.997360129088978, 20.996541583935493, 20.99539198671045, 20.994314015579498, 20.9942516412914, 20.993473413975156, 20.993482971054977, 20.99312547222465, 20.993091781742454, 20.993013541506354, 20.992901832678275, 20.992759511738946, 20.99122658097619, 20.991154352253318, 20.98577798223637, 20.985082211899737, 20.984669228439124, 20.9845966174909, 20.984115928272725, 20.981812007610834, 20.981444316751194, 20.976992750303783, 20.973109618424672, 20.96969467339644, 20.96607468009091, 20.961877468318036, 20.9611641831633, 20.959292828782246, 20.95906415081512, 20.956643911021875, 20.95617818567789, 20.95544863654013, 20.953317302707806, 20.952429818263308, 20.952098796711457, 20.95151297381441, 20.95143675151639, 20.951488236868858, 20.94711518107568, 20.946191613235932, 20.94580574605237, 20.94592096738368, 20.942082029627265, 20.93876941267345, 20.93569327067932, 20.934756847270688, 20.932243480080725, 20.930604758705975, 20.92961029198536, 20.92979869270896, 20.92331313313254, 20.922275740011337, 20.919735294452273, 20.919476530643397, 20.91854562384332, 20.918126017083168, 20.91754987038289, 20.917439526130853, 20.91722027295258, 20.91699051433263, 20.916970849608905, 20.916950508434304, 20.9169224938818, 20.916068170962546, 20.911398404212882, 20.91078286628128, 20.91076682394023, 20.910624000015087, 20.907865516282786, 20.906788038319917, 20.906380801826245, 20.905256545504848, 20.905255638576808, 20.904179897014437, 20.904211029028733, 20.90401540444972, 20.903983730617984, 20.90371177205231, 20.90374540001808, 20.903805308506783, 20.903648416174615, 20.903522730099937, 20.90334780449612, 20.903382831423556, 20.9033223667411, 20.903098827385183, 20.903146577133782, 20.902572365062976, 20.90179289007, 20.901747917887175, 20.898858825914395, 20.898002180941294, 20.898021279691655, 20.89806518787393, 20.898105214116644, 20.898057412765738, 20.897415447359002, 20.89610582142626, 20.893466164354074, 20.893414504500413, 20.893295538351545, 20.89091610338262, 20.889088905834498, 20.888903618937174, 20.88882621687421, 20.886448499560956, 20.88634530764612, 20.885857050313714, 20.884466145211395, 20.883674025167565, 20.881645632836857, 20.881100914955873, 20.878100807290803, 20.87695419579412, 20.876537595923836, 20.876674383482747, 20.87318707648133, 20.872921806618844, 20.871879347285734, 20.86963509639303, 20.86769081394027, 20.867360224780935, 20.865622437231043, 20.864039534333095, 20.862991824284993, 20.86089392585279, 20.859699676096618, 20.859009573056724, 20.858366705706995, 20.858187755538907, 20.858427214027177, 20.85822396172263, 20.857854131314312, 20.856486221047422, 20.85386947420876, 20.8520941322136, 20.84977115859118, 20.847724614258837, 20.843471878452995, 20.841989964763098, 20.838100122270276, 20.83640676657991, 20.834856390543756, 20.83009384164666, 20.828731524154982, 20.827649920423603, 20.826208942609668, 20.82312888367692, 20.822196603364, 20.82160771996947, 20.82128591409464, 20.819889538484162, 20.818436334348572, 20.817326250250545, 20.81621089697466, 20.81545950318637, 20.81506702343417, 20.81437771904534, 20.813751310192718, 20.81319780640495, 20.811863367848787, 20.81163257348751, 20.80986007469987, 20.809720372301705, 20.807527440189155]}}, \"_estimator_type\": \"regressor\"}"},"feature_names":["station_code","hour_sin","hour_cos","month_sin","month_cos","tmp","rh","wsp","wdr"],"feature_types":["int","float","float","float","float","float","float","float","float"],"gradient_booster":{"model":{"gbtree_model_param":{"num_parallel_tree":"1","num_trees":"500","size_leaf_vector":"0"},"tree_info":[0,0,0,0,0,0,0,0,0,0,0,0,0,0,0,0,0,0,0,0,0,0,0,0,0,0,0,0,0,0,0,0,0,0,0,0,0,0,0,0,0,0,0,0,0,0,0,0,0,0,0,0,0,0,0,0,0,0,0,0,0,0,0,0,0,0,0,0,0,0,0,0,0,0,0,0,0,0,0,0,0,0,0,0,0,0,0,0,0,0,0,0,0,0,0,0,0,0,0,0,0,0,0,0,0,0,0,0,0,0,0,0,0,0,0,0,0,0,0,0,0,0,0,0,0,0,0,0,0,0,0,0,0,0,0,0,0,0,0,0,0,0,0,0,0,0,0,0,0,0,0,0,0,0,0,0,0,0,0,0,0,0,0,0,0,0,0,0,0,0,0,0,0,0,0,0,0,0,0,0,0,0,0,0,0,0,0,0,0,0,0,0,0,0,0,0,0,0,0,0,0,0,0,0,0,0,0,0,0,0,0,0,0,0,0,0,0,0,0,0,0,0,0,0,0,0,0,0,0,0,0,0,0,0,0,0,0,0,0,0,0,0,0,0,0,0,0,0,0,0,0,0,0,0,0,0,0,0,0,0,0,0,0,0,0,0,0,0,0,0,0,0,0,0,0,0,0,0,0,0,0,0,0,0,0,0,0,0,0,0,0,0,0,0,0,0,0,0,0,0,0,0,0,0,0,0,0,0,0,0,0,0,0,0,0,0,0,0,0,0,0,0,0,0,0,0,0,0,0,0,0,0,0,0,0,0,0,0,0,0,0,0,0,0,0,0,0,0,0,0,0,0,0,0,0,0,0,0,0,0,0,0,0,0,0,0,0,0,0,0,0,0,0,0,0,0,0,0,0,0,0,0,0,0,0,0,0,0,0,0,0,0,0,0,0,0,0,0,0,0,0,0,0,0,0,0,0,0,0,0,0,0,0,0,0,0,0,0,0,0,0,0,0,0,0,0,0,0,0,0,0,0,0,0,0,0,0,0,0,0,0,0,0,0,0,0,0,0,0,0,0,0,0,0,0,0,0,0,0,0,0,0,0,0,0,0,0,0,0,0,0,0,0,0,0,0,0,0,0,0,0,0,0,0,0,0,0,0,0,0,0,0,0,0,0,0,0,0,0,0],"trees":[{"base_weights":[3.949851E1,3.2096928E1,4.842127E1,2.8299656E1,4.3107697E1,4.518692E1,5.847628E1,3.1976183E1,2.094517E1,3.884291E1,5.316461E1,3.6863384E1,4.840554E1,5.57233E1,7.1532326E1,3.0257372E1,3.734172E1,2.337755E1,1.6138859E1,3.0091927E1,4.199845E1,5.0503407E1,6.641637E1,5.0508736E1,3.4538616E1,4.9459457E1,4.0378E1,6.367188E1,5.2520298E1,7.577248E1,5.3771065E1,3.1231426E1,2.3683514E1,3.5414062E1,4.2637436E1,2.2802208E1,3.7447628E1,1.5413615E1,2.5810259E1,4.050822E1,2.7964525E1,4.8534508E1,3.9653538E1,6.307903E1,4.7204483E1,8.263503E1,5.9632458E1,5.8332493E1,3.9480076E1,5.38067E1,3.320745E1,5.164601E1,4.4972763E1,4.797235E1,3.8295647E1,5.4558765E1,7.50534E1,5.5264294E1,4.308247E1,6.62424E1,9.066876E1,7.471082E1,4.7531387E1,2.964787E1,3.575196E1,3.0338053E1,2.199522E1,3.3925777E1,4.2770866E1,3.8773067E1,4.9804382E1,2.5301598E1,2.1162098E1,3.3929886E1,4.338471E1,1.6948603E1,1.3558334E1,3.551541E1,2.1799438E1,4.3592514E1,2.5279411E1,3.372225E1,2.5867851E1,5.128476E1,3.8055954E1,4.2295887E1,3.5518314E1,5.4188263E1,6.884262E1,4.9721264E1,3.759945E1,9.240213E1,4.41203E1,6.3381454E1,4.243085E1,4.9510567E1,6.9939186E1,1.8324091E1,4.9167595E1,6.2198654E1,4.5705505E1,4.2038773E1,3.142569E1,5.287244E1,4.6269333E1,4.1720272E1,4.6990673E1,4.984379E1,3.9074127E1,3.022705E1,3.963965E1,5.1628475E1,6.32921E1,8.061714E1,5.8467133E1,5.8514126E1,5.0247807E1,4.986997E1,4.030664E1,5.0922256E1,8.588253E1,1.1278784E2,7.55777E1,5.721875E1,8.1719574E1,5.173695E1,3.0353592E1],"categories":[],"categories_nodes":[],"categories_segments":[],"categories_sizes":[],"default_left":[1,1,1,1,1,1,1,1,1,1,1,1,1,1,1,1,1,1,1,1,1,1,1,1,1,1,1,1,1,1,1,1,1,1,1,1,1,1,1,1,1,1,1,1,1,1,1,1,1,1,1,1,1,1,1,1,1,1,1,1,1,1,1,0,0,0,0,0,0,0,0,0,0,0,0,0,0,0,0,0,0,0,0,0,0,0,0,0,0,0,0,0,0,0,0,0,0,0,0,0,0,0,0,0,0,0,0,0,0,0,0,0,0,0,0,0,0,0,0,0,0,0,0,0,0,0,0],"id":0,"left_children":[1,3,5,7,9,11,13,15,17,19,21,23,25,27,29,31,33,35,37,39,41,43,45,47,49,51,53,55,57,59,61,63,65,67,69,71,73,75,77,79,81,83,85,87,89,91,93,95,97,99,101,103,105,107,109,111,113,115,117,119,121,123,125,-1,-1,-1,-1,-1,-1,-1,-1,-1,-1,-1,-1,-1,-1,-1,-1,-1,-1,-1,-1,-1,-1,-1,-1,-1,-1,-1,-1,-1,-1,-1,-1,-1,-1,-1,-1,-1,-1,-1,-1,-1,-1,-1,-1,-1,-1,-1,-1,-1,-1,-1,-1,-1,-1,-1,-1,-1,-1,-1,-1,-1,-1,-1,-1],"loss_changes":[2.0905216E7,7.23352E6,4.665184E6,3.478336E6,1.900992E6,2.907744E6,1.251464E6,7.89976E5,5.00992E5,8.59216E5,4.62508E5,9.59088E5,6.60592E5,7.31184E5,4.5374E5,4.15308E5,2.10902E5,2.2964E5,1.0070375E5,1.819505E5,3.49048E5,4.53574E5,2.37789E5,3.77956E5,6.62086E5,6.76752E5,1.41977E5,8.54928E5,5.30328E5,6.90322E5,1.4997125E5,4.04004E5,9.35815E4,1.65642E5,1.51726E5,1.11608E5,2.1856625E4,3.796225E4,3.8307062E4,6.4609E4,8.199E4,1.72171E5,1.82712E5,1.13308E5,2.08974E5,2.396865E5,9.7849E4,2.60304E5,3.745655E5,1.107595E5,3.79678E5,3.04408E5,1.46952E5,3.05745E4,7.6252E4,1.14529E5,3.34882E5,2.56812E5,8.5375E4,8.96791E5,6.29368E5,2.8180375E4,6.4025625E4,0E0,0E0,0E0,0E0,0E0,0E0,0E0,0E0,0E0,0E0,0E0,0E0,0E0,0E0,0E0,0E0,0E0,0E0,0E0,0E0,0E0,0E0,0E0,0E0,0E0,0E0,0E0,0E0,0E0,0E0,0E0,0E0,0E0,0E0,0E0,0E0,0E0,0E0,0E0,0E0,0E0,0E0,0E0,0E0,0E0,0E0,0E0,0E0,0E0,0E0,0E0,0E0,0E0,0E0,0E0,0E0,0E0,0E0,0E0,0E0,0E0,0E0,0E0,0E0],"parents":[2147483647,0,0,1,1,2,2,3,3,4,4,5,5,6,6,7,7,8,8,9,9,10,10,11,11,12,12,13,13,14,14,15,15,16,16,17,17,18,18,19,19,20,20,21,21,22,22,23,23,24,24,25,25,26,26,27,27,28,28,29,29,30,30,31,31,32,32,33,33,34,34,35,35,36,36,37,37,38,38,39,39,40,40,41,41,42,42,43,43,44,44,45,45,46,46,47,47,48,48,49,49,50,50,51,51,52,52,53,53,54,54,55,55,56,56,57,57,58,58,59,59,60,60,61,61,62,62],"right_children":[2,4,6,8,10,12,14,16,18,20,22,24,26,28,30,32,34,36,38,40,42,44,46,48,50,52,54,56,58,60,62,64,66,68,70,72,74,76,78,80,82,84,86,88,90,92,94,96,98,100,102,104,106,108,110,112,114,116,118,120,122,124,126,-1,-1,-1,-1,-1,-1,-1,-1,-1,-1,-1,-1,-1,-1,-1,-1,-1,-1,-1,-1,-1,-1,-1,-1,-1,-1,-1,-1,-1,-1,-1,-1,-1,-1,-1,-1,-1,-1,-1,-1,-1,-1,-1,-1,-1,-1,-1,-1,-1,-1,-1,-1,-1,-1,-1,-1,-1,-1,-1,-1,-1,-1,-1,-1],"split_conditions":[2.5E-1,6.830127E-1,1.75E1,6.45E1,1.75E1,1.55E1,2.25E1,-2.5E-1,8.25E1,1.35E1,2.25E1,-6.035534E-1,7.865661E-1,-6.035534E-1,6.15E1,7.865661E-1,2.15E1,2.25E1,2.25E1,-6.035534E-1,-7.865661E-1,-7.865661E-1,8.5E-1,1.05E1,5E-1,1.807076E2,-3.7940952E-1,1.2940952E-1,5.1559097E1,1.2940952E-1,-3.7940952E-1,2.5E-1,-3.7940952E-1,2.05E1,-1.2940952E-1,7.5E0,2.5E-1,8.75E1,-6.1232336E-17,1.955651E0,1.2940952E-1,1.955651E0,-1.2940952E-1,-1.2940952E-1,6.75E1,8.25E1,2.15E1,6.5E0,1.2E1,7.15E1,1.195E2,7.865661E-1,6.830127E-1,1.807076E2,2.5E0,-1.2940952E-1,2.15E1,1.2940952E-1,1.85E1,1.2940952E-1,-3.7940952E-1,-2.5E-1,8.15E1,1.4823935E0,1.787598E0,1.5169027E0,1.099761E0,1.696289E0,2.1385434E0,1.9386533E0,2.490219E0,1.2650799E0,1.0581049E0,1.6964943E0,2.1692355E0,8.4743017E-1,6.779167E-1,1.7757705E0,1.0899719E0,2.1796257E0,1.2639706E0,1.6861126E0,1.2933925E0,2.564238E0,1.9027977E0,2.1147945E0,1.7759157E0,2.7094133E0,3.442131E0,2.4860632E0,1.8799725E0,4.6201067E0,2.206015E0,3.1690729E0,2.1215427E0,2.4755285E0,3.4969594E0,9.162046E-1,2.4583797E0,3.1099327E0,2.2852752E0,2.1019387E0,1.5712845E0,2.6436222E0,2.3134668E0,2.0860136E0,2.3495338E0,2.4921894E0,1.9537064E0,1.5113525E0,1.9819825E0,2.5814238E0,3.164605E0,4.030857E0,2.9233568E0,2.9257064E0,2.5123904E0,2.4934986E0,2.015332E0,2.5461128E0,4.2941265E0,5.6393924E0,3.778885E0,2.8609376E0,4.085979E0,2.5868475E0,1.5176796E0],"split_indices":[3,4,0,6,0,5,0,3,6,5,0,2,1,2,6,1,5,0,0,2,2,2,7,0,0,8,2,1,6,1,2,4,2,0,2,0,4,6,2,7,1,7,1,1,6,6,5,0,0,6,8,2,3,8,0,1,0,1,0,2,2,4,6,0,0,0,0,0,0,0,0,0,0,0,0,0,0,0,0,0,0,0,0,0,0,0,0,0,0,0,0,0,0,0,0,0,0,0,0,0,0,0,0,0,0,0,0,0,0,0,0,0,0,0,0,0,0,0,0,0,0,0,0,0,0,0,0],"split_type":[0,0,0,0,0,0,0,0,0,0,0,0,0,0,0,0,0,0,0,0,0,0,0,0,0,0,0,0,0,0,0,0,0,0,0,0,0,0,0,0,0,0,0,0,0,0,0,0,0,0,0,0,0,0,0,0,0,0,0,0,0,0,0,0,0,0,0,0,0,0,0,0,0,0,0,0,0,0,0,0,0,0,0,0,0,0,0,0,0,0,0,0,0,0,0,0,0,0,0,0,0,0,0,0,0,0,0,0,0,0,0,0,0,0,0,0,0,0,0,0,0,0,0,0,0,0,0],"sum_hessian":[3.16564E5,1.73034E5,1.4353E5,1.28665E5,4.4369E4,1.08602E5,3.4928E4,8.578E4,4.2885E4,3.116E4,1.3209E4,3.0288E4,7.8314E4,2.885E4,6.078E3,6.4973E4,2.0807E4,2.8472E4,1.4413E4,8.261E3,2.2899E4,1.1004E4,2.205E3,4.406E3,2.5882E4,6.9221E4,9.093E3,8.281E3,2.0569E4,4.904E3,1.174E3,5.6585E4,8.388E3,1.526E4,5.547E3,2.7356E4,1.116E3,1.341E4,1.003E3,1.398E3,6.863E3,6.041E3,1.6858E4,2.283E3,8.721E3,6.47E2,1.558E3,2.575E3,1.831E3,1.67E3,2.4212E4,4.6533E4,2.2688E4,1.952E3,7.141E3,4.602E3,3.679E3,1.5932E4,4.637E3,2.994E3,1.91E3,2.67E2,9.07E2,4.1911E4,1.4674E4,1.694E3,6.694E3,1.2697E4,2.563E3,3.608E3,1.939E3,1.0833E4,1.6523E4,7.05E2,4.11E2,7.334E3,6.076E3,2.91E2,7.12E2,1.161E3,2.37E2,1.828E3,5.035E3,4.782E3,1.259E3,1.028E4,6.578E3,9.02E2,1.381E3,6.907E3,1.814E3,5.15E2,1.32E2,1.277E3,2.81E2,1.466E3,1.109E3,5.76E2,1.255E3,8.17E2,8.53E2,4.061E3,2.0151E4,3.7883E4,8.65E3,8.695E3,1.3993E4,1.609E3,3.43E2,1.023E3,6.118E3,3.451E3,1.151E3,2.752E3,9.27E2,9.662E3,6.27E3,1.341E3,3.296E3,1.684E3,1.31E3,7.72E2,1.138E3,7.9E1,1.88E2,7.27E2,1.8E2],"tree_param":{"num_deleted":"0","num_feature":"9","num_nodes":"127","size_leaf_vector":"0"}},{"base_weights":[3.7524048E1,3.0492441E1,4.60008E1,2.6884865E1,4.0953156E1,4.2927902E1,5.5553898E1,3.004655E1,1.9123726E1,3.690124E1,5.050809E1,3.502082E1,4.5985485E1,5.2937923E1,6.79602E1,2.849379E1,3.501315E1,2.1306171E1,1.4960873E1,2.8588108E1,3.989889E1,4.797919E1,6.310104E1,4.798542E1,3.2812035E1,4.6986618E1,3.835997E1,6.048982E1,4.9894764E1,7.198717E1,5.1091915E1,2.9406982E1,2.2410267E1,3.3132664E1,4.0501606E1,2.07723E1,3.4034294E1,1.4246407E1,2.4139183E1,3.848527E1,2.6566732E1,4.610852E1,3.7671093E1,5.992777E1,4.4844757E1,7.851381E1,5.665423E1,5.5418186E1,3.7507915E1,5.11196E1,3.154723E1,4.9063816E1,4.272432E1,4.557601E1,3.638135E1,5.1832077E1,7.130262E1,5.2434998E1,4.068107E1,6.1901043E1,8.492553E1,7.10012E1,4.515934E1,2.7936169E1,3.3670803E1,2.8682901E1,2.077951E1,3.1736982E1,4.0191074E1,3.6828194E1,4.730929E1,2.3699963E1,1.9263636E1,3.7361244E1,2.8822676E1,2.2795338E1,1.3992036E1,3.326201E1,2.0302202E1,4.141476E1,2.4020752E1,3.2037064E1,2.4574717E1,4.8721054E1,3.6154663E1,4.0181297E1,3.374267E1,5.148185E1,6.540298E1,4.723556E1,3.5720512E1,8.779098E1,4.193087E1,6.019008E1,3.939686E1,4.7036724E1,6.644538E1,1.7409473E1,4.671117E1,5.9092525E1,4.3422905E1,3.9862522E1,2.9839226E1,5.055611E1,4.500954E1,4.0918617E1,4.6151794E1,4.735315E1,3.7126102E1,2.8717175E1,3.765799E1,4.9047802E1,6.0130245E1,7.658775E1,5.554693E1,5.5543015E1,4.7704304E1,4.7437145E1,3.7865635E1,4.0531006E1,7.860644E1,9.96702E1,7.180213E1,5.4393574E1,7.765522E1,9.5083435E1,4.3754436E1],"categories":[],"categories_nodes":[],"categories_segments":[],"categories_sizes":[],"default_left":[1,1,1,1,1,1,1,1,1,1,1,1,1,1,1,1,1,1,1,1,1,1,1,1,1,1,1,1,1,1,1,1,1,1,1,1,1,1,1,1,1,1,1,1,1,1,1,1,1,1,1,1,1,1,1,1,1,1,1,1,1,1,1,0,0,0,0,0,0,0,0,0,0,0,0,0,0,0,0,0,0,0,0,0,0,0,0,0,0,0,0,0,0,0,0,0,0,0,0,0,0,0,0,0,0,0,0,0,0,0,0,0,0,0,0,0,0,0,0,0,0,0,0,0,0,0,0],"id":1,"left_children":[1,3,5,7,9,11,13,15,17,19,21,23,25,27,29,31,33,35,37,39,41,43,45,47,49,51,53,55,57,59,61,63,65,67,69,71,73,75,77,79,81,83,85,87,89,91,93,95,97,99,101,103,105,107,109,111,113,115,117,119,121,123,125,-1,-1,-1,-1,-1,-1,-1,-1,-1,-1,-1,-1,-1,-1,-1,-1,-1,-1,-1,-1,-1,-1,-1,-1,-1,-1,-1,-1,-1,-1,-1,-1,-1,-1,-1,-1,-1,-1,-1,-1,-1,-1,-1,-1,-1,-1,-1,-1,-1,-1,-1,-1,-1,-1,-1,-1,-1,-1,-1,-1,-1,-1,-1,-1],"loss_changes":[1.886752E7,6.528864E6,4.211072E6,3.156664E6,1.71596E6,2.624048E6,1.130008E6,7.04032E5,3.38069E5,7.75388E5,4.1766E5,8.6578E5,5.96064E5,6.60024E5,4.09256E5,3.86284E5,2.23344E5,1.65319E5,8.368525E4,1.642665E5,3.1506E5,4.09472E5,2.14747E5,3.41124E5,5.97724E5,6.10768E5,1.28184E5,7.7162E5,4.79304E5,6.34836E5,1.355765E5,3.78836E5,9.24385E4,1.58512E5,1.37074E5,1.03128E5,1.594975E4,2.5539E4,3.1668562E4,5.8285875E4,7.40095E4,1.55359E5,1.64892E5,1.02252E5,1.88578E5,2.16241E5,9.2758E4,2.349595E5,3.3805375E5,9.99755E4,3.42696E5,2.79264E5,1.38532E5,2.756975E4,6.8798E4,1.034E5,3.02184E5,2.34384E5,8.28485E4,9.82119E5,4.08095E5,2.5392125E4,5.9525375E4,0E0,0E0,0E0,0E0,0E0,0E0,0E0,0E0,0E0,0E0,0E0,0E0,0E0,0E0,0E0,0E0,0E0,0E0,0E0,0E0,0E0,0E0,0E0,0E0,0E0,0E0,0E0,0E0,0E0,0E0,0E0,0E0,0E0,0E0,0E0,0E0,0E0,0E0,0E0,0E0,0E0,0E0,0E0,0E0,0E0,0E0,0E0,0E0,0E0,0E0,0E0,0E0,0E0,0E0,0E0,0E0,0E0,0E0,0E0,0E0,0E0,0E0,0E0,0E0],"parents":[2147483647,0,0,1,1,2,2,3,3,4,4,5,5,6,6,7,7,8,8,9,9,10,10,11,11,12,12,13,13,14,14,15,15,16,16,17,17,18,18,19,19,20,20,21,21,22,22,23,23,24,24,25,25,26,26,27,27,28,28,29,29,30,30,31,31,32,32,33,33,34,34,35,35,36,36,37,37,38,38,39,39,40,40,41,41,42,42,43,43,44,44,45,45,46,46,47,47,48,48,49,49,50,50,51,51,52,52,53,53,54,54,55,55,56,56,57,57,58,58,59,59,60,60,61,61,62,62],"right_children":[2,4,6,8,10,12,14,16,18,20,22,24,26,28,30,32,34,36,38,40,42,44,46,48,50,52,54,56,58,60,62,64,66,68,70,72,74,76,78,80,82,84,86,88,90,92,94,96,98,100,102,104,106,108,110,112,114,116,118,120,122,124,126,-1,-1,-1,-1,-1,-1,-1,-1,-1,-1,-1,-1,-1,-1,-1,-1,-1,-1,-1,-1,-1,-1,-1,-1,-1,-1,-1,-1,-1,-1,-1,-1,-1,-1,-1,-1,-1,-1,-1,-1,-1,-1,-1,-1,-1,-1,-1,-1,-1,-1,-1,-1,-1,-1,-1,-1,-1,-1,-1,-1,-1,-1,-1,-1],"split_conditions":[2.5E-1,6.830127E-1,1.75E1,6.85E1,1.75E1,1.55E1,2.25E1,-2.5E-1,8.35E1,1.35E1,2.25E1,-6.035534E-1,7.865661E-1,-6.035534E-1,6.15E1,7.865661E-1,2.15E1,2.25E1,2.25E1,-6.035534E-1,-7.865661E-1,-7.865661E-1,8.5E-1,1.05E1,5E-1,1.807076E2,-3.7940952E-1,1.2940952E-1,5.25E1,-6.123234E-17,-3.7940952E-1,2.5E-1,-3.7940952E-1,2.05E1,-1.2940952E-1,-6.1232336E-17,7.85E1,5E-1,-6.1232336E-17,1.955651E0,1.2940952E-1,1.955651E0,-1.2940952E-1,-1.2940952E-1,6.75E1,8.25E1,7.15E1,6.5E0,1.2E1,7.15E1,1.205E2,6.035534E-1,2.985E2,1.807076E2,2.5E0,-1.2940952E-1,2.15E1,1.2940952E-1,1.85E1,-1.2940952E-1,-3.7940952E-1,-2.5E-1,1.5E-1,1.3968085E0,1.6835402E0,1.4341451E0,1.0389756E0,1.5868491E0,2.0095537E0,1.8414097E0,2.3654647E0,1.1849982E0,9.631818E-1,1.8680623E0,1.4411339E0,1.1397669E0,6.996018E-1,1.6631005E0,1.0151101E0,2.070738E0,1.2010376E0,1.6018533E0,1.2287358E0,2.4360528E0,1.8077332E0,2.009065E0,1.6871334E0,2.5740926E0,3.270149E0,2.361778E0,1.7860256E0,4.389549E0,2.0965436E0,3.009504E0,1.9698429E0,2.3518362E0,3.3222692E0,8.704737E-1,2.3355587E0,2.9546263E0,2.1711452E0,1.9931262E0,1.4919614E0,2.5278056E0,2.250477E0,2.0459309E0,2.3075898E0,2.3676574E0,1.8563051E0,1.4358587E0,1.8828995E0,2.4523902E0,3.0065124E0,3.8293877E0,2.7773464E0,2.7771509E0,2.3852153E0,2.3718574E0,1.8932818E0,2.0265503E0,3.930322E0,4.98351E0,3.5901067E0,2.7196786E0,3.882761E0,4.754172E0,2.187722E0],"split_indices":[3,4,0,6,0,5,0,3,6,5,0,2,1,2,6,1,5,0,0,2,2,2,7,0,0,8,2,1,6,1,2,4,2,0,2,2,6,0,2,7,1,7,1,1,6,6,6,0,0,6,8,2,8,8,0,1,0,1,0,2,2,4,7,0,0,0,0,0,0,0,0,0,0,0,0,0,0,0,0,0,0,0,0,0,0,0,0,0,0,0,0,0,0,0,0,0,0,0,0,0,0,0,0,0,0,0,0,0,0,0,0,0,0,0,0,0,0,0,0,0,0,0,0,0,0,0,0],"split_type":[0,0,0,0,0,0,0,0,0,0,0,0,0,0,0,0,0,0,0,0,0,0,0,0,0,0,0,0,0,0,0,0,0,0,0,0,0,0,0,0,0,0,0,0,0,0,0,0,0,0,0,0,0,0,0,0,0,0,0,0,0,0,0,0,0,0,0,0,0,0,0,0,0,0,0,0,0,0,0,0,0,0,0,0,0,0,0,0,0,0,0,0,0,0,0,0,0,0,0,0,0,0,0,0,0,0,0,0,0,0,0,0,0,0,0,0,0,0,0,0,0,0,0,0,0,0,0],"sum_hessian":[3.16564E5,1.73034E5,1.4353E5,1.28665E5,4.4369E4,1.08602E5,3.4928E4,9.142E4,3.7245E4,3.116E4,1.3209E4,3.0288E4,7.8314E4,2.885E4,6.078E3,6.9651E4,2.1769E4,2.4432E4,1.2813E4,8.261E3,2.2899E4,1.1004E4,2.205E3,4.406E3,2.5882E4,6.9221E4,9.093E3,8.281E3,2.0569E4,4.904E3,1.174E3,6.0557E4,9.094E3,1.6219E4,5.55E3,2.3451E4,9.81E2,1.189E4,9.23E2,1.398E3,6.863E3,6.041E3,1.6858E4,2.283E3,8.721E3,6.47E2,1.558E3,2.575E3,1.831E3,1.67E3,2.4212E4,4.6533E4,2.2688E4,1.952E3,7.141E3,4.602E3,3.679E3,1.612E4,4.449E3,2.759E3,2.145E3,2.67E2,9.07E2,4.5031E4,1.5526E4,1.873E3,7.221E3,1.3546E4,2.673E3,3.609E3,1.941E3,7.97E3,1.5481E4,5.95E2,3.86E2,3.41E2,1.1549E4,2.71E2,6.52E2,1.161E3,2.37E2,1.828E3,5.035E3,4.782E3,1.259E3,1.028E4,6.578E3,9.02E2,1.381E3,6.907E3,1.814E3,5.15E2,1.32E2,1.291E3,2.67E2,1.466E3,1.109E3,5.76E2,1.255E3,8.17E2,8.53E2,4.122E3,2.009E4,3.4005E4,1.2528E4,1.4868E4,7.82E3,1.609E3,3.43E2,1.023E3,6.118E3,3.451E3,1.151E3,2.752E3,9.27E2,9.722E3,6.398E3,1.304E3,3.145E3,1.212E3,1.547E3,1.007E3,1.138E3,7.9E1,1.88E2,2.3E1,8.84E2],"tree_param":{"num_deleted":"0","num_feature":"9","num_nodes":"127","size_leaf_vector":"0"}},{"base_weights":[3.5648296E1,2.8968159E1,4.3701344E1,2.5540802E1,3.8906296E1,4.0781822E1,5.2777622E1,2.8871851E1,1.8877413E1,3.505663E1,4.7984314E1,3.327036E1,4.3686424E1,5.029177E1,6.456681E1,2.7318943E1,3.3719498E1,2.1465807E1,1.5169952E1,2.7159441E1,3.7904293E1,4.5581142E1,5.9951183E1,4.5588165E1,3.1171766E1,4.463742E1,3.64428E1,5.7466785E1,4.7400486E1,6.839077E1,4.8548847E1,2.8198772E1,2.1381E1,3.1985874E1,3.8482132E1,2.09284E1,3.511655E1,1.4560891E1,2.376007E1,3.6563347E1,2.523881E1,4.38038E1,3.5787758E1,5.4633064E1,4.184653E1,7.459813E1,5.382471E1,5.264948E1,3.563427E1,4.8566685E1,2.997001E1,4.661073E1,4.0588295E1,4.329937E1,3.4562748E1,4.9241657E1,6.773928E1,4.987868E1,3.887688E1,5.969133E1,8.198912E1,7.4998116E1,4.445607E1,2.6768736E1,3.228106E1,2.7388746E1,1.9856804E1,2.699307E1,3.3907394E1,3.5570007E1,4.6310112E1,2.3414684E1,1.932238E1,3.1646517E1,4.1024334E1,1.6576605E1,1.2821333E1,3.240668E1,1.9996431E1,3.9345806E1,2.282476E1,1.9015636E1,2.6925388E1,4.6285515E1,3.4348366E1,3.817243E1,3.2055794E1,4.3206615E1,5.9105583E1,4.6883026E1,3.7450253E1,8.3409935E1,3.985009E1,5.742492E1,3.7318E1,6.100744E1,4.224887E1,1.6540508E1,4.4377476E1,5.614151E1,4.12543E1,3.7944717E1,2.8361078E1,4.7729538E1,4.1705917E1,3.733306E1,4.247736E1,4.4937786E1,3.4604153E1,3.6499672E1,2.98442E1,4.6596123E1,5.712634E1,7.275976E1,5.277257E1,5.281186E1,4.5350983E1,4.4553333E1,3.5968716E1,4.5672142E1,7.766436E1,1.0217868E2,6.821518E1,4.289519E1,8.461923E1,4.788863E1,2.5844511E1],"categories":[],"categories_nodes":[],"categories_segments":[],"categories_sizes":[],"default_left":[1,1,1,1,1,1,1,1,1,1,1,1,1,1,1,1,1,1,1,1,1,1,1,1,1,1,1,1,1,1,1,1,1,1,1,1,1,1,1,1,1,1,1,1,1,1,1,1,1,1,1,1,1,1,1,1,1,1,1,1,1,1,1,0,0,0,0,0,0,0,0,0,0,0,0,0,0,0,0,0,0,0,0,0,0,0,0,0,0,0,0,0,0,0,0,0,0,0,0,0,0,0,0,0,0,0,0,0,0,0,0,0,0,0,0,0,0,0,0,0,0,0,0,0,0,0,0],"id":2,"left_children":[1,3,5,7,9,11,13,15,17,19,21,23,25,27,29,31,33,35,37,39,41,43,45,47,49,51,53,55,57,59,61,63,65,67,69,71,73,75,77,79,81,83,85,87,89,91,93,95,97,99,101,103,105,107,109,111,113,115,117,119,121,123,125,-1,-1,-1,-1,-1,-1,-1,-1,-1,-1,-1,-1,-1,-1,-1,-1,-1,-1,-1,-1,-1,-1,-1,-1,-1,-1,-1,-1,-1,-1,-1,-1,-1,-1,-1,-1,-1,-1,-1,-1,-1,-1,-1,-1,-1,-1,-1,-1,-1,-1,-1,-1,-1,-1,-1,-1,-1,-1,-1,-1,-1,-1,-1,-1],"loss_changes":[1.702848E7,5.892848E6,3.801184E6,2.855328E6,1.548928E6,2.368016E6,1.020384E6,6.44832E5,4.11225E5,6.99736E5,3.77166E5,7.81554E5,5.37856E5,5.95792E5,3.6903E5,3.38848E5,1.70572E5,1.84514E5,9.191875E4,1.483005E5,2.84374E5,3.69742E5,1.939385E5,3.07882E5,5.39614E5,5.51216E5,1.15732E5,6.96432E5,4.3256E5,5.75358E5,1.2386075E5,3.29476E5,7.6274E4,1.45496E5,1.24825E5,9.657E4,1.8279375E4,5.753875E4,3.7296875E4,5.2581625E4,7.1532E4,1.40189E5,1.48814E5,1.61544E5,1.70839E5,1.950895E5,9.05045E4,2.21348E5,3.0510125E5,9.024075E4,3.09596E5,2.5336E5,1.37936E5,2.6268E4,6.4184E4,9.3353E4,2.72676E5,2.09208E5,7.4962E4,7.51094E5,5.2446E5,4.455325E4,6.3925375E4,0E0,0E0,0E0,0E0,0E0,0E0,0E0,0E0,0E0,0E0,0E0,0E0,0E0,0E0,0E0,0E0,0E0,0E0,0E0,0E0,0E0,0E0,0E0,0E0,0E0,0E0,0E0,0E0,0E0,0E0,0E0,0E0,0E0,0E0,0E0,0E0,0E0,0E0,0E0,0E0,0E0,0E0,0E0,0E0,0E0,0E0,0E0,0E0,0E0,0E0,0E0,0E0,0E0,0E0,0E0,0E0,0E0,0E0,0E0,0E0,0E0,0E0,0E0,0E0],"parents":[2147483647,0,0,1,1,2,2,3,3,4,4,5,5,6,6,7,7,8,8,9,9,10,10,11,11,12,12,13,13,14,14,15,15,16,16,17,17,18,18,19,19,20,20,21,21,22,22,23,23,24,24,25,25,26,26,27,27,28,28,29,29,30,30,31,31,32,32,33,33,34,34,35,35,36,36,37,37,38,38,39,39,40,40,41,41,42,42,43,43,44,44,45,45,46,46,47,47,48,48,49,49,50,50,51,51,52,52,53,53,54,54,55,55,56,56,57,57,58,58,59,59,60,60,61,61,62,62],"right_children":[2,4,6,8,10,12,14,16,18,20,22,24,26,28,30,32,34,36,38,40,42,44,46,48,50,52,54,56,58,60,62,64,66,68,70,72,74,76,78,80,82,84,86,88,90,92,94,96,98,100,102,104,106,108,110,112,114,116,118,120,122,124,126,-1,-1,-1,-1,-1,-1,-1,-1,-1,-1,-1,-1,-1,-1,-1,-1,-1,-1,-1,-1,-1,-1,-1,-1,-1,-1,-1,-1,-1,-1,-1,-1,-1,-1,-1,-1,-1,-1,-1,-1,-1,-1,-1,-1,-1,-1,-1,-1,-1,-1,-1,-1,-1,-1,-1,-1,-1,-1,-1,-1,-1,-1,-1,-1],"split_conditions":[2.5E-1,6.830127E-1,1.75E1,6.45E1,1.75E1,1.55E1,2.25E1,-2.5E-1,8.05E1,1.35E1,2.25E1,-6.035534E-1,7.865661E-1,-6.035534E-1,6.15E1,7.865661E-1,2.15E1,2.25E1,2.25E1,-6.035534E-1,-7.865661E-1,-6.035534E-1,8.5E-1,1.05E1,5E-1,1.807076E2,-3.7940952E-1,1.2940952E-1,5.1559097E1,1.2940952E-1,-6.035534E-1,2.5E-1,-3.7940952E-1,4.5E0,1.2940952E-1,7.5E0,2.5E-1,8.55E1,-6.1232336E-17,1.955651E0,2E0,1.955651E0,-1.2940952E-1,-3.7940952E-1,-1.2940952E-1,8.25E1,2.15E1,1.3499999E0,1.2E1,7.15E1,1.195E2,7.865661E-1,1.85E1,1.4E1,2.5E-1,-1.2940952E-1,2.15E1,1.2940952E-1,9.45E1,1.2940952E-1,-3.7940952E-1,-2.5E-1,8.35E1,1.3384368E0,1.614053E0,1.3694373E0,9.9284023E-1,1.3496536E0,1.6953697E0,1.7785004E0,2.3155057E0,1.1707343E0,9.66119E-1,1.5823258E0,2.0512168E0,8.2883024E-1,6.410667E-1,1.620334E0,9.998216E-1,1.9672903E0,1.1412381E0,9.507818E-1,1.3462695E0,2.3142757E0,1.7174183E0,1.9086214E0,1.6027898E0,2.1603308E0,2.955279E0,2.3441513E0,1.8725127E0,4.170497E0,1.9925045E0,2.871246E0,1.8659E0,3.050372E0,2.1124437E0,8.270254E-1,2.2188737E0,2.8070755E0,2.062715E0,1.8972359E0,1.418054E0,2.386477E0,2.085296E0,1.8666531E0,2.123868E0,2.2468894E0,1.7302077E0,1.8249836E0,1.49221E0,2.329806E0,2.856317E0,3.6379879E0,2.6386287E0,2.640593E0,2.2675493E0,2.2276666E0,1.7984358E0,2.2836072E0,3.883218E0,5.108934E0,3.410759E0,2.1447597E0,4.230962E0,2.3944316E0,1.2922256E0],"split_indices":[3,4,0,6,0,5,0,3,6,5,0,2,1,2,6,1,5,0,0,2,2,2,7,0,0,8,2,1,6,1,2,4,2,0,2,0,4,6,2,7,0,7,1,1,1,6,5,7,0,6,8,2,5,0,4,1,0,1,8,2,2,4,6,0,0,0,0,0,0,0,0,0,0,0,0,0,0,0,0,0,0,0,0,0,0,0,0,0,0,0,0,0,0,0,0,0,0,0,0,0,0,0,0,0,0,0,0,0,0,0,0,0,0,0,0,0,0,0,0,0,0,0,0,0,0,0,0],"split_type":[0,0,0,0,0,0,0,0,0,0,0,0,0,0,0,0,0,0,0,0,0,0,0,0,0,0,0,0,0,0,0,0,0,0,0,0,0,0,0,0,0,0,0,0,0,0,0,0,0,0,0,0,0,0,0,0,0,0,0,0,0,0,0,0,0,0,0,0,0,0,0,0,0,0,0,0,0,0,0,0,0,0,0,0,0,0,0,0,0,0,0,0,0,0,0,0,0,0,0,0,0,0,0,0,0,0,0,0,0,0,0,0,0,0,0,0,0,0,0,0,0,0,0,0,0,0,0],"sum_hessian":[3.16564E5,1.73034E5,1.4353E5,1.28665E5,4.4369E4,1.08602E5,3.4928E4,8.578E4,4.2885E4,3.116E4,1.3209E4,3.0288E4,7.8314E4,2.885E4,6.078E3,6.4973E4,2.0807E4,2.5251E4,1.7634E4,8.261E3,2.2899E4,1.1004E4,2.205E3,4.406E3,2.5882E4,6.9221E4,9.093E3,8.281E3,2.0569E4,4.904E3,1.174E3,5.6585E4,8.388E3,1.526E4,5.547E3,2.4297E4,9.54E2,1.6469E4,1.165E3,1.398E3,6.863E3,6.041E3,1.6858E4,3.21E3,7.794E3,6.47E2,1.558E3,2.575E3,1.831E3,1.67E3,2.4212E4,4.6533E4,2.2688E4,1.952E3,7.141E3,4.602E3,3.679E3,1.5932E4,4.637E3,2.994E3,1.91E3,1.55E2,1.019E3,4.1911E4,1.4674E4,1.694E3,6.694E3,4.245E3,1.1015E4,4.047E3,1.5E3,9.53E3,1.4767E4,6.05E2,3.49E2,7.625E3,8.844E3,3.51E2,8.14E2,1.161E3,2.37E2,1.466E3,5.397E3,4.782E3,1.259E3,1.028E4,6.578E3,9.06E2,2.304E3,3.628E3,4.166E3,5.15E2,1.32E2,1.277E3,2.81E2,1.425E3,1.15E3,5.76E2,1.255E3,8.17E2,8.53E2,4.061E3,2.0151E4,3.7883E4,8.65E3,8.339E3,1.4349E4,1.639E3,3.13E2,5.058E3,2.083E3,3.451E3,1.151E3,2.752E3,9.27E2,9.662E3,6.27E3,1.566E3,3.071E3,1.684E3,1.31E3,7.72E2,1.138E3,3.7E1,1.18E2,8.59E2,1.6E2],"tree_param":{"num_deleted":"0","num_feature":"9","num_nodes":"127","size_leaf_vector":"0"}},{"base_weights":[3.3866302E1,2.7520071E1,4.1516815E1,2.4263937E1,3.696173E1,3.8743027E1,5.0140034E1,2.7124022E1,1.7243155E1,3.3304214E1,4.5586628E1,3.0694183E1,4.120901E1,4.777789E1,6.134254E1,2.5723059E1,3.160508E1,1.9407469E1,1.38135E1,2.5802124E1,3.6009407E1,4.3302933E1,5.6958565E1,4.348196E1,2.8717196E1,4.184395E1,3.0427456E1,5.036099E1,4.02477E1,6.517005E1,4.678342E1,2.4355387E1,2.9272354E1,3.2958733E1,2.4954943E1,1.8925505E1,3.1104832E1,1.319054E1,2.2120974E1,3.47374E1,2.3977203E1,4.1614277E1,3.3998577E1,5.41324E1,4.0462093E1,7.087774E1,5.1136513E1,5.058219E1,3.2773624E1,4.5614265E1,2.7467573E1,4.3482788E1,3.8280098E1,3.486127E1,2.5075499E1,5.7089233E1,4.763922E1,4.723398E1,3.7455097E1,5.565764E1,7.765407E1,6.383921E1,4.1711143E1,2.5428785E1,1.9333271E1,3.3387806E1,2.7268124E1,2.7848732E1,3.48045E1,2.349036E1,3.0109766E1,2.1656275E1,1.7490448E1,3.416683E1,2.6527245E1,1.4569757E1,1.152364E1,3.0488735E1,1.8663038E1,3.738021E1,2.1688316E1,2.9198019E1,2.207632E1,4.397172E1,3.2632313E1,3.6263992E1,3.0453247E1,4.634419E1,5.9182056E1,4.2703686E1,3.1908155E1,7.924752E1,3.787257E1,5.4532536E1,3.457383E1,5.830247E1,3.9698208E1,1.4508369E1,4.118516E1,5.3250095E1,3.9220646E1,3.0403637E1,2.3002512E1,4.462819E1,3.6018173E1,3.611732E1,4.2554955E1,3.7263264E1,2.5626118E1,2.0778446E1,3.2687218E1,4.741111E1,6.912309E1,5.2181732E1,4.27521E1,5.046763E1,4.0983414E1,3.9789356E1,3.0066254E1,3.6224403E1,7.1108925E1,9.096795E1,6.5549255E1,4.8413956E1,7.057217E1,4.7331215E1,3.0115664E1],"categories":[],"categories_nodes":[],"categories_segments":[],"categories_sizes":[],"default_left":[1,1,1,1,1,1,1,1,1,1,1,1,1,1,1,1,1,1,1,1,1,1,1,1,1,1,1,1,1,1,1,1,1,1,1,1,1,1,1,1,1,1,1,1,1,1,1,1,1,1,1,1,1,1,1,1,1,1,1,1,1,1,1,0,0,0,0,0,0,0,0,0,0,0,0,0,0,0,0,0,0,0,0,0,0,0,0,0,0,0,0,0,0,0,0,0,0,0,0,0,0,0,0,0,0,0,0,0,0,0,0,0,0,0,0,0,0,0,0,0,0,0,0,0,0,0,0],"id":3,"left_children":[1,3,5,7,9,11,13,15,17,19,21,23,25,27,29,31,33,35,37,39,41,43,45,47,49,51,53,55,57,59,61,63,65,67,69,71,73,75,77,79,81,83,85,87,89,91,93,95,97,99,101,103,105,107,109,111,113,115,117,119,121,123,125,-1,-1,-1,-1,-1,-1,-1,-1,-1,-1,-1,-1,-1,-1,-1,-1,-1,-1,-1,-1,-1,-1,-1,-1,-1,-1,-1,-1,-1,-1,-1,-1,-1,-1,-1,-1,-1,-1,-1,-1,-1,-1,-1,-1,-1,-1,-1,-1,-1,-1,-1,-1,-1,-1,-1,-1,-1,-1,-1,-1,-1,-1,-1,-1],"loss_changes":[1.5368704E7,5.318776E6,3.431168E6,2.583144E6,1.398168E6,2.154304E6,9.2136E5,5.73112E5,2.76203E5,6.31472E5,3.40596E5,6.42766E5,5.67808E5,5.5916E5,3.35704E5,3.37396E5,1.95152E5,1.28137E5,7.4304E4,1.33889E5,2.56676E5,3.36378E5,1.751455E5,2.57534E5,4.6467E5,4.56848E5,1.08922E5,3.90604E5,1.42096E5,5.66998E5,1.071205E5,2.70576E5,1.58851E5,1.69606E5,2.712075E4,8.55685E4,1.17365625E4,3.066425E4,2.8481938E4,4.74355E4,6.747475E4,1.26501E5,1.34302E5,8.7082E4,1.65877E5,1.76006E5,8.5804E4,1.697735E5,2.0865862E5,7.202125E4,2.68691E5,4.58104E5,2.27168E5,5.5123E4,6.80075E4,7.16594E5,3.3738E5,4.0418E4,8.9749E4,8.18358E5,3.28932E5,2.6598125E4,6.2503875E4,0E0,0E0,0E0,0E0,0E0,0E0,0E0,0E0,0E0,0E0,0E0,0E0,0E0,0E0,0E0,0E0,0E0,0E0,0E0,0E0,0E0,0E0,0E0,0E0,0E0,0E0,0E0,0E0,0E0,0E0,0E0,0E0,0E0,0E0,0E0,0E0,0E0,0E0,0E0,0E0,0E0,0E0,0E0,0E0,0E0,0E0,0E0,0E0,0E0,0E0,0E0,0E0,0E0,0E0,0E0,0E0,0E0,0E0,0E0,0E0,0E0,0E0,0E0,0E0],"parents":[2147483647,0,0,1,1,2,2,3,3,4,4,5,5,6,6,7,7,8,8,9,9,10,10,11,11,12,12,13,13,14,14,15,15,16,16,17,17,18,18,19,19,20,20,21,21,22,22,23,23,24,24,25,25,26,26,27,27,28,28,29,29,30,30,31,31,32,32,33,33,34,34,35,35,36,36,37,37,38,38,39,39,40,40,41,41,42,42,43,43,44,44,45,45,46,46,47,47,48,48,49,49,50,50,51,51,52,52,53,53,54,54,55,55,56,56,57,57,58,58,59,59,60,60,61,61,62,62],"right_children":[2,4,6,8,10,12,14,16,18,20,22,24,26,28,30,32,34,36,38,40,42,44,46,48,50,52,54,56,58,60,62,64,66,68,70,72,74,76,78,80,82,84,86,88,90,92,94,96,98,100,102,104,106,108,110,112,114,116,118,120,122,124,126,-1,-1,-1,-1,-1,-1,-1,-1,-1,-1,-1,-1,-1,-1,-1,-1,-1,-1,-1,-1,-1,-1,-1,-1,-1,-1,-1,-1,-1,-1,-1,-1,-1,-1,-1,-1,-1,-1,-1,-1,-1,-1,-1,-1,-1,-1,-1,-1,-1,-1,-1,-1,-1,-1,-1,-1,-1,-1,-1,-1,-1,-1,-1,-1],"split_conditions":[2.5E-1,6.830127E-1,1.75E1,6.85E1,1.75E1,1.45E1,2.25E1,-2.5E-1,8.25E1,1.35E1,2.25E1,-6.035534E-1,5.95E1,2.15E1,5.95E1,1.75E1,5.25E1,2.25E1,2.25E1,-6.035534E-1,-7.865661E-1,-7.865661E-1,8.5E-1,1.05E1,5E-1,1.807076E2,9.5E0,-6.035534E-1,-6.035534E-1,-6.123234E-17,-3.7940952E-1,6.035534E-1,-6.035534E-1,4.5E0,1.75E1,-6.1232336E-17,7.75E1,8.75E1,-6.1232336E-17,1.955651E0,1.2940952E-1,1.955651E0,-1.2940952E-1,-1.2940952E-1,6.75E1,8.25E1,7.15E1,1.3499999E0,1.2E1,7.15E1,1.05E1,7.865661E-1,2.965E2,7.45E1,6.830127E-1,1.2940952E-1,1.2940952E-1,1.955651E0,6.25E1,-1.2940952E-1,-3.7940952E-1,-2.5E-1,7.55E1,1.2714393E0,9.6666354E-1,1.6693903E0,1.3634062E0,1.3924366E0,1.7402251E0,1.174518E0,1.5054883E0,1.0828137E0,8.745224E-1,1.7083415E0,1.3263623E0,7.284879E-1,5.76182E-1,1.5244368E0,9.331519E-1,1.8690106E0,1.0844158E0,1.459901E0,1.103816E0,2.1985862E0,1.6316156E0,1.8131996E0,1.5226624E0,2.3172095E0,2.9591029E0,2.1351843E0,1.5954078E0,3.962376E0,1.8936285E0,2.7266269E0,1.7286915E0,2.9151237E0,1.9849104E0,7.254185E-1,2.0592582E0,2.662505E0,1.9610323E0,1.5201819E0,1.1501256E0,2.2314095E0,1.8009087E0,1.8058661E0,2.1277478E0,1.8631632E0,1.2813059E0,1.0389223E0,1.6343609E0,2.3705556E0,3.4561546E0,2.6090868E0,2.1376052E0,2.5233815E0,2.0491707E0,1.9894679E0,1.5033127E0,1.8112202E0,3.5554464E0,4.5483975E0,3.2774627E0,2.420698E0,3.5286083E0,2.3665607E0,1.5057832E0],"split_indices":[3,4,0,6,0,5,0,3,6,5,0,2,6,0,6,0,6,0,0,2,2,2,7,0,0,8,0,2,2,1,2,1,2,0,0,2,6,6,2,7,1,7,1,1,6,6,6,7,0,6,0,1,8,6,3,1,1,7,6,2,2,4,6,0,0,0,0,0,0,0,0,0,0,0,0,0,0,0,0,0,0,0,0,0,0,0,0,0,0,0,0,0,0,0,0,0,0,0,0,0,0,0,0,0,0,0,0,0,0,0,0,0,0,0,0,0,0,0,0,0,0,0,0,0,0,0,0],"split_type":[0,0,0,0,0,0,0,0,0,0,0,0,0,0,0,0,0,0,0,0,0,0,0,0,0,0,0,0,0,0,0,0,0,0,0,0,0,0,0,0,0,0,0,0,0,0,0,0,0,0,0,0,0,0,0,0,0,0,0,0,0,0,0,0,0,0,0,0,0,0,0,0,0,0,0,0,0,0,0,0,0,0,0,0,0,0,0,0,0,0,0,0,0,0,0,0,0,0,0,0,0,0,0,0,0,0,0,0,0,0,0,0,0,0,0,0,0,0,0,0,0,0,0,0,0,0,0],"sum_hessian":[3.16564E5,1.73034E5,1.4353E5,1.28665E5,4.4369E4,1.08602E5,3.4928E4,9.142E4,3.7245E4,3.116E4,1.3209E4,2.5473E4,8.3129E4,2.885E4,6.078E3,6.9651E4,2.1769E4,2.2832E4,1.4413E4,8.261E3,2.2899E4,1.1004E4,2.205E3,3.408E3,2.2065E4,7.8503E4,4.626E3,2.1477E4,7.373E3,4.81E3,1.268E3,5.0283E4,1.9368E4,1.8084E4,3.685E3,2.1931E4,9.01E2,1.341E4,1.003E3,1.398E3,6.863E3,6.041E3,1.6858E4,2.283E3,8.721E3,6.47E2,1.558E3,2.047E3,1.361E3,1.517E3,2.0548E4,5.3767E4,2.4736E4,2.527E3,2.099E3,6.18E3,1.5297E4,2.101E3,5.272E3,2.733E3,2.077E3,2.88E2,9.8E2,4.1425E4,8.858E3,6.338E3,1.303E4,4.803E3,1.3281E4,2.874E3,8.11E2,7.55E3,1.4381E4,5.36E2,3.65E2,7.334E3,6.076E3,2.91E2,7.12E2,1.161E3,2.37E2,1.828E3,5.035E3,4.782E3,1.259E3,1.028E4,6.578E3,9.02E2,1.381E3,6.907E3,1.814E3,5.15E2,1.32E2,1.291E3,2.67E2,1.195E3,8.52E2,4.3E2,9.31E2,6.88E2,8.29E2,1.2393E4,8.155E3,4.661E4,7.157E3,1.6432E4,8.304E3,2.003E3,5.24E2,1.344E3,7.55E2,3.428E3,2.752E3,7.923E3,7.374E3,1.38E3,7.21E2,4.003E3,1.269E3,1.212E3,1.521E3,9.86E2,1.091E3,9E1,1.98E2,6.58E2,3.22E2],"tree_param":{"num_deleted":"0","num_feature":"9","num_nodes":"127","size_leaf_vector":"0"}},{"base_weights":[3.2173374E1,2.6144367E1,3.9441467E1,2.3050894E1,3.5114365E1,3.680614E1,4.7634224E1,2.606388E1,1.7023748E1,3.163941E1,4.3308758E1,2.9160063E1,3.9148727E1,4.538964E1,5.8279198E1,2.466245E1,3.0438662E1,1.9555597E1,1.3910204E1,2.5209293E1,3.448919E1,4.1138603E1,5.411531E1,4.1310116E1,2.7281666E1,3.9751854E1,2.890734E1,4.7843433E1,3.823641E1,6.0749187E1,3.7732677E1,2.3374418E1,2.8263693E1,2.8815392E1,3.4898342E1,1.9058674E1,3.22717E1,1.3378867E1,2.1657822E1,3.328723E1,2.3339514E1,3.9796925E1,3.256667E1,4.9388042E1,3.7735126E1,6.734289E1,4.8582546E1,4.8055473E1,3.113699E1,4.3336597E1,2.6094326E1,4.0577236E1,3.3294693E1,3.311945E1,2.3822996E1,5.4235714E1,4.525757E1,4.4874454E1,3.5583004E1,6.5683136E1,4.4454998E1,3.0693985E1,5.967911E1,2.6030033E1,2.1660795E1,2.9348183E1,2.1724258E1,2.7521414E1,3.521247E1,3.1555054E1,4.10999E1,2.1470243E1,1.7516323E1,2.8978134E1,3.764792E1,1.549613E1,1.1823124E1,2.9456018E1,1.8228275E1,3.6009354E1,2.0753426E1,2.8444033E1,2.1104982E1,4.1956905E1,3.1553875E1,3.3761627E1,2.6148846E1,4.1650642E1,5.5123287E1,4.1942276E1,3.3105717E1,7.529282E1,3.599318E1,2.810119E1,5.135362E1,6.064019E1,4.1946888E1,1.3784634E1,3.9128113E1,4.7546543E1,3.2880836E1,3.4009846E1,2.4490799E1,4.2396828E1,3.688667E1,3.804118E1,3.0250427E1,3.5401028E1,2.4347252E1,1.9740297E1,3.1055017E1,4.5041245E1,6.566819E1,5.0128197E1,4.1121067E1,4.7946075E1,3.8937084E1,3.7800385E1,2.8564125E1,5.7332363E1,7.428332E1,6.0775326E1,3.959859E1,4.0804462E1,2.805114E1,6.920177E1,3.6414658E1],"categories":[],"categories_nodes":[],"categories_segments":[],"categories_sizes":[],"default_left":[1,1,1,1,1,1,1,1,1,1,1,1,1,1,1,1,1,1,1,1,1,1,1,1,1,1,1,1,1,1,1,1,1,1,1,1,1,1,1,1,1,1,1,1,1,1,1,1,1,1,1,1,1,1,1,1,1,1,1,1,1,1,1,0,0,0,0,0,0,0,0,0,0,0,0,0,0,0,0,0,0,0,0,0,0,0,0,0,0,0,0,0,0,0,0,0,0,0,0,0,0,0,0,0,0,0,0,0,0,0,0,0,0,0,0,0,0,0,0,0,0,0,0,0,0,0,0],"id":4,"left_children":[1,3,5,7,9,11,13,15,17,19,21,23,25,27,29,31,33,35,37,39,41,43,45,47,49,51,53,55,57,59,61,63,65,67,69,71,73,75,77,79,81,83,85,87,89,91,93,95,97,99,101,103,105,107,109,111,113,115,117,119,121,123,125,-1,-1,-1,-1,-1,-1,-1,-1,-1,-1,-1,-1,-1,-1,-1,-1,-1,-1,-1,-1,-1,-1,-1,-1,-1,-1,-1,-1,-1,-1,-1,-1,-1,-1,-1,-1,-1,-1,-1,-1,-1,-1,-1,-1,-1,-1,-1,-1,-1,-1,-1,-1,-1,-1,-1,-1,-1,-1,-1,-1,-1,-1,-1,-1],"loss_changes":[1.3870624E7,4.800648E6,3.097152E6,2.336096E6,1.262068E6,1.944112E6,8.31936E5,5.25172E5,3.378E5,5.70138E5,3.07574E5,5.80258E5,5.12336E5,5.04576E5,3.06216E5,3.00724E5,1.49628E5,1.48828E5,7.890125E4,1.438135E5,2.19002E5,3.0712E5,1.58174E5,2.32434E5,4.19507E5,4.17048E5,9.830225E4,3.52568E5,1.28284E5,4.33222E5,9.934875E4,2.17246E5,1.2072E5,1.25357E5,1.13733E5,8.429E4,1.46328125E4,5.912375E4,3.2438812E4,6.056375E4,8.8106E4,1.00805E5,1.20702E5,1.40195E5,1.50433E5,1.5879E5,8.703825E4,1.54896E5,1.8832225E5,6.525625E4,2.5999E5,4.6584E5,1.27494E5,4.97345E4,6.1391875E4,6.4676E5,3.06154E5,3.64685E4,8.0987E4,2.94648E5,9.77755E4,1.21621875E4,3.248325E4,0E0,0E0,0E0,0E0,0E0,0E0,0E0,0E0,0E0,0E0,0E0,0E0,0E0,0E0,0E0,0E0,0E0,0E0,0E0,0E0,0E0,0E0,0E0,0E0,0E0,0E0,0E0,0E0,0E0,0E0,0E0,0E0,0E0,0E0,0E0,0E0,0E0,0E0,0E0,0E0,0E0,0E0,0E0,0E0,0E0,0E0,0E0,0E0,0E0,0E0,0E0,0E0,0E0,0E0,0E0,0E0,0E0,0E0,0E0,0E0,0E0,0E0,0E0,0E0],"parents":[2147483647,0,0,1,1,2,2,3,3,4,4,5,5,6,6,7,7,8,8,9,9,10,10,11,11,12,12,13,13,14,14,15,15,16,16,17,17,18,18,19,19,20,20,21,21,22,22,23,23,24,24,25,25,26,26,27,27,28,28,29,29,30,30,31,31,32,32,33,33,34,34,35,35,36,36,37,37,38,38,39,39,40,40,41,41,42,42,43,43,44,44,45,45,46,46,47,47,48,48,49,49,50,50,51,51,52,52,53,53,54,54,55,55,56,56,57,57,58,58,59,59,60,60,61,61,62,62],"right_children":[2,4,6,8,10,12,14,16,18,20,22,24,26,28,30,32,34,36,38,40,42,44,46,48,50,52,54,56,58,60,62,64,66,68,70,72,74,76,78,80,82,84,86,88,90,92,94,96,98,100,102,104,106,108,110,112,114,116,118,120,122,124,126,-1,-1,-1,-1,-1,-1,-1,-1,-1,-1,-1,-1,-1,-1,-1,-1,-1,-1,-1,-1,-1,-1,-1,-1,-1,-1,-1,-1,-1,-1,-1,-1,-1,-1,-1,-1,-1,-1,-1,-1,-1,-1,-1,-1,-1,-1,-1,-1,-1,-1,-1,-1,-1,-1,-1,-1,-1,-1,-1,-1,-1,-1,-1,-1],"split_conditions":[2.5E-1,6.830127E-1,1.75E1,6.45E1,1.75E1,1.45E1,2.25E1,-2.5E-1,7.95E1,1.45E1,2.25E1,-6.035534E-1,5.95E1,2.15E1,2.45E1,2.5E-1,2.15E1,2.25E1,2.25E1,-6.035534E-1,-7.865661E-1,-6.035534E-1,8.5E-1,1.05E1,5E-1,7.865661E-1,9.5E0,-6.035534E-1,-6.035534E-1,5.95E1,-1.2940952E-1,-6.035534E-1,7.865661E-1,2.05E1,-1.2940952E-1,7.5E0,2.5E-1,8.45E1,-6.1232336E-17,1.955651E0,1.2940952E-1,1.955651E0,1.4E1,-1.2940952E-1,1.2940952E-1,8.25E1,2.25E1,9.5E-1,1.2E1,8.25E1,1.215E2,1.807076E2,-1.2940952E-1,7.45E1,6.830127E-1,1.2940952E-1,-1.2940952E-1,1.955651E0,6.25E1,-6.123234E-17,-3.7940952E-1,-9.159756E-1,2.335E2,1.3015016E0,1.0830398E0,1.4674091E0,1.086213E0,1.3760707E0,1.7606236E0,1.5777527E0,2.054995E0,1.0735122E0,8.7581617E-1,1.4489068E0,1.882396E0,7.748065E-1,5.911562E-1,1.472801E0,9.114138E-1,1.8004677E0,1.0376713E0,1.4222016E0,1.0552491E0,2.0978453E0,1.5776938E0,1.6880814E0,1.3074423E0,2.0825322E0,2.7561643E0,2.0971138E0,1.6552858E0,3.7646413E0,1.799659E0,1.4050596E0,2.567681E0,3.0320096E0,2.0973444E0,6.892317E-1,1.9564056E0,2.3773272E0,1.6440419E0,1.7004923E0,1.22454E0,2.1198413E0,1.8443335E0,1.902059E0,1.5125214E0,1.7700514E0,1.2173626E0,9.870149E-1,1.552751E0,2.2520623E0,3.2834096E0,2.50641E0,2.0560534E0,2.3973038E0,1.9468542E0,1.8900193E0,1.4282063E0,2.8666182E0,3.714166E0,3.0387664E0,1.9799296E0,2.0402231E0,1.402557E0,3.4600885E0,1.820733E0],"split_indices":[3,4,0,6,0,5,0,3,6,5,0,2,6,0,5,4,5,0,0,2,2,2,7,0,0,1,0,2,2,6,2,2,1,0,2,0,4,6,2,7,1,7,0,1,1,6,6,7,0,6,8,8,2,6,3,1,1,7,6,1,2,1,8,0,0,0,0,0,0,0,0,0,0,0,0,0,0,0,0,0,0,0,0,0,0,0,0,0,0,0,0,0,0,0,0,0,0,0,0,0,0,0,0,0,0,0,0,0,0,0,0,0,0,0,0,0,0,0,0,0,0,0,0,0,0,0,0],"split_type":[0,0,0,0,0,0,0,0,0,0,0,0,0,0,0,0,0,0,0,0,0,0,0,0,0,0,0,0,0,0,0,0,0,0,0,0,0,0,0,0,0,0,0,0,0,0,0,0,0,0,0,0,0,0,0,0,0,0,0,0,0,0,0,0,0,0,0,0,0,0,0,0,0,0,0,0,0,0,0,0,0,0,0,0,0,0,0,0,0,0,0,0,0,0,0,0,0,0,0,0,0,0,0,0,0,0,0,0,0,0,0,0,0,0,0,0,0,0,0,0,0,0,0,0,0,0,0],"sum_hessian":[3.16564E5,1.73034E5,1.4353E5,1.28665E5,4.4369E4,1.08602E5,3.4928E4,8.578E4,4.2885E4,3.116E4,1.3209E4,2.5473E4,8.3129E4,2.885E4,6.078E3,6.4973E4,2.0807E4,2.3649E4,1.9236E4,9.572E3,2.1588E4,1.1004E4,2.205E3,3.408E3,2.2065E4,7.8503E4,4.626E3,2.1477E4,7.373E3,5.424E3,6.54E2,4.7862E4,1.7111E4,1.526E4,5.547E3,2.2762E4,8.87E2,1.8004E4,1.232E3,1.796E3,7.776E3,5.735E3,1.5853E4,3.21E3,7.794E3,6.47E2,1.558E3,2.047E3,1.361E3,1.517E3,2.0548E4,6.9601E4,8.902E3,2.527E3,2.099E3,6.18E3,1.5297E4,2.101E3,5.272E3,4.161E3,1.263E3,4.97E2,1.57E2,1.8766E4,2.9096E4,1.4674E4,2.437E3,1.2697E4,2.563E3,3.608E3,1.939E3,8.874E3,1.3888E4,5.54E2,3.33E2,7.622E3,1.0382E4,3.74E2,8.58E2,1.474E3,3.22E2,2.364E3,5.412E3,4.541E3,1.194E3,1.3361E4,2.492E3,1.37E3,1.84E3,4.079E3,3.715E3,5.15E2,1.32E2,1.87E2,1.371E3,6.66E2,1.381E3,4.3E2,9.31E2,1.079E3,4.38E2,3.458E3,1.709E4,4.661E4,2.2991E4,3.474E3,5.428E3,2.003E3,5.24E2,1.344E3,7.55E2,3.428E3,2.752E3,7.02E3,8.277E3,1.38E3,7.21E2,4.003E3,1.269E3,2.115E3,2.046E3,2.87E2,9.76E2,1E2,3.97E2,1.1E2,4.7E1],"tree_param":{"num_deleted":"0","num_feature":"9","num_nodes":"127","size_leaf_vector":"0"}},{"base_weights":[3.0565071E1,2.4837442E1,3.746985E1,2.189851E1,3.3359325E1,3.4966087E1,4.52536E1,2.4413008E1,1.5354415E1,3.0057825E1,4.1144695E1,2.6696545E1,3.693155E1,4.3120773E1,5.536858E1,2.3155632E1,2.8465971E1,1.7142262E1,1.2157444E1,2.3272158E1,3.2504684E1,3.9082455E1,5.141387E1,3.0438637E1,2.0373316E1,3.7932724E1,3.0534296E1,4.5451733E1,3.6325626E1,5.7713867E1,3.5859364E1,2.1855522E1,2.6572441E1,2.977834E1,2.2404064E1,1.6704958E1,2.7422771E1,1.1333367E1,1.7784985E1,3.1332684E1,2.1625895E1,3.7562756E1,3.0690025E1,4.8939163E1,3.649683E1,6.398433E1,4.6155964E1,4.066274E1,2.747667E1,3.895385E1,1.8734142E1,3.9764355E1,3.4472534E1,3.1788813E1,1.9436308E1,5.1524826E1,4.2994987E1,4.4290844E1,3.4318024E1,6.2400562E1,4.2236217E1,2.9166199E1,5.672858E1,2.265435E1,1.5928736E1,2.9041998E1,2.3678514E1,2.5006968E1,3.1501867E1,2.6498646E1,2.0411081E1,1.9336594E1,1.53752E1,3.242014E1,2.4847616E1,1.285077E1,9.498862E0,2.3598713E1,1.5334146E1,2.0091116E1,3.4065193E1,1.5662954E1,2.3242422E1,3.9354427E1,2.7722054E1,3.1878487E1,2.4557013E1,4.194932E1,5.3470924E1,3.8597805E1,2.848028E1,7.457995E1,4.229837E1,3.971836E1,5.4683193E1,4.937078E1,3.4486954E1,4.056032E1,2.5741755E1,1.879298E1,4.310497E1,1.4406943E1,2.2729351E1,4.0173603E1,2.4196087E1,3.250838E1,3.8132896E1,3.586881E1,2.9024084E1,2.06589E1,7.277025E0,4.2789837E1,6.2385975E1,4.8244095E1,3.9497192E1,4.7138493E1,3.6231834E1,3.63568E1,2.7691881E1,5.44671E1,7.057096E1,5.7747112E1,3.7620686E1,3.8784443E1,2.6652107E1,6.577285E1,3.463186E1],"categories":[],"categories_nodes":[],"categories_segments":[],"categories_sizes":[],"default_left":[1,1,1,1,1,1,1,1,1,1,1,1,1,1,1,1,1,1,1,1,1,1,1,1,1,1,1,1,1,1,1,1,1,1,1,1,1,1,1,1,1,1,1,1,1,1,1,1,1,1,1,1,1,1,1,1,1,1,1,1,1,1,1,0,0,0,0,0,0,0,0,0,0,0,0,0,0,0,0,0,0,0,0,0,0,0,0,0,0,0,0,0,0,0,0,0,0,0,0,0,0,0,0,0,0,0,0,0,0,0,0,0,0,0,0,0,0,0,0,0,0,0,0,0,0,0,0],"id":5,"left_children":[1,3,5,7,9,11,13,15,17,19,21,23,25,27,29,31,33,35,37,39,41,43,45,47,49,51,53,55,57,59,61,63,65,67,69,71,73,75,77,79,81,83,85,87,89,91,93,95,97,99,101,103,105,107,109,111,113,115,117,119,121,123,125,-1,-1,-1,-1,-1,-1,-1,-1,-1,-1,-1,-1,-1,-1,-1,-1,-1,-1,-1,-1,-1,-1,-1,-1,-1,-1,-1,-1,-1,-1,-1,-1,-1,-1,-1,-1,-1,-1,-1,-1,-1,-1,-1,-1,-1,-1,-1,-1,-1,-1,-1,-1,-1,-1,-1,-1,-1,-1,-1,-1,-1,-1,-1,-1],"loss_changes":[1.2518592E7,4.332976E6,2.795632E6,2.11684E6,1.139224E6,1.7642E6,7.5116E5,4.73024E5,2.03945E5,5.1663E5,2.77744E5,4.92947E5,5.60824E5,4.55328E5,2.76072E5,3.14576E5,1.74386E5,1.02516E5,5.9223625E4,1.08957E5,2.09036E5,2.78686E5,1.428505E5,3.95658E5,2.355535E5,4.79464E5,1.64768E5,3.18236E5,1.16397E5,3.9089E5,8.983656E4,2.42976E5,1.39031E5,1.47936E5,3.1448125E4,7.6596E4,1.120125E4,3.0999625E4,2.2934469E4,4.228975E4,6.57995E4,1.05438E5,1.22099E5,7.01055E4,1.45801E5,1.4574025E5,8.340925E4,1.564615E5,2.29623E5,5.1747312E4,1.2295375E5,3.15056E5,1.87604E5,1.19329E5,1.7822438E4,5.83734E5,2.7897E5,3.22795E4,7.8617E4,2.65935E5,8.831825E4,1.10085625E4,2.929825E4,0E0,0E0,0E0,0E0,0E0,0E0,0E0,0E0,0E0,0E0,0E0,0E0,0E0,0E0,0E0,0E0,0E0,0E0,0E0,0E0,0E0,0E0,0E0,0E0,0E0,0E0,0E0,0E0,0E0,0E0,0E0,0E0,0E0,0E0,0E0,0E0,0E0,0E0,0E0,0E0,0E0,0E0,0E0,0E0,0E0,0E0,0E0,0E0,0E0,0E0,0E0,0E0,0E0,0E0,0E0,0E0,0E0,0E0,0E0,0E0,0E0,0E0,0E0,0E0],"parents":[2147483647,0,0,1,1,2,2,3,3,4,4,5,5,6,6,7,7,8,8,9,9,10,10,11,11,12,12,13,13,14,14,15,15,16,16,17,17,18,18,19,19,20,20,21,21,22,22,23,23,24,24,25,25,26,26,27,27,28,28,29,29,30,30,31,31,32,32,33,33,34,34,35,35,36,36,37,37,38,38,39,39,40,40,41,41,42,42,43,43,44,44,45,45,46,46,47,47,48,48,49,49,50,50,51,51,52,52,53,53,54,54,55,55,56,56,57,57,58,58,59,59,60,60,61,61,62,62],"right_children":[2,4,6,8,10,12,14,16,18,20,22,24,26,28,30,32,34,36,38,40,42,44,46,48,50,52,54,56,58,60,62,64,66,68,70,72,74,76,78,80,82,84,86,88,90,92,94,96,98,100,102,104,106,108,110,112,114,116,118,120,122,124,126,-1,-1,-1,-1,-1,-1,-1,-1,-1,-1,-1,-1,-1,-1,-1,-1,-1,-1,-1,-1,-1,-1,-1,-1,-1,-1,-1,-1,-1,-1,-1,-1,-1,-1,-1,-1,-1,-1,-1,-1,-1,-1,-1,-1,-1,-1,-1,-1,-1,-1,-1,-1,-1,-1,-1,-1,-1,-1,-1,-1,-1,-1,-1,-1],"split_conditions":[2.5E-1,6.830127E-1,1.75E1,6.95E1,1.75E1,1.35E1,2.25E1,-2.5E-1,8.35E1,1.35E1,2.25E1,1.05E1,7.865661E-1,2.15E1,2.45E1,1.75E1,5.25E1,2.25E1,2.1E1,-6.035534E-1,-7.865661E-1,-7.865661E-1,8.5E-1,-3.7940952E-1,5.25E1,1.807076E2,1.955651E0,-6.035534E-1,-7.865661E-1,5.95E1,-1.2940952E-1,7.865661E-1,-6.1232336E-17,4.5E0,1.45E0,-6.1232336E-17,-6.1232336E-17,1E1,-6.1232336E-17,2E0,2E0,2.15E0,1.4E1,-1.2940952E-1,6.75E1,7.45E1,1.2940952E-1,1.05E0,5E-1,1.2E1,1.05E1,6.45E1,2.965E2,-1.2940952E-1,6.830127E-1,1.2940952E-1,-3.7940952E-1,2.15E0,6.25E1,-6.123234E-17,-3.7940952E-1,-9.159756E-1,2.335E2,1.1327175E0,7.964368E-1,1.4520999E0,1.1839257E0,1.2503484E0,1.5750934E0,1.3249323E0,1.0205541E0,9.668297E-1,7.6876E-1,1.621007E0,1.2423809E0,6.425385E-1,4.7494313E-1,1.1799357E0,7.667073E-1,1.0045558E0,1.7032597E0,7.8314775E-1,1.1621212E0,1.9677213E0,1.3861027E0,1.5939244E0,1.2278507E0,2.0974662E0,2.6735463E0,1.9298903E0,1.424014E0,3.7289975E0,2.1149185E0,1.985918E0,2.7341597E0,2.468539E0,1.7243477E0,2.028016E0,1.2870878E0,9.3964905E-1,2.1552484E0,7.2034717E-1,1.1364676E0,2.00868E0,1.2098044E0,1.625419E0,1.9066448E0,1.7934405E0,1.4512042E0,1.032945E0,3.6385128E-1,2.1394918E0,3.1192987E0,2.4122047E0,1.9748596E0,2.3569248E0,1.8115917E0,1.81784E0,1.3845941E0,2.723355E0,3.528548E0,2.8873556E0,1.8810343E0,1.9392222E0,1.3326054E0,3.2886426E0,1.731593E0],"split_indices":[3,4,0,6,0,5,0,3,6,5,0,0,1,0,5,0,6,0,0,2,2,2,7,2,8,8,7,2,2,6,2,1,2,0,7,2,2,0,2,0,0,7,0,1,6,6,2,7,0,0,5,6,8,2,4,1,1,7,6,1,2,1,8,0,0,0,0,0,0,0,0,0,0,0,0,0,0,0,0,0,0,0,0,0,0,0,0,0,0,0,0,0,0,0,0,0,0,0,0,0,0,0,0,0,0,0,0,0,0,0,0,0,0,0,0,0,0,0,0,0,0,0,0,0,0,0,0],"split_type":[0,0,0,0,0,0,0,0,0,0,0,0,0,0,0,0,0,0,0,0,0,0,0,0,0,0,0,0,0,0,0,0,0,0,0,0,0,0,0,0,0,0,0,0,0,0,0,0,0,0,0,0,0,0,0,0,0,0,0,0,0,0,0,0,0,0,0,0,0,0,0,0,0,0,0,0,0,0,0,0,0,0,0,0,0,0,0,0,0,0,0,0,0,0,0,0,0,0,0,0,0,0,0,0,0,0,0,0,0,0,0,0,0,0,0,0,0,0,0,0,0,0,0,0,0,0,0],"sum_hessian":[3.16564E5,1.73034E5,1.4353E5,1.28665E5,4.4369E4,1.08602E5,3.4928E4,9.2948E4,3.5717E4,3.116E4,1.3209E4,2.0858E4,8.7744E4,2.885E4,6.078E3,7.0945E4,2.2003E4,2.2904E4,1.2813E4,8.261E3,2.2899E4,1.1004E4,2.205E3,1.3101E4,7.757E3,7.5866E4,1.1878E4,2.1477E4,7.373E3,5.424E3,6.54E2,5.1396E4,1.9549E4,1.8084E4,3.919E3,2.1972E4,9.32E2,1.1179E4,1.634E3,1.398E3,6.863E3,6.041E3,1.6858E4,2.283E3,8.721E3,6.47E2,1.558E3,2.94E3,1.0161E4,6.27E2,7.13E3,4.96E4,2.6266E4,1.067E4,1.208E3,6.18E3,1.5297E4,1.48E3,5.893E3,4.161E3,1.263E3,4.97E2,1.57E2,4.5289E4,6.107E3,1.0543E4,9.006E3,4.803E3,1.3281E4,1.279E3,2.64E3,7.371E3,1.4601E4,3.13E2,6.19E2,6.115E3,5.064E3,4.82E2,1.152E3,2.75E2,1.123E3,1.466E3,5.397E3,5.108E3,9.33E2,1.4118E4,2.74E3,9.02E2,1.381E3,6.907E3,1.814E3,4.33E2,2.14E2,8.91E2,6.67E2,1.217E3,1.723E3,1.187E3,8.974E3,1.08E2,5.19E2,3.425E3,3.705E3,4.8328E4,1.272E3,1.71E4,9.166E3,4.305E3,6.365E3,1.097E3,1.11E2,3.428E3,2.752E3,6.112E3,9.185E3,1.09E3,3.9E2,4.503E3,1.39E3,2.115E3,2.046E3,2.87E2,9.76E2,1E2,3.97E2,1.1E2,4.7E1],"tree_param":{"num_deleted":"0","num_feature":"9","num_nodes":"127","size_leaf_vector":"0"}},{"base_weights":[2.9037157E1,2.3595842E1,3.559678E1,2.080372E1,3.1692024E1,3.3218002E1,4.2991962E1,2.3531036E1,1.534803E1,2.855528E1,3.9088875E1,2.5362314E1,3.5085102E1,4.0965324E1,5.260333E1,2.2266853E1,2.7477379E1,1.76432E1,1.2525546E1,2.2727842E1,3.1137962E1,3.712907E1,4.8847965E1,2.8917278E1,1.9355288E1,3.5752537E1,2.60682E1,4.2522797E1,3.1598066E1,5.502322E1,3.5150356E1,2.1043217E1,2.5688114E1,2.611244E1,3.2167828E1,1.718691E1,2.9319841E1,1.1846816E1,1.7624002E1,2.871446E1,2.0636326E1,3.5929974E1,2.940224E1,4.4647427E1,3.4027264E1,5.187366E1,2.867862E1,4.3349545E1,2.6989809E1,3.7011086E1,1.7797695E1,3.6326828E1,2.6802929E1,2.1990377E1,3.0444735E1,4.721846E1,4.0413113E1,3.85032E1,2.7175331E1,4.7602386E1,6.3585167E1,8.433124E1,3.3532726E1,2.351919E1,1.9445538E1,2.6687605E1,1.9661364E1,2.1871412E1,2.7704353E1,2.947848E1,4.063447E1,1.9489326E1,1.5714441E1,2.618749E1,3.443701E1,1.334495E1,9.914345E0,2.5364735E1,1.592865E1,2.0635878E1,3.340389E1,2.3476078E1,1.5889597E1,3.7892235E1,2.8441677E1,3.0635395E1,2.3762436E1,3.4741314E1,4.8526035E1,3.845423E1,3.0163696E1,5.7846355E1,3.501402E1,2.5644598E1,6.6321815E1,3.0849045E1,5.0113228E1,3.9122673E1,2.5368418E1,3.600695E1,1.20948555E2,1.3686807E1,2.159319E1,3.570733E1,4.5902702E1,2.2349415E1,3.0061607E1,2.5755266E1,1.6296875E1,3.41653E1,2.6643991E1,3.7685364E1,5.4931976E1,4.2049194E1,3.443447E1,3.0434381E1,5.074888E1,2.8781984E1,1.4856283E1,3.2665447E1,6.3014732E1,7.773095E1,5.2193443E1,4.9034424E1,1.4438347E2,4.461046E1,2.733808E1],"categories":[],"categories_nodes":[],"categories_segments":[],"categories_sizes":[],"default_left":[1,1,1,1,1,1,1,1,1,1,1,1,1,1,1,1,1,1,1,1,1,1,1,1,1,1,1,1,1,1,1,1,1,1,1,1,1,1,1,1,1,1,1,1,1,1,1,1,1,1,1,1,1,1,1,1,1,1,1,1,1,1,1,0,0,0,0,0,0,0,0,0,0,0,0,0,0,0,0,0,0,0,0,0,0,0,0,0,0,0,0,0,0,0,0,0,0,0,0,0,0,0,0,0,0,0,0,0,0,0,0,0,0,0,0,0,0,0,0,0,0,0,0,0,0,0,0],"id":6,"left_children":[1,3,5,7,9,11,13,15,17,19,21,23,25,27,29,31,33,35,37,39,41,43,45,47,49,51,53,55,57,59,61,63,65,67,69,71,73,75,77,79,81,83,85,87,89,91,93,95,97,99,101,103,105,107,109,111,113,115,117,119,121,123,125,-1,-1,-1,-1,-1,-1,-1,-1,-1,-1,-1,-1,-1,-1,-1,-1,-1,-1,-1,-1,-1,-1,-1,-1,-1,-1,-1,-1,-1,-1,-1,-1,-1,-1,-1,-1,-1,-1,-1,-1,-1,-1,-1,-1,-1,-1,-1,-1,-1,-1,-1,-1,-1,-1,-1,-1,-1,-1,-1,-1,-1,-1,-1,-1],"loss_changes":[1.1298288E7,3.910888E6,2.523488E6,1.914112E6,1.02836E6,1.592024E6,6.7822E5,4.2734E5,2.77597E5,4.68278E5,2.5084E5,4.4488E5,5.27136E5,4.19572E5,2.54806E5,2.71464E5,1.32376E5,1.25502E5,6.636025E4,1.19272E5,1.78512E5,2.55123E5,1.33137E5,3.63298E5,2.126905E5,4.18904E5,1.07321E5,2.43124E5,1.246855E5,3.3607E5,5.6282625E4,1.8888E5,1.02552E5,1.08247E5,1.05501E5,7.68655E4,1.33316875E4,4.90265E4,2.9228312E4,9.3111125E4,9.530475E4,8.32065E4,1.09532E5,1.21687E5,1.32165E5,1.910115E5,3.1420188E4,1.28829E5,2.26437E5,4.8575812E4,1.109685E5,4.5376E5,7.0875E4,6.6801625E4,4.03245E4,5.61344E5,1.65564E5,1.570425E5,4.931075E4,6.57042E5,3.94777E5,4.167225E4,4.8257312E4,0E0,0E0,0E0,0E0,0E0,0E0,0E0,0E0,0E0,0E0,0E0,0E0,0E0,0E0,0E0,0E0,0E0,0E0,0E0,0E0,0E0,0E0,0E0,0E0,0E0,0E0,0E0,0E0,0E0,0E0,0E0,0E0,0E0,0E0,0E0,0E0,0E0,0E0,0E0,0E0,0E0,0E0,0E0,0E0,0E0,0E0,0E0,0E0,0E0,0E0,0E0,0E0,0E0,0E0,0E0,0E0,0E0,0E0,0E0,0E0,0E0,0E0,0E0,0E0],"parents":[2147483647,0,0,1,1,2,2,3,3,4,4,5,5,6,6,7,7,8,8,9,9,10,10,11,11,12,12,13,13,14,14,15,15,16,16,17,17,18,18,19,19,20,20,21,21,22,22,23,23,24,24,25,25,26,26,27,27,28,28,29,29,30,30,31,31,32,32,33,33,34,34,35,35,36,36,37,37,38,38,39,39,40,40,41,41,42,42,43,43,44,44,45,45,46,46,47,47,48,48,49,49,50,50,51,51,52,52,53,53,54,54,55,55,56,56,57,57,58,58,59,59,60,60,61,61,62,62],"right_children":[2,4,6,8,10,12,14,16,18,20,22,24,26,28,30,32,34,36,38,40,42,44,46,48,50,52,54,56,58,60,62,64,66,68,70,72,74,76,78,80,82,84,86,88,90,92,94,96,98,100,102,104,106,108,110,112,114,116,118,120,122,124,126,-1,-1,-1,-1,-1,-1,-1,-1,-1,-1,-1,-1,-1,-1,-1,-1,-1,-1,-1,-1,-1,-1,-1,-1,-1,-1,-1,-1,-1,-1,-1,-1,-1,-1,-1,-1,-1,-1,-1,-1,-1,-1,-1,-1,-1,-1,-1,-1,-1,-1,-1,-1,-1,-1,-1,-1,-1,-1,-1,-1,-1,-1,-1,-1],"split_conditions":[2.5E-1,6.830127E-1,1.75E1,6.45E1,1.75E1,1.35E1,2.25E1,-2.5E-1,7.95E1,1.45E1,2.25E1,1.05E1,5.95E1,5.75E1,6.95E1,2.5E-1,2.25E1,2.25E1,1.95E1,1.355E2,-7.865661E-1,-6.035534E-1,2.15E1,-6.035534E-1,5.25E1,1.65E1,-6.830127E-1,-6.035534E-1,9.55E1,-6.123234E-17,1.5E-1,-6.035534E-1,7.865661E-1,4.5E0,1.2940952E-1,7.5E0,2.5E-1,1E1,-3.7940952E-1,6.5E0,7.865661E-1,1.955651E0,7.865661E-1,-3.7940952E-1,-1.2940952E-1,7.25E1,1.2940952E-1,4E0,5E-1,3.9E0,1.05E1,1.55E1,1.85E1,1E1,9.5E0,-1.2940952E-1,2.15E1,6.830127E-1,8.05E1,1.2940952E-1,-3.7940952E-1,6.5E0,-6.1232336E-17,1.1759595E0,9.7227687E-1,1.3343803E0,9.8306817E-1,1.0935706E0,1.3852177E0,1.473924E0,2.0317237E0,9.744663E-1,7.857221E-1,1.3093746E0,1.7218506E0,6.672475E-1,4.9571726E-1,1.2682368E0,7.964325E-1,1.031794E0,1.6701945E0,1.1738039E0,7.9447985E-1,1.8946117E0,1.4220839E0,1.5317698E0,1.1881218E0,1.7370657E0,2.4263017E0,1.9227116E0,1.5081848E0,2.8923178E0,1.750701E0,1.2822299E0,3.3160908E0,1.5424522E0,2.5056615E0,1.9561337E0,1.2684209E0,1.8003476E0,6.0474277E0,6.8434036E-1,1.0796595E0,1.7853664E0,2.2951353E0,1.1174707E0,1.5030804E0,1.2877634E0,8.148438E-1,1.708265E0,1.3321996E0,1.8842682E0,2.746599E0,2.1024597E0,1.7217236E0,1.5217191E0,2.5374439E0,1.4390992E0,7.428142E-1,1.6332724E0,3.1507366E0,3.8865476E0,2.6096723E0,2.4517212E0,7.2191734E0,2.2305229E0,1.366904E0],"split_indices":[3,4,0,6,0,5,0,3,6,5,0,0,6,6,6,4,5,0,0,8,2,2,5,2,8,0,4,2,8,1,7,2,1,0,2,0,4,0,2,0,1,7,1,1,1,6,2,0,0,7,5,0,5,0,0,1,0,4,6,2,2,5,2,0,0,0,0,0,0,0,0,0,0,0,0,0,0,0,0,0,0,0,0,0,0,0,0,0,0,0,0,0,0,0,0,0,0,0,0,0,0,0,0,0,0,0,0,0,0,0,0,0,0,0,0,0,0,0,0,0,0,0,0,0,0,0,0],"split_type":[0,0,0,0,0,0,0,0,0,0,0,0,0,0,0,0,0,0,0,0,0,0,0,0,0,0,0,0,0,0,0,0,0,0,0,0,0,0,0,0,0,0,0,0,0,0,0,0,0,0,0,0,0,0,0,0,0,0,0,0,0,0,0,0,0,0,0,0,0,0,0,0,0,0,0,0,0,0,0,0,0,0,0,0,0,0,0,0,0,0,0,0,0,0,0,0,0,0,0,0,0,0,0,0,0,0,0,0,0,0,0,0,0,0,0,0,0,0,0,0,0,0,0,0,0,0,0],"sum_hessian":[3.16564E5,1.73034E5,1.4353E5,1.28665E5,4.4369E4,1.08602E5,3.4928E4,8.578E4,4.2885E4,3.116E4,1.3209E4,2.0858E4,8.7744E4,2.885E4,6.078E3,6.4973E4,2.0807E4,2.3649E4,1.9236E4,9.572E3,2.1588E4,1.1004E4,2.205E3,1.3101E4,7.757E3,8.1694E4,6.05E3,2.4734E4,4.116E3,5.336E3,7.42E2,4.7862E4,1.7111E4,1.6122E4,4.685E3,2.2762E4,8.87E2,1.6979E4,2.257E3,2.475E3,7.097E3,5.735E3,1.5853E4,3.21E3,7.794E3,1.916E3,2.89E2,1.541E3,1.156E4,6.27E2,7.13E3,7.6765E4,4.929E3,3.135E3,2.915E3,7.661E3,1.7073E4,1.604E3,2.512E3,2.862E3,2.474E3,2.2E1,7.2E2,1.8766E4,2.9096E4,1.4674E4,2.437E3,4.404E3,1.1718E4,3.559E3,1.126E3,8.874E3,1.3888E4,5.54E2,3.33E2,9.561E3,7.418E3,4.03E2,1.854E3,9.11E2,1.564E3,4.438E3,2.659E3,4.541E3,1.194E3,1.3005E4,2.848E3,9.06E2,2.304E3,3.628E3,4.166E3,1.413E3,5.03E2,2.69E2,2E1,5.43E2,9.98E2,1.36E3,1.02E4,6.21E2,6E0,3.425E3,3.705E3,7.2105E4,4.66E3,2.086E3,2.843E3,1.885E3,1.25E3,1.469E3,1.446E3,3.429E3,4.232E3,1.34E4,3.673E3,9.69E2,6.35E2,2.221E3,2.91E2,1.455E3,1.407E3,1.101E3,1.373E3,1.5E1,7E0,2.56E2,4.64E2],"tree_param":{"num_deleted":"0","num_feature":"9","num_nodes":"127","size_leaf_vector":"0"}},{"base_weights":[2.7585659E1,2.2416315E1,3.3817413E1,1.9763678E1,3.0108044E1,3.1557367E1,4.0843487E1,2.2039066E1,1.3841873E1,2.7127861E1,3.7135704E1,2.5674253E1,3.383231E1,3.891757E1,4.99772E1,2.075242E1,2.5380886E1,1.5321915E1,1.0607273E1,2.0986578E1,2.9342365E1,3.901005E1,2.7655142E1,3.5610527E1,2.3981451E1,3.26984E1,3.806341E1,4.104932E1,3.2703213E1,5.285212E1,3.6454094E1,1.9382826E1,2.40387E1,2.4143501E1,2.9225828E1,1.4929771E1,2.4307814E1,9.819607E0,1.575414E1,2.8454338E1,1.9461464E1,3.5628506E1,2.809892E1,5.284012E1,3.7255585E1,3.5495464E1,2.2121529E1,4.1305767E1,2.7582933E1,3.7897617E1,2.3020071E1,3.30865E1,2.1444342E1,3.377867E1,3.963548E1,4.660588E1,3.8801563E1,3.452463E1,2.5456848E1,4.5970924E1,6.332763E1,5.1626583E1,3.1783876E1,2.0314995E1,1.3948337E1,2.7480328E1,2.1544802E1,2.7736181E1,2.2401382E1,3.402312E1,2.730788E1,1.7418215E1,1.3691105E1,2.9071665E1,2.1914742E1,1.8839674E1,9.514829E0,1.7755648E1,9.22574E0,3.0790754E1,1.692757E1,1.3862632E1,2.0979439E1,4.6026127E1,3.3351864E1,2.9225996E1,2.2510908E1,4.389519E1,6.728263E1,4.340713E1,3.532493E1,4.7608467E1,3.0803661E1,2.9712582E1,1.9547094E1,3.3773884E1,5.1222855E1,1.1123646E1,3.5122288E1,4.463226E1,3.1402493E1,1.3943393E1,2.4266079E1,3.379651E1,2.759E1,2.5060884E1,1.6163889E1,3.2192425E1,4.8875164E1,4.3932858E1,3.741998E1,3.8550137E1,5.6622787E1,4.2728188E1,3.4577377E1,4.0137634E1,3.278845E1,3.1161484E1,2.2173592E1,3.403267E1,6.0964073E1,8.4415955E1,5.3152973E1,4.4295887E1,6.4166756E1,7.985945E1,3.0358412E1],"categories":[],"categories_nodes":[],"categories_segments":[],"categories_sizes":[],"default_left":[1,1,1,1,1,1,1,1,1,1,1,1,1,1,1,1,1,1,1,1,1,1,1,1,1,1,1,1,1,1,1,1,1,1,1,1,1,1,1,1,1,1,1,1,1,1,1,1,1,1,1,1,1,1,1,1,1,1,1,1,1,1,1,0,0,0,0,0,0,0,0,0,0,0,0,0,0,0,0,0,0,0,0,0,0,0,0,0,0,0,0,0,0,0,0,0,0,0,0,0,0,0,0,0,0,0,0,0,0,0,0,0,0,0,0,0,0,0,0,0,0,0,0,0,0,0,0],"id":7,"left_children":[1,3,5,7,9,11,13,15,17,19,21,23,25,27,29,31,33,35,37,39,41,43,45,47,49,51,53,55,57,59,61,63,65,67,69,71,73,75,77,79,81,83,85,87,89,91,93,95,97,99,101,103,105,107,109,111,113,115,117,119,121,123,125,-1,-1,-1,-1,-1,-1,-1,-1,-1,-1,-1,-1,-1,-1,-1,-1,-1,-1,-1,-1,-1,-1,-1,-1,-1,-1,-1,-1,-1,-1,-1,-1,-1,-1,-1,-1,-1,-1,-1,-1,-1,-1,-1,-1,-1,-1,-1,-1,-1,-1,-1,-1,-1,-1,-1,-1,-1,-1,-1,-1,-1,-1,-1,-1],"loss_changes":[1.0197056E7,3.529904E6,2.277888E6,1.733392E6,9.28264E5,1.452648E6,6.1248E5,3.99132E5,1.70832E5,4.2317E5,2.3366E5,5.08614E5,3.7448E5,3.80864E5,2.34411E5,3.01616E5,1.22205E5,8.598E4,4.531525E4,9.354375E4,1.77996E5,2.65596E5,9.396825E4,2.003445E5,3.45409E5,2.69084E5,1.10114E5,2.66448E5,9.64485E4,3.58302E5,7.410725E4,2.39726E5,1.68829E5,1.21739E5,5.68985E4,7.2138E4,1.10253125E4,2.6569625E4,1.9266281E4,3.7155625E4,5.804575E4,8.7896E4,1.19782E5,1.5710975E5,1.14725E5,4.979575E4,2.44925E4,1.906825E5,2.269465E5,7.169175E4,2.73501E5,2.32088E5,3.8972938E4,1.04942E5,1.1355E5,4.96586E5,2.52266E5,5.6083E4,2.712275E4,5.399135E5,4.212135E5,2.013975E4,5.377025E4,0E0,0E0,0E0,0E0,0E0,0E0,0E0,0E0,0E0,0E0,0E0,0E0,0E0,0E0,0E0,0E0,0E0,0E0,0E0,0E0,0E0,0E0,0E0,0E0,0E0,0E0,0E0,0E0,0E0,0E0,0E0,0E0,0E0,0E0,0E0,0E0,0E0,0E0,0E0,0E0,0E0,0E0,0E0,0E0,0E0,0E0,0E0,0E0,0E0,0E0,0E0,0E0,0E0,0E0,0E0,0E0,0E0,0E0,0E0,0E0,0E0,0E0,0E0,0E0],"parents":[2147483647,0,0,1,1,2,2,3,3,4,4,5,5,6,6,7,7,8,8,9,9,10,10,11,11,12,12,13,13,14,14,15,15,16,16,17,17,18,18,19,19,20,20,21,21,22,22,23,23,24,24,25,25,26,26,27,27,28,28,29,29,30,30,31,31,32,32,33,33,34,34,35,35,36,36,37,37,38,38,39,39,40,40,41,41,42,42,43,43,44,44,45,45,46,46,47,47,48,48,49,49,50,50,51,51,52,52,53,53,54,54,55,55,56,56,57,57,58,58,59,59,60,60,61,61,62,62],"right_children":[2,4,6,8,10,12,14,16,18,20,22,24,26,28,30,32,34,36,38,40,42,44,46,48,50,52,54,56,58,60,62,64,66,68,70,72,74,76,78,80,82,84,86,88,90,92,94,96,98,100,102,104,106,108,110,112,114,116,118,120,122,124,126,-1,-1,-1,-1,-1,-1,-1,-1,-1,-1,-1,-1,-1,-1,-1,-1,-1,-1,-1,-1,-1,-1,-1,-1,-1,-1,-1,-1,-1,-1,-1,-1,-1,-1,-1,-1,-1,-1,-1,-1,-1,-1,-1,-1,-1,-1,-1,-1,-1,-1,-1,-1,-1,-1,-1,-1,-1,-1,-1,-1,-1,-1,-1,-1],"split_conditions":[2.5E-1,6.830127E-1,1.75E1,6.95E1,1.75E1,1.55E1,2.25E1,1.75E1,8.45E1,1.35E1,7.15E1,-6.035534E-1,9.330127E-1,2.15E1,6.35E1,1.95E1,-2.5E-1,2.25E1,2.05E1,-6.035534E-1,-9.159756E-1,9.5E-1,1.05E0,1.05E1,5E-1,6.45E1,2.15E1,-6.035534E-1,6.25E1,1.2940952E-1,-3.7940952E-1,1.35E1,7.5E0,-6.035534E-1,5.05E1,-6.1232336E-17,-6.1232336E-17,5E-1,-2.5E-1,1.955651E0,2E0,1.45E0,1.4E1,2.25E1,-7.865661E-1,-3.7940952E-1,-3.7940952E-1,6.5E0,1.2E1,7.15E1,2E0,7.865661E-1,7.35E1,4.55E0,-6.035534E-1,1.2940952E-1,1.2940952E-1,-7.865661E-1,1.35E1,1.2940952E-1,-6.035534E-1,6.830127E-1,1.5E-1,1.0157498E0,6.9741684E-1,1.3740164E0,1.0772401E0,1.3868091E0,1.1200691E0,1.701156E0,1.365394E0,8.7091076E-1,6.8455523E-1,1.4535832E0,1.0957371E0,9.419837E-1,4.7574145E-1,8.877824E-1,4.6128702E-1,1.5395378E0,8.463785E-1,6.931316E-1,1.048972E0,2.3013065E0,1.6675932E0,1.4612998E0,1.1255454E0,2.1947596E0,3.3641317E0,2.1703565E0,1.7662464E0,2.3804233E0,1.5401831E0,1.4856291E0,9.773547E-1,1.6886942E0,2.5611427E0,5.561823E-1,1.7561144E0,2.231613E0,1.5701246E0,6.9716966E-1,1.2133039E0,1.6898254E0,1.3795E0,1.2530442E0,8.0819446E-1,1.6096213E0,2.4437582E0,2.1966429E0,1.870999E0,1.9275068E0,2.8311393E0,2.1364095E0,1.7288688E0,2.0068817E0,1.6394224E0,1.5580742E0,1.1086797E0,1.7016335E0,3.0482037E0,4.220798E0,2.6576488E0,2.2147944E0,3.2083378E0,3.9929726E0,1.5179206E0],"split_indices":[3,4,0,6,0,5,0,0,6,5,6,2,3,0,6,5,3,0,0,2,2,7,7,0,0,6,6,2,6,1,2,0,0,2,6,2,2,0,3,7,0,7,0,0,2,2,2,0,0,6,0,1,6,7,2,1,1,2,5,2,2,4,7,0,0,0,0,0,0,0,0,0,0,0,0,0,0,0,0,0,0,0,0,0,0,0,0,0,0,0,0,0,0,0,0,0,0,0,0,0,0,0,0,0,0,0,0,0,0,0,0,0,0,0,0,0,0,0,0,0,0,0,0,0,0,0,0],"split_type":[0,0,0,0,0,0,0,0,0,0,0,0,0,0,0,0,0,0,0,0,0,0,0,0,0,0,0,0,0,0,0,0,0,0,0,0,0,0,0,0,0,0,0,0,0,0,0,0,0,0,0,0,0,0,0,0,0,0,0,0,0,0,0,0,0,0,0,0,0,0,0,0,0,0,0,0,0,0,0,0,0,0,0,0,0,0,0,0,0,0,0,0,0,0,0,0,0,0,0,0,0,0,0,0,0,0,0,0,0,0,0,0,0,0,0,0,0,0,0,0,0,0,0,0,0,0,0],"sum_hessian":[3.16564E5,1.73034E5,1.4353E5,1.28665E5,4.4369E4,1.08602E5,3.4928E4,9.2948E4,3.5717E4,3.116E4,1.3209E4,3.0288E4,7.8314E4,2.885E4,6.078E3,6.7115E4,2.5833E4,2.4502E4,1.1215E4,8.261E3,2.2899E4,1.1026E4,2.183E3,4.406E3,2.5882E4,6.1769E4,1.6545E4,2.1477E4,7.373E3,5.01E3,1.068E3,4.7377E4,1.9738E4,1.9549E4,6.284E3,2.348E4,1.022E3,9.729E3,1.486E3,1.398E3,6.863E3,3.777E3,1.9122E4,1.238E3,9.788E3,9.01E2,1.282E3,2.575E3,1.831E3,1.67E3,2.4212E4,5.9708E4,2.061E3,4.447E3,1.2098E4,6.18E3,1.5297E4,5.889E3,1.484E3,3.027E3,1.983E3,2.49E2,8.19E2,4.0438E4,6.939E3,8.289E3,1.1449E4,6.379E3,1.317E4,1.79E3,4.494E3,7.799E3,1.5681E4,3.38E2,6.84E2,3.16E2,9.413E3,1.136E3,3.5E2,1.161E3,2.37E2,1.466E3,5.397E3,6.75E2,3.102E3,1.5909E4,3.213E3,7.67E2,4.71E2,2.333E3,7.455E3,2.49E2,6.52E2,3.22E2,9.6E2,1.466E3,1.109E3,5.76E2,1.255E3,8.17E2,8.53E2,2.924E3,2.1288E4,5.2873E4,6.835E3,1.221E3,8.4E2,4.027E3,4.2E2,4.109E3,7.989E3,3.428E3,2.752E3,7.923E3,7.374E3,1.386E3,4.503E3,5.39E2,9.45E2,1.687E3,1.34E3,6.43E2,1.34E3,1.6E2,8.9E1,2.2E1,7.97E2],"tree_param":{"num_deleted":"0","num_feature":"9","num_nodes":"127","size_leaf_vector":"0"}},{"base_weights":[2.620671E1,2.129575E1,3.212698E1,1.8775623E1,2.8603241E1,2.9979734E1,3.8802387E1,2.1243069E1,1.3839773E1,2.5771809E1,3.528012E1,2.282569E1,3.1680073E1,3.697221E1,4.748205E1,2.0064075E1,2.4923512E1,1.5927275E1,1.12726755E1,2.0488554E1,2.8113317E1,3.346745E1,4.4306946E1,2.6180134E1,1.7157635E1,3.257925E1,2.593467E1,3.8406372E1,2.8346743E1,4.9546776E1,3.0308603E1,1.889926E1,2.332095E1,2.3676115E1,2.9210077E1,1.5508756E1,2.6637657E1,1.0828527E1,1.7749252E1,2.608967E1,1.8531828E1,2.9171148E1,2.114494E1,4.0373585E1,3.0618307E1,4.715401E1,2.5334066E1,3.5181694E1,2.3572403E1,2.8997164E1,1.5059047E1,3.428451E1,2.9357899E1,2.7106335E1,1.5571756E1,4.2645138E1,3.650197E1,3.483985E1,2.4188452E1,5.368887E1,3.586882E1,2.421141E1,4.9334515E1,2.1199715E1,1.741486E1,2.4263254E1,1.7639389E1,1.9717594E1,2.5162045E1,2.6662825E1,3.72305E1,1.7687822E1,1.4115227E1,2.3651327E1,3.152022E1,1.1932855E1,8.6589775E0,2.4565943E1,1.4752734E1,3.325691E1,2.1300392E1,2.1184227E1,1.4098545E1,3.0622696E1,2.4694511E1,2.2657187E1,6.251695E0,3.3532974E1,4.544589E1,3.43435E1,2.6519978E1,5.2606205E1,3.176402E1,2.2440605E1,6.1329315E1,4.338514E1,2.936558E1,3.472007E1,2.2094185E1,1.3985721E1,3.3967876E1,1.3909858E1,2.953288E1,3.580877E1,3.0468813E1,2.7513834E1,3.2794792E1,3.1001438E1,2.4467405E1,1.4569719E1,2.9346188E1,3.388555E1,4.9732956E1,3.960515E1,3.3814682E1,2.72596E1,4.634615E1,2.569822E1,1.2616907E1,4.740279E1,6.161131E1,5.4629868E1,3.288367E1,3.3562534E1,2.1777554E1,5.758344E1,2.923108E1],"categories":[],"categories_nodes":[],"categories_segments":[],"categories_sizes":[],"default_left":[1,1,1,1,1,1,1,1,1,1,1,1,1,1,1,1,1,1,1,1,1,1,1,1,1,1,1,1,1,1,1,1,1,1,1,1,1,1,1,1,1,1,1,1,1,1,1,1,1,1,1,1,1,1,1,1,1,1,1,1,1,1,1,0,0,0,0,0,0,0,0,0,0,0,0,0,0,0,0,0,0,0,0,0,0,0,0,0,0,0,0,0,0,0,0,0,0,0,0,0,0,0,0,0,0,0,0,0,0,0,0,0,0,0,0,0,0,0,0,0,0,0,0,0,0,0,0],"id":8,"left_children":[1,3,5,7,9,11,13,15,17,19,21,23,25,27,29,31,33,35,37,39,41,43,45,47,49,51,53,55,57,59,61,63,65,67,69,71,73,75,77,79,81,83,85,87,89,91,93,95,97,99,101,103,105,107,109,111,113,115,117,119,121,123,125,-1,-1,-1,-1,-1,-1,-1,-1,-1,-1,-1,-1,-1,-1,-1,-1,-1,-1,-1,-1,-1,-1,-1,-1,-1,-1,-1,-1,-1,-1,-1,-1,-1,-1,-1,-1,-1,-1,-1,-1,-1,-1,-1,-1,-1,-1,-1,-1,-1,-1,-1,-1,-1,-1,-1,-1,-1,-1,-1,-1,-1,-1,-1,-1],"loss_changes":[9.203184E6,3.18604E6,2.056176E6,1.566724E6,8.37912E5,1.320368E6,5.53104E5,3.71724E5,2.29639E5,3.84912E5,2.14668E5,3.96147E5,4.52456E5,3.55804E5,2.14052E5,2.4605E5,1.1057E5,1.055975E5,5.514425E4,1.0443525E5,1.58522E5,2.15305E5,1.179675E5,3.06723E5,1.923205E5,4.15752E5,1.43811E5,1.98112E5,1.10317E5,3.05429E5,7.4788625E4,1.63072E5,9.1185E4,9.434E4,9.474225E4,6.8872E4,1.22024375E4,4.303475E4,2.482325E4,8.4282625E4,8.316525E4,1.21024E5,6.4024375E4,1.0989E5,1.18096E5,1.59183E5,2.8827469E4,1.3904725E5,1.66689E5,8.660375E4,1.0923525E5,2.87392E5,1.65574E5,1.089275E5,1.6259656E4,4.7402E5,1.41044E5,1.3872575E5,4.3578625E4,2.04351E5,6.8993125E4,1.060325E4,2.4518188E4,0E0,0E0,0E0,0E0,0E0,0E0,0E0,0E0,0E0,0E0,0E0,0E0,0E0,0E0,0E0,0E0,0E0,0E0,0E0,0E0,0E0,0E0,0E0,0E0,0E0,0E0,0E0,0E0,0E0,0E0,0E0,0E0,0E0,0E0,0E0,0E0,0E0,0E0,0E0,0E0,0E0,0E0,0E0,0E0,0E0,0E0,0E0,0E0,0E0,0E0,0E0,0E0,0E0,0E0,0E0,0E0,0E0,0E0,0E0,0E0,0E0,0E0,0E0,0E0],"parents":[2147483647,0,0,1,1,2,2,3,3,4,4,5,5,6,6,7,7,8,8,9,9,10,10,11,11,12,12,13,13,14,14,15,15,16,16,17,17,18,18,19,19,20,20,21,21,22,22,23,23,24,24,25,25,26,26,27,27,28,28,29,29,30,30,31,31,32,32,33,33,34,34,35,35,36,36,37,37,38,38,39,39,40,40,41,41,42,42,43,43,44,44,45,45,46,46,47,47,48,48,49,49,50,50,51,51,52,52,53,53,54,54,55,55,56,56,57,57,58,58,59,59,60,60,61,61,62,62],"right_children":[2,4,6,8,10,12,14,16,18,20,22,24,26,28,30,32,34,36,38,40,42,44,46,48,50,52,54,56,58,60,62,64,66,68,70,72,74,76,78,80,82,84,86,88,90,92,94,96,98,100,102,104,106,108,110,112,114,116,118,120,122,124,126,-1,-1,-1,-1,-1,-1,-1,-1,-1,-1,-1,-1,-1,-1,-1,-1,-1,-1,-1,-1,-1,-1,-1,-1,-1,-1,-1,-1,-1,-1,-1,-1,-1,-1,-1,-1,-1,-1,-1,-1,-1,-1,-1,-1,-1,-1,-1,-1,-1,-1,-1,-1,-1,-1,-1,-1,-1,-1,-1,-1,-1,-1,-1,-1],"split_conditions":[2.5E-1,6.830127E-1,1.75E1,6.45E1,1.75E1,1.35E1,2.25E1,-2.5E-1,7.95E1,1.45E1,2.25E1,1.05E1,7.865661E-1,5.75E1,2.45E1,2.5E-1,2.25E1,2.25E1,2.25E1,1.355E2,7.865661E-1,-6.035534E-1,2.15E1,-3.7940952E-1,1.005E2,1.807076E2,1.955651E0,-6.035534E-1,9.55E1,5.95E1,-1.2940952E-1,-6.035534E-1,7.865661E-1,4.5E0,1.2940952E-1,7.5E0,2.5E-1,8.75E1,-6.1232336E-17,6.65E1,7.865661E-1,2.05E0,1.4E1,-1.2940952E-1,1.2940952E-1,7.25E1,1.2940952E-1,1.05E0,5E-1,1.2E1,2.845E2,6.035534E-1,2.965E2,-1.2940952E-1,1.7724258E1,-1.2940952E-1,-3.7940952E-1,6.830127E-1,8.05E1,1.2940952E-1,-6.035534E-1,-9.159756E-1,2.335E2,1.0599858E0,8.70743E-1,1.2131628E0,8.8196945E-1,9.858797E-1,1.2581023E0,1.3331412E0,1.8615249E0,8.843911E-1,7.057614E-1,1.1825664E0,1.5760111E0,5.9664273E-1,4.329489E-1,1.2282971E0,7.3763674E-1,1.6628455E0,1.0650196E0,1.0592114E0,7.0492727E-1,1.5311348E0,1.2347256E0,1.1328593E0,3.1258476E-1,1.6766487E0,2.2722945E0,1.7171749E0,1.3259989E0,2.6303103E0,1.588201E0,1.1220303E0,3.0664659E0,2.169257E0,1.468279E0,1.7360035E0,1.1047093E0,6.9928604E-1,1.6983938E0,6.954929E-1,1.476644E0,1.7904385E0,1.5234407E0,1.3756918E0,1.6397396E0,1.550072E0,1.2233703E0,7.28486E-1,1.4673094E0,1.6942776E0,2.4866478E0,1.9802574E0,1.6907341E0,1.36298E0,2.3173075E0,1.284911E0,6.3084537E-1,2.3701396E0,3.0805655E0,2.7314935E0,1.6441835E0,1.6781267E0,1.0888777E0,2.879172E0,1.4615539E0],"split_indices":[3,4,0,6,0,5,0,3,6,5,0,0,1,6,5,4,5,0,0,8,1,2,5,2,8,8,7,2,8,6,2,2,1,0,2,0,4,6,2,6,1,7,0,1,1,6,2,7,0,0,8,2,8,2,5,1,1,4,6,1,2,1,8,0,0,0,0,0,0,0,0,0,0,0,0,0,0,0,0,0,0,0,0,0,0,0,0,0,0,0,0,0,0,0,0,0,0,0,0,0,0,0,0,0,0,0,0,0,0,0,0,0,0,0,0,0,0,0,0,0,0,0,0,0,0,0,0],"split_type":[0,0,0,0,0,0,0,0,0,0,0,0,0,0,0,0,0,0,0,0,0,0,0,0,0,0,0,0,0,0,0,0,0,0,0,0,0,0,0,0,0,0,0,0,0,0,0,0,0,0,0,0,0,0,0,0,0,0,0,0,0,0,0,0,0,0,0,0,0,0,0,0,0,0,0,0,0,0,0,0,0,0,0,0,0,0,0,0,0,0,0,0,0,0,0,0,0,0,0,0,0,0,0,0,0,0,0,0,0,0,0,0,0,0,0,0,0,0,0,0,0,0,0,0,0,0,0],"sum_hessian":[3.16564E5,1.73034E5,1.4353E5,1.28665E5,4.4369E4,1.08602E5,3.4928E4,8.578E4,4.2885E4,3.116E4,1.3209E4,2.0858E4,8.7744E4,2.885E4,6.078E3,6.4973E4,2.0807E4,2.3649E4,1.9236E4,9.572E3,2.1588E4,1.1004E4,2.205E3,1.3101E4,7.757E3,7.5866E4,1.1878E4,2.4734E4,4.116E3,5.424E3,6.54E2,4.7862E4,1.7111E4,1.6122E4,4.685E3,2.2762E4,8.87E2,1.8004E4,1.232E3,2.475E3,7.097E3,1.874E4,2.848E3,3.21E3,7.794E3,1.916E3,2.89E2,2.94E3,1.0161E4,1.166E3,6.591E3,4.96E4,2.6266E4,1.067E4,1.208E3,7.661E3,1.7073E4,1.604E3,2.512E3,4.161E3,1.263E3,4.97E2,1.57E2,1.8766E4,2.9096E4,1.4674E4,2.437E3,4.404E3,1.1718E4,3.559E3,1.126E3,8.874E3,1.3888E4,5.54E2,3.33E2,1.1928E4,6.076E3,3.74E2,8.58E2,9.89E2,1.486E3,4.438E3,2.659E3,1.4147E4,4.593E3,2.585E3,2.63E2,1.37E3,1.84E3,4.079E3,3.715E3,1.413E3,5.03E2,2.69E2,2E1,1.217E3,1.723E3,1.187E3,8.974E3,2.91E2,8.75E2,6.108E3,4.83E2,3.5436E4,1.4164E4,1.71E4,9.166E3,4.305E3,6.365E3,1.128E3,8E1,3.429E3,4.232E3,7.917E3,9.156E3,9.69E2,6.35E2,2.221E3,2.91E2,2.324E3,1.837E3,1.71E2,1.092E3,1E2,3.97E2,1.1E2,4.7E1],"tree_param":{"num_deleted":"0","num_feature":"9","num_nodes":"127","size_leaf_vector":"0"}},{"base_weights":[2.4896671E1,2.0231197E1,3.0520998E1,1.7836971E1,2.717362E1,2.8480953E1,3.6863136E1,1.9895985E1,1.2478299E1,2.4483498E1,3.351728E1,2.3152302E1,3.054149E1,3.5124065E1,4.5110737E1,1.8681995E1,2.3049128E1,1.3962003E1,9.825208E0,1.8225039E1,2.626767E1,3.525879E1,2.4709072E1,2.6096476E1,1.8314049E1,2.9463156E1,3.4565315E1,3.71236E1,2.9295322E1,4.723142E1,2.9817068E1,1.722909E1,2.1395405E1,2.1944916E1,2.6480198E1,1.6407295E1,1.272647E1,9.13982E0,1.4505823E1,1.2233644E1,1.9947657E1,2.9960443E1,2.4307161E1,4.820813E1,3.361618E1,3.2174377E1,1.9441404E1,3.75129E1,2.4285437E1,2.9385334E1,1.6276953E1,2.9793081E1,1.7836882E1,3.046578E1,3.6069588E1,3.5382504E1,4.3929714E1,3.2677395E1,2.598785E1,4.0741966E1,5.4719124E1,7.520595E1,2.83278E1,1.8105654E1,1.1738281E1,2.4677645E1,1.8979181E1,2.413044E1,1.9384008E1,2.5167713E1,3.2817764E1,1.537189E1,2.2362844E1,1.2411172E1,2.013173E1,1.0478595E1,7.521443E0,1.9612558E1,1.2353994E1,2.6062515E1,1.1401785E1,3.5601784E1,1.8254784E1,3.1996298E1,2.2735727E1,2.7228024E1,2.007817E1,4.0076336E1,6.1337387E1,4.104828E1,3.230112E1,4.349138E1,2.779241E1,2.631701E1,1.7110228E1,3.0393429E1,4.6888355E1,3.4325905E1,2.313328E1,1.4925034E1,3.291413E1,1.4806547E1,2.8211952E1,3.027356E1,2.2112597E1,2.1645733E1,1.3709778E1,2.8258173E1,4.0301445E1,3.840395E1,3.248353E1,3.9786808E1,3.1897669E1,3.817822E1,4.8859753E1,3.5738003E1,3.0565722E1,2.7968082E1,1.9831923E1,2.4687021E1,5.2580536E1,6.76801E1,4.4284107E1,4.1560383E1,1.3309634E2,3.818236E1,2.2820381E1],"categories":[],"categories_nodes":[],"categories_segments":[],"categories_sizes":[],"default_left":[1,1,1,1,1,1,1,1,1,1,1,1,1,1,1,1,1,1,1,1,1,1,1,1,1,1,1,1,1,1,1,1,1,1,1,1,1,1,1,1,1,1,1,1,1,1,1,1,1,1,1,1,1,1,1,1,1,1,1,1,1,1,1,0,0,0,0,0,0,0,0,0,0,0,0,0,0,0,0,0,0,0,0,0,0,0,0,0,0,0,0,0,0,0,0,0,0,0,0,0,0,0,0,0,0,0,0,0,0,0,0,0,0,0,0,0,0,0,0,0,0,0,0,0,0,0,0],"id":9,"left_children":[1,3,5,7,9,11,13,15,17,19,21,23,25,27,29,31,33,35,37,39,41,43,45,47,49,51,53,55,57,59,61,63,65,67,69,71,73,75,77,79,81,83,85,87,89,91,93,95,97,99,101,103,105,107,109,111,113,115,117,119,121,123,125,-1,-1,-1,-1,-1,-1,-1,-1,-1,-1,-1,-1,-1,-1,-1,-1,-1,-1,-1,-1,-1,-1,-1,-1,-1,-1,-1,-1,-1,-1,-1,-1,-1,-1,-1,-1,-1,-1,-1,-1,-1,-1,-1,-1,-1,-1,-1,-1,-1,-1,-1,-1,-1,-1,-1,-1,-1,-1,-1,-1,-1,-1,-1,-1],"loss_changes":[8.306096E6,2.875656E6,1.855992E6,1.4194E6,7.56364E5,1.191744E6,4.99404E5,3.55364E5,1.404635E5,3.4747E5,2.01764E5,4.30978E5,3.38792E5,3.35168E5,1.95752E5,2.64226E5,9.7294E4,6.8992E4,4.097525E4,7.11355E4,1.74805E5,2.32932E5,8.525975E4,3.88369E5,2.580275E5,2.36404E5,1.00938E5,2.52962E5,8.16375E4,2.57101E5,4.8093562E4,2.10194E5,1.85116E5,1.08952E5,5.1453E4,4.704525E4,3.528925E4,2.4144188E4,1.7724469E4,1.7499016E4,1.416575E5,1.22883E5,1.9515E5,1.29823E5,9.4348E4,4.3522062E4,2.0113969E4,1.705185E5,1.87224E5,9.0337625E4,1.69512E5,2.20992E5,2.6536438E4,9.544175E4,1.00034E5,2.61308E5,1.22074E5,2.244575E4,4.495125E4,5.42866E5,3.31742E5,3.9266836E4,3.8259625E4,0E0,0E0,0E0,0E0,0E0,0E0,0E0,0E0,0E0,0E0,0E0,0E0,0E0,0E0,0E0,0E0,0E0,0E0,0E0,0E0,0E0,0E0,0E0,0E0,0E0,0E0,0E0,0E0,0E0,0E0,0E0,0E0,0E0,0E0,0E0,0E0,0E0,0E0,0E0,0E0,0E0,0E0,0E0,0E0,0E0,0E0,0E0,0E0,0E0,0E0,0E0,0E0,0E0,0E0,0E0,0E0,0E0,0E0,0E0,0E0,0E0,0E0,0E0,0E0],"parents":[2147483647,0,0,1,1,2,2,3,3,4,4,5,5,6,6,7,7,8,8,9,9,10,10,11,11,12,12,13,13,14,14,15,15,16,16,17,17,18,18,19,19,20,20,21,21,22,22,23,23,24,24,25,25,26,26,27,27,28,28,29,29,30,30,31,31,32,32,33,33,34,34,35,35,36,36,37,37,38,38,39,39,40,40,41,41,42,42,43,43,44,44,45,45,46,46,47,47,48,48,49,49,50,50,51,51,52,52,53,53,54,54,55,55,56,56,57,57,58,58,59,59,60,60,61,61,62,62],"right_children":[2,4,6,8,10,12,14,16,18,20,22,24,26,28,30,32,34,36,38,40,42,44,46,48,50,52,54,56,58,60,62,64,66,68,70,72,74,76,78,80,82,84,86,88,90,92,94,96,98,100,102,104,106,108,110,112,114,116,118,120,122,124,126,-1,-1,-1,-1,-1,-1,-1,-1,-1,-1,-1,-1,-1,-1,-1,-1,-1,-1,-1,-1,-1,-1,-1,-1,-1,-1,-1,-1,-1,-1,-1,-1,-1,-1,-1,-1,-1,-1,-1,-1,-1,-1,-1,-1,-1,-1,-1,-1,-1,-1,-1,-1,-1,-1,-1,-1,-1,-1,-1,-1,-1,-1,-1,-1],"split_conditions":[2.5E-1,6.830127E-1,1.75E1,6.95E1,1.75E1,1.55E1,2.25E1,1.75E1,8.35E1,1.25E1,7.15E1,1.05E1,9.330127E-1,2.15E1,6.95E1,1.85E1,-2.5E-1,-6.1232336E-17,2.1E1,2E0,-6.035534E-1,9.5E-1,1.05E0,-6.035534E-1,9.35E1,6.65E1,2.15E1,2.05E1,-6.1232336E-17,-6.123234E-17,1.5E-1,1.35E1,7.5E0,-6.1232336E-17,2.25E1,1.75E1,2.25E1,1E1,-6.1232336E-17,5E-1,5.5E0,1.955651E0,-1.2940952E-1,2.25E1,-9.159756E-1,-3.7940952E-1,-3.7940952E-1,6.5E0,5E-1,1.2E1,2.835E2,1.65E1,1E1,3.85E0,9.5E0,4.95E1,6.830127E-1,-7.865661E-1,6.25E1,-1.2940952E-1,-3.7940952E-1,6.5E0,-6.1232336E-17,9.052827E-1,5.8691406E-1,1.2338823E0,9.4895905E-1,1.206522E0,9.6920043E-1,1.2583857E0,1.6408882E0,7.685945E-1,1.1181422E0,6.205586E-1,1.0065864E0,5.239298E-1,3.7607214E-1,9.8062795E-1,6.1769974E-1,1.3031257E0,5.700893E-1,1.7800893E0,9.127392E-1,1.5998149E0,1.1367863E0,1.3614012E0,1.0039085E0,2.0038168E0,3.0668695E0,2.052414E0,1.615056E0,2.174569E0,1.3896205E0,1.3158506E0,8.5551137E-1,1.5196714E0,2.3444178E0,1.7162952E0,1.156664E0,7.462517E-1,1.6457065E0,7.4032736E-1,1.4105977E0,1.513678E0,1.1056298E0,1.0822867E0,6.854889E-1,1.4129087E0,2.0150723E0,1.9201975E0,1.6241764E0,1.9893404E0,1.5948834E0,1.908911E0,2.4429877E0,1.7869002E0,1.5282861E0,1.3984041E0,9.9159616E-1,1.234351E0,2.629027E0,3.384005E0,2.2142055E0,2.0780191E0,6.654817E0,1.909118E0,1.1410191E0],"split_indices":[3,4,0,6,0,5,0,0,6,5,6,0,3,0,6,5,3,2,0,0,2,7,7,2,8,6,6,0,2,1,7,0,0,2,0,0,0,0,2,0,0,7,1,0,2,2,2,0,0,0,8,0,0,7,0,6,3,2,6,2,2,5,2,0,0,0,0,0,0,0,0,0,0,0,0,0,0,0,0,0,0,0,0,0,0,0,0,0,0,0,0,0,0,0,0,0,0,0,0,0,0,0,0,0,0,0,0,0,0,0,0,0,0,0,0,0,0,0,0,0,0,0,0,0,0,0,0],"split_type":[0,0,0,0,0,0,0,0,0,0,0,0,0,0,0,0,0,0,0,0,0,0,0,0,0,0,0,0,0,0,0,0,0,0,0,0,0,0,0,0,0,0,0,0,0,0,0,0,0,0,0,0,0,0,0,0,0,0,0,0,0,0,0,0,0,0,0,0,0,0,0,0,0,0,0,0,0,0,0,0,0,0,0,0,0,0,0,0,0,0,0,0,0,0,0,0,0,0,0,0,0,0,0,0,0,0,0,0,0,0,0,0,0,0,0,0,0,0,0,0,0,0,0,0,0,0,0],"sum_hessian":[3.16564E5,1.73034E5,1.4353E5,1.28665E5,4.4369E4,1.08602E5,3.4928E4,9.2948E4,3.5717E4,3.116E4,1.3209E4,3.0288E4,7.8314E4,2.885E4,6.078E3,6.7115E4,2.5833E4,2.2904E4,1.2813E4,6.915E3,2.4245E4,1.1026E4,2.183E3,1.8827E4,1.1461E4,6.1769E4,1.6545E4,2.1477E4,7.373E3,5.336E3,7.42E2,4.3715E4,2.34E4,1.9549E4,6.284E3,7.684E3,1.522E4,1.1179E4,1.634E3,1.546E3,5.369E3,8.403E3,1.5842E4,1.238E3,9.788E3,9.01E2,1.282E3,2.575E3,1.6252E4,1.779E3,9.682E3,6.0063E4,1.706E3,4.447E3,1.2098E4,1.7107E4,4.37E3,3.641E3,3.732E3,2.862E3,2.474E3,2.2E1,7.2E2,3.7695E4,6.02E3,9.918E3,1.3482E4,1.0543E4,9.006E3,5.21E3,1.074E3,6.549E3,1.135E3,1.4601E4,6.19E2,6.115E3,5.064E3,4.82E2,1.152E3,8.6E1,1.46E3,5.22E2,4.847E3,6.553E3,1.85E3,9.367E3,6.475E3,7.67E2,4.71E2,1.467E3,8.321E3,2.49E2,6.52E2,3.22E2,9.6E2,1.466E3,1.109E3,1.67E3,1.4582E4,3.5E2,1.429E3,8.622E3,1.06E3,5.6524E4,3.539E3,8.85E2,8.21E2,3.635E3,8.12E2,7.322E3,4.776E3,7.552E3,9.555E3,2.021E3,2.349E3,1.48E3,2.161E3,2.821E3,9.11E2,1.216E3,1.646E3,1.101E3,1.373E3,1.5E1,7E0,2.56E2,4.64E2],"tree_param":{"num_deleted":"0","num_feature":"9","num_nodes":"127","size_leaf_vector":"0"}},{"base_weights":[2.3652143E1,1.9219864E1,2.899535E1,1.6945238E1,2.5815485E1,2.7057114E1,3.502098E1,1.9230164E1,1.2578169E1,2.3259634E1,3.1842512E1,2.0540348E1,2.8605991E1,3.3368332E1,4.2858692E1,1.8110592E1,2.2713352E1,1.4448241E1,1.01508045E1,2.488887E1,1.6975874E1,3.016592E1,4.0192043E1,2.3569E1,1.5422795E1,2.9447388E1,2.3229872E1,3.5267788E1,2.7831331E1,4.567196E1,3.2159344E1,1.6992327E1,2.122034E1,1.901634E1,2.396711E1,1.4047387E1,2.4643871E1,9.585199E0,1.4399621E1,2.5953926E1,1.6662403E1,2.0658209E1,1.044337E1,3.6551598E1,2.7531593E1,5.0959625E1,3.5690704E1,3.1842821E1,2.1172144E1,3.0832428E1,1.4063565E1,3.1268318E1,2.6783274E1,2.4322618E1,1.3565751E1,3.3613586E1,4.1734222E1,3.1044434E1,2.4689096E1,3.9357796E1,5.5810112E1,4.930926E1,2.9443544E1,1.766141E1,1.2303013E1,2.2121279E1,1.5795439E1,1.7322954E1,2.4768084E1,3.7227703E1,2.3142689E1,1.611947E1,1.2723179E1,2.1695723E1,2.9645025E1,1.0943561E1,7.8331785E0,2.1161291E1,1.2919235E1,2.748141E1,2.1335882E1,2.2430763E1,1.3489212E1,1.0636089E1,2.3343178E1,7.0160956E0,1.2172501E1,3.009566E1,4.1339504E1,3.1471226E1,2.4094E1,5.7433758E1,2.545878E1,2.9683126E1,4.3659374E1,2.2941977E1,3.667134E1,3.1270678E1,1.9833065E1,2.9872732E1,1.1170361E2,1.02814455E1,1.7556139E1,2.7793673E1,3.44173E1,2.7711576E1,1.9201536E1,3.0136461E1,2.2676165E1,1.471686E1,2.159646E0,3.779773E1,3.0302952E1,3.6270252E1,4.6417805E1,3.1926645E1,2.4327261E1,2.6570173E1,1.8841413E1,2.8504889E1,5.353049E1,7.50311E1,4.6130753E1,2.0365667E1,5.9714336E1,3.2355762E1,1.2293822E1],"categories":[],"categories_nodes":[],"categories_segments":[],"categories_sizes":[],"default_left":[1,1,1,1,1,1,1,1,1,1,1,1,1,1,1,1,1,1,1,1,1,1,1,1,1,1,1,1,1,1,1,1,1,1,1,1,1,1,1,1,1,1,1,1,1,1,1,1,1,1,1,1,1,1,1,1,1,1,1,1,1,1,1,0,0,0,0,0,0,0,0,0,0,0,0,0,0,0,0,0,0,0,0,0,0,0,0,0,0,0,0,0,0,0,0,0,0,0,0,0,0,0,0,0,0,0,0,0,0,0,0,0,0,0,0,0,0,0,0,0,0,0,0,0,0,0,0],"id":10,"left_children":[1,3,5,7,9,11,13,15,17,19,21,23,25,27,29,31,33,35,37,39,41,43,45,47,49,51,53,55,57,59,61,63,65,67,69,71,73,75,77,79,81,83,85,87,89,91,93,95,97,99,101,103,105,107,109,111,113,115,117,119,121,123,125,-1,-1,-1,-1,-1,-1,-1,-1,-1,-1,-1,-1,-1,-1,-1,-1,-1,-1,-1,-1,-1,-1,-1,-1,-1,-1,-1,-1,-1,-1,-1,-1,-1,-1,-1,-1,-1,-1,-1,-1,-1,-1,-1,-1,-1,-1,-1,-1,-1,-1,-1,-1,-1,-1,-1,-1,-1,-1,-1,-1,-1,-1,-1,-1],"loss_changes":[7.496528E6,2.595528E6,1.67536E6,1.283644E6,6.82744E5,1.095624E6,4.51E5,3.28986E5,2.004885E5,3.18596E5,1.83712E5,3.22936E5,3.96224E5,3.02452E5,1.81509E5,2.21946E5,9.4761E4,1.01676E5,4.60915E4,2.16357E5,1.541925E5,1.8412E5,1.0510275E5,2.591535E5,1.620595E5,3.67204E5,1.251175E5,2.28346E5,7.36835E4,3.05774E5,5.765275E4,1.47323E5,8.2269E4,5.028675E4,1.66796E5,6.57055E4,1.32605625E4,4.0324625E4,2.2328906E4,1.53931E5,5.1662812E4,1.1018675E5,1.3639672E4,9.80095E4,1.04808E5,1.0552E5,7.3337E4,1.2555675E5,1.367975E5,4.5403312E4,9.401525E4,4.92068E5,2.16306E5,1.01462E5,1.5842E4,2.35836E5,1.10174E5,2.08055E4,4.056225E4,4.54997E5,3.3961E5,5.05835E4,5.4440438E4,0E0,0E0,0E0,0E0,0E0,0E0,0E0,0E0,0E0,0E0,0E0,0E0,0E0,0E0,0E0,0E0,0E0,0E0,0E0,0E0,0E0,0E0,0E0,0E0,0E0,0E0,0E0,0E0,0E0,0E0,0E0,0E0,0E0,0E0,0E0,0E0,0E0,0E0,0E0,0E0,0E0,0E0,0E0,0E0,0E0,0E0,0E0,0E0,0E0,0E0,0E0,0E0,0E0,0E0,0E0,0E0,0E0,0E0,0E0,0E0,0E0,0E0,0E0,0E0],"parents":[2147483647,0,0,1,1,2,2,3,3,4,4,5,5,6,6,7,7,8,8,9,9,10,10,11,11,12,12,13,13,14,14,15,15,16,16,17,17,18,18,19,19,20,20,21,21,22,22,23,23,24,24,25,25,26,26,27,27,28,28,29,29,30,30,31,31,32,32,33,33,34,34,35,35,36,36,37,37,38,38,39,39,40,40,41,41,42,42,43,43,44,44,45,45,46,46,47,47,48,48,49,49,50,50,51,51,52,52,53,53,54,54,55,55,56,56,57,57,58,58,59,59,60,60,61,61,62,62],"right_children":[2,4,6,8,10,12,14,16,18,20,22,24,26,28,30,32,34,36,38,40,42,44,46,48,50,52,54,56,58,60,62,64,66,68,70,72,74,76,78,80,82,84,86,88,90,92,94,96,98,100,102,104,106,108,110,112,114,116,118,120,122,124,126,-1,-1,-1,-1,-1,-1,-1,-1,-1,-1,-1,-1,-1,-1,-1,-1,-1,-1,-1,-1,-1,-1,-1,-1,-1,-1,-1,-1,-1,-1,-1,-1,-1,-1,-1,-1,-1,-1,-1,-1,-1,-1,-1,-1,-1,-1,-1,-1,-1,-1,-1,-1,-1,-1,-1,-1,-1,-1,-1,-1,-1,-1,-1,-1],"split_conditions":[2.5E-1,6.830127E-1,1.75E1,6.35E1,1.75E1,1.35E1,2.25E1,-2.5E-1,7.95E1,7.865661E-1,2.25E1,1.05E1,7.865661E-1,2.15E1,5.95E1,2.5E-1,4.5E0,2.25E1,1.95E1,6.95E1,1.807076E2,-6.035534E-1,8.5E-1,-3.7940952E-1,5.25E1,9.5E0,1.955651E0,2.05E1,-6.1232336E-17,1.2940952E-1,-6.035534E-1,7.865661E-1,7.865661E-1,2.05E1,5.5E0,7.5E0,2.5E-1,1E1,-3.7940952E-1,2.05E0,6.035534E-1,2.5E0,6.15E1,-1.2940952E-1,-1.2940952E-1,8.25E1,1.2940952E-1,4E0,5E-1,3.9E0,1.05E1,4.5E0,5.1559097E1,-3.7940952E-1,6.830127E-1,4.95E1,6.830127E-1,6.75E1,6.25E1,1.2940952E-1,-6.035534E-1,-2.5E-1,8.35E1,8.8307047E-1,6.1515063E-1,1.106064E0,7.89772E-1,8.661477E-1,1.2384042E0,1.8613852E0,1.1571344E0,8.0597353E-1,6.3615894E-1,1.0847862E0,1.4822513E0,5.4717803E-1,3.9165893E-1,1.0580646E0,6.4596176E-1,1.3740705E0,1.0667942E0,1.1215382E0,6.744606E-1,5.318045E-1,1.167159E0,3.5080478E-1,6.0862505E-1,1.504783E0,2.0669754E0,1.5735613E0,1.2047E0,2.871688E0,1.2729391E0,1.4841564E0,2.1829689E0,1.1470989E0,1.833567E0,1.5635339E0,9.9165326E-1,1.4936366E0,5.5851808E0,5.140723E-1,8.7780696E-1,1.3896836E0,1.7208651E0,1.3855789E0,9.600768E-1,1.5068231E0,1.1338083E0,7.35843E-1,1.079823E-1,1.8898865E0,1.5151476E0,1.8135127E0,2.3208902E0,1.5963323E0,1.2163631E0,1.3285087E0,9.4207066E-1,1.4252445E0,2.6765246E0,3.751555E0,2.3065376E0,1.0182834E0,2.9857168E0,1.6177882E0,6.1469114E-1],"split_indices":[3,4,0,6,0,5,0,3,6,1,0,0,1,0,6,4,0,0,0,6,8,2,7,2,8,0,7,0,2,1,2,1,1,5,0,0,4,0,2,7,2,0,6,1,1,6,2,0,0,7,5,0,6,2,4,6,3,6,6,2,2,4,6,0,0,0,0,0,0,0,0,0,0,0,0,0,0,0,0,0,0,0,0,0,0,0,0,0,0,0,0,0,0,0,0,0,0,0,0,0,0,0,0,0,0,0,0,0,0,0,0,0,0,0,0,0,0,0,0,0,0,0,0,0,0,0,0],"split_type":[0,0,0,0,0,0,0,0,0,0,0,0,0,0,0,0,0,0,0,0,0,0,0,0,0,0,0,0,0,0,0,0,0,0,0,0,0,0,0,0,0,0,0,0,0,0,0,0,0,0,0,0,0,0,0,0,0,0,0,0,0,0,0,0,0,0,0,0,0,0,0,0,0,0,0,0,0,0,0,0,0,0,0,0,0,0,0,0,0,0,0,0,0,0,0,0,0,0,0,0,0,0,0,0,0,0,0,0,0,0,0,0,0,0,0,0,0,0,0,0,0,0,0,0,0,0,0],"sum_hessian":[3.16564E5,1.73034E5,1.4353E5,1.28665E5,4.4369E4,1.08602E5,3.4928E4,8.4467E4,4.4198E4,3.116E4,1.3209E4,2.0858E4,8.7744E4,2.885E4,6.078E3,6.3926E4,2.0541E4,2.4962E4,1.9236E4,2.4742E4,6.418E3,1.1004E4,2.205E3,1.3101E4,7.757E3,7.5866E4,1.1878E4,2.1477E4,7.373E3,4.81E3,1.268E3,4.7023E4,1.6903E4,5.206E3,1.5335E4,2.402E4,9.42E2,1.6979E4,2.257E3,2.1904E4,2.838E3,4.103E3,2.315E3,3.21E3,7.794E3,6.47E2,1.558E3,2.94E3,1.0161E4,6.27E2,7.13E3,4.5058E4,3.0808E4,1.067E4,1.208E3,1.7107E4,4.37E3,3.641E3,3.732E3,2.967E3,1.843E3,1.71E2,1.097E3,4.1149E4,5.874E3,1.4493E4,2.41E3,4.025E3,1.181E3,8.95E2,1.444E4,9.361E3,1.4659E4,5.96E2,3.46E2,9.561E3,7.418E3,4.03E2,1.854E3,1.6456E4,5.448E3,1.005E3,1.833E3,8.68E2,3.235E3,7.78E2,1.537E3,1.37E3,1.84E3,3.628E3,4.166E3,5.15E2,1.32E2,8.91E2,6.67E2,1.036E3,1.904E3,1.187E3,8.974E3,6.21E2,6E0,3.425E3,3.705E3,2.1426E4,2.3632E4,2.7445E4,3.363E3,2.351E3,8.319E3,1.097E3,1.11E2,7.552E3,9.555E3,2.021E3,2.349E3,3.215E3,4.26E2,2.821E3,9.11E2,1.682E3,1.285E3,6.15E2,1.228E3,4.6E1,1.25E2,9.37E2,1.6E2],"tree_param":{"num_deleted":"0","num_feature":"9","num_nodes":"127","size_leaf_vector":"0"}},{"base_weights":[2.2469814E1,1.8259079E1,2.7545944E1,1.6098095E1,2.4525185E1,2.570447E1,3.327076E1,1.796199E1,1.1247221E1,2.2096872E1,3.025146E1,2.1356056E1,2.7805693E1,3.1700354E1,4.0718456E1,1.6813383E1,2.0945349E1,1.2480938E1,8.550982E0,1.7468899E1,2.4147987E1,3.1957287E1,2.2213787E1,2.9411533E1,1.9827707E1,2.6777414E1,3.1686531E1,3.665158E1,2.9705324E1,4.2540516E1,2.556516E1,1.5460229E1,1.9340525E1,2.153229E1,1.5678564E1,1.479365E1,1.1330179E1,8.071727E0,1.4507286E1,2.2811682E1,1.5733347E1,2.9703201E1,2.3035357E1,4.330235E1,3.0333212E1,3.0086014E1,1.7603333E1,3.2792217E1,1.7210464E1,3.193221E1,1.904553E1,1.7441818E1,2.714783E1,2.7605839E1,3.3316658E1,2.850201E1,4.246729E1,3.1183535E1,2.247951E1,4.6172855E1,3.0546585E1,1.7836336E1,3.7388832E1,1.6285807E1,1.0288916E1,2.2432854E1,1.7064167E1,2.2932016E1,1.8301294E1,1.4779539E1,2.4767862E1,1.3827824E1,2.030682E1,1.1049045E1,1.7749775E1,1.6355392E1,7.8100805E0,2.091753E1,1.1789875E1,1.5024514E1,2.7344488E1,2.0330284E1,1.3727507E1,3.967189E1,2.7647457E1,2.4034023E1,1.7893732E1,3.6310963E1,5.437946E1,3.5486324E1,2.8723566E1,4.0638027E1,2.608488E1,2.3846037E1,1.548355E1,3.796134E1,2.5391348E1,1.1352486E1,4.9291805E1,3.9408676E1,2.5577438E1,1.0075014E1,2.0195051E1,7.1634626E0,1.9201893E1,2.5550959E1,2.9876814E1,2.6152187E1,4.1292404E1,2.9080694E1,3.5553013E1,2.4863333E1,3.0844177E1,3.0146702E1,4.5412445E1,3.3193172E1,2.7499245E1,2.8370766E1,1.96366E1,4.0121624E1,5.2405502E1,4.6867077E1,2.7950363E1,1.3786465E1,2.0028894E1,4.505452E1,2.3535349E1],"categories":[],"categories_nodes":[],"categories_segments":[],"categories_sizes":[],"default_left":[1,1,1,1,1,1,1,1,1,1,1,1,1,1,1,1,1,1,1,1,1,1,1,1,1,1,1,1,1,1,1,1,1,1,1,1,1,1,1,1,1,1,1,1,1,1,1,1,1,1,1,1,1,1,1,1,1,1,1,1,1,1,1,0,0,0,0,0,0,0,0,0,0,0,0,0,0,0,0,0,0,0,0,0,0,0,0,0,0,0,0,0,0,0,0,0,0,0,0,0,0,0,0,0,0,0,0,0,0,0,0,0,0,0,0,0,0,0,0,0,0,0,0,0,0,0,0],"id":11,"left_children":[1,3,5,7,9,11,13,15,17,19,21,23,25,27,29,31,33,35,37,39,41,43,45,47,49,51,53,55,57,59,61,63,65,67,69,71,73,75,77,79,81,83,85,87,89,91,93,95,97,99,101,103,105,107,109,111,113,115,117,119,121,123,125,-1,-1,-1,-1,-1,-1,-1,-1,-1,-1,-1,-1,-1,-1,-1,-1,-1,-1,-1,-1,-1,-1,-1,-1,-1,-1,-1,-1,-1,-1,-1,-1,-1,-1,-1,-1,-1,-1,-1,-1,-1,-1,-1,-1,-1,-1,-1,-1,-1,-1,-1,-1,-1,-1,-1,-1,-1,-1,-1,-1,-1,-1,-1,-1],"loss_changes":[6.76584E6,2.342668E6,1.512264E6,1.163134E6,6.16304E5,9.91704E5,4.07232E5,3.18158E5,1.187055E5,2.95374E5,1.80411E5,4.35076E5,2.91332E5,2.83896E5,1.66755E5,2.29212E5,7.9522E4,6.5044E4,3.19E4,8.84085E4,1.32755E5,1.99429E5,8.3528625E4,2.321155E5,2.81022E5,1.99704E5,1.01063E5,3.91319E5,2.19014E5,2.34935E5,5.918903E4,1.8647E5,1.64342E5,1.04688E5,2.0830875E4,4.3052125E4,2.934075E4,2.237625E4,1.42810625E4,8.2362375E4,6.6377625E4,7.265775E4,9.1949E4,1.035045E5,7.8062E4,3.4995812E4,1.8990906E4,1.67975E5,2.2984484E5,8.470225E4,2.8794E5,3.9879062E4,2.41872E5,8.610225E4,1.02696E5,2.86525E4,1.73929E5,1.25505E5,5.8011625E4,1.54869E5,5.2247875E4,3.2579453E3,2.6338281E4,0E0,0E0,0E0,0E0,0E0,0E0,0E0,0E0,0E0,0E0,0E0,0E0,0E0,0E0,0E0,0E0,0E0,0E0,0E0,0E0,0E0,0E0,0E0,0E0,0E0,0E0,0E0,0E0,0E0,0E0,0E0,0E0,0E0,0E0,0E0,0E0,0E0,0E0,0E0,0E0,0E0,0E0,0E0,0E0,0E0,0E0,0E0,0E0,0E0,0E0,0E0,0E0,0E0,0E0,0E0,0E0,0E0,0E0,0E0,0E0,0E0,0E0,0E0,0E0],"parents":[2147483647,0,0,1,1,2,2,3,3,4,4,5,5,6,6,7,7,8,8,9,9,10,10,11,11,12,12,13,13,14,14,15,15,16,16,17,17,18,18,19,19,20,20,21,21,22,22,23,23,24,24,25,25,26,26,27,27,28,28,29,29,30,30,31,31,32,32,33,33,34,34,35,35,36,36,37,37,38,38,39,39,40,40,41,41,42,42,43,43,44,44,45,45,46,46,47,47,48,48,49,49,50,50,51,51,52,52,53,53,54,54,55,55,56,56,57,57,58,58,59,59,60,60,61,61,62,62],"right_children":[2,4,6,8,10,12,14,16,18,20,22,24,26,28,30,32,34,36,38,40,42,44,46,48,50,52,54,56,58,60,62,64,66,68,70,72,74,76,78,80,82,84,86,88,90,92,94,96,98,100,102,104,106,108,110,112,114,116,118,120,122,124,126,-1,-1,-1,-1,-1,-1,-1,-1,-1,-1,-1,-1,-1,-1,-1,-1,-1,-1,-1,-1,-1,-1,-1,-1,-1,-1,-1,-1,-1,-1,-1,-1,-1,-1,-1,-1,-1,-1,-1,-1,-1,-1,-1,-1,-1,-1,-1,-1,-1,-1,-1,-1,-1,-1,-1,-1,-1,-1,-1,-1,-1,-1,-1,-1],"split_conditions":[2.5E-1,6.830127E-1,1.75E1,6.95E1,1.75E1,1.65E1,2.25E1,1.75E1,8.45E1,1.45E1,7.05E1,-6.035534E-1,9.330127E-1,-6.035534E-1,2.45E1,1.85E1,9.159756E-1,-6.1232336E-17,2.25E1,1.235E2,-9.159756E-1,1.05E0,9.5E-1,1.955651E0,5E-1,1.15E1,2.15E1,-1.2940952E-1,5.75E1,5.95E1,-3.7940952E-1,1.35E1,7.5E0,6.035534E-1,5.1559097E1,1.75E1,2.25E1,5E-1,-6.1232336E-17,6.5E0,1.2940952E-1,1.45E0,1.4E1,2.25E1,-7.865661E-1,-3.7940952E-1,-3.7940952E-1,9.5E0,9.330127E-1,6.85E1,2E0,2.15E1,1.95E1,4.55E0,4.5E0,-2.5E-1,-6.830127E-1,3.7940952E-1,1.25E1,-6.123234E-17,-6.035534E-1,6.830127E-1,2.335E2,8.1429034E-1,5.144458E-1,1.1216427E0,8.5320836E-1,1.1466008E0,9.1506475E-1,7.3897696E-1,1.2383932E0,6.9139117E-1,1.015341E0,5.5245227E-1,8.874888E-1,8.1776965E-1,3.9050403E-1,1.0458765E0,5.8949375E-1,7.512257E-1,1.3672245E0,1.0165142E0,6.863753E-1,1.9835945E0,1.3823729E0,1.2017012E0,8.9468664E-1,1.8155482E0,2.718973E0,1.7743162E0,1.4361783E0,2.0319014E0,1.304244E0,1.1923019E0,7.741775E-1,1.8980671E0,1.2695674E0,5.676243E-1,2.4645903E0,1.9704338E0,1.2788719E0,5.0375074E-1,1.0097526E0,3.5817313E-1,9.6009463E-1,1.277548E0,1.4938407E0,1.3076094E0,2.0646203E0,1.4540347E0,1.7776507E0,1.2431667E0,1.5422089E0,1.5073351E0,2.2706223E0,1.6596587E0,1.3749622E0,1.4185383E0,9.8183006E-1,2.0060813E0,2.6202753E0,2.343354E0,1.3975182E0,6.8932325E-1,1.0014447E0,2.252726E0,1.1767675E0],"split_indices":[3,4,0,6,0,5,0,0,6,5,6,2,3,2,5,5,1,2,0,8,2,7,7,7,0,6,6,1,6,6,2,0,0,2,6,0,0,0,2,0,1,7,0,0,2,2,2,0,3,6,0,5,5,7,0,4,4,1,5,1,2,3,8,0,0,0,0,0,0,0,0,0,0,0,0,0,0,0,0,0,0,0,0,0,0,0,0,0,0,0,0,0,0,0,0,0,0,0,0,0,0,0,0,0,0,0,0,0,0,0,0,0,0,0,0,0,0,0,0,0,0,0,0,0,0,0,0],"split_type":[0,0,0,0,0,0,0,0,0,0,0,0,0,0,0,0,0,0,0,0,0,0,0,0,0,0,0,0,0,0,0,0,0,0,0,0,0,0,0,0,0,0,0,0,0,0,0,0,0,0,0,0,0,0,0,0,0,0,0,0,0,0,0,0,0,0,0,0,0,0,0,0,0,0,0,0,0,0,0,0,0,0,0,0,0,0,0,0,0,0,0,0,0,0,0,0,0,0,0,0,0,0,0,0,0,0,0,0,0,0,0,0,0,0,0,0,0,0,0,0,0,0,0,0,0,0,0],"sum_hessian":[3.16564E5,1.73034E5,1.4353E5,1.28665E5,4.4369E4,1.08602E5,3.4928E4,9.2948E4,3.5717E4,3.116E4,1.3209E4,3.5385E4,7.3217E4,2.885E4,6.078E3,6.7115E4,2.5833E4,2.4502E4,1.1215E4,9.572E3,2.1588E4,1.0894E4,2.315E3,5.64E3,2.9745E4,5.7887E4,1.533E4,8.281E3,2.0569E4,5.424E3,6.54E2,4.3715E4,2.34E4,2.324E4,2.593E3,8.137E3,1.6365E4,1.0382E4,8.33E2,2.344E3,7.228E3,3.598E3,1.799E4,1.361E3,9.533E3,8.53E2,1.462E3,4.415E3,1.225E3,1.803E3,2.7942E4,2.211E3,5.5676E4,4.381E3,1.0949E4,3.451E3,4.83E3,1.7073E4,3.496E3,4.161E3,1.263E3,3.97E2,2.57E2,3.7695E4,6.02E3,9.918E3,1.3482E4,1.6211E4,7.029E3,2.362E3,2.31E2,6.927E3,1.21E3,1.5681E4,6.84E2,3.16E2,1.0066E4,2.46E2,5.87E2,8.64E2,1.48E3,2.193E3,5.035E3,6.12E2,2.986E3,1.5061E4,2.929E3,8.37E2,5.24E2,2.264E3,7.269E3,2.32E2,6.21E2,3.68E2,1.094E3,2.597E3,1.818E3,1.037E3,1.88E2,8.26E2,9.77E2,3.175E3,2.4767E4,3.24E2,1.887E3,3.513E4,2.0546E4,3.963E3,4.18E2,3.788E3,7.161E3,1.356E3,2.095E3,9.34E2,3.896E3,1.1042E4,6.031E3,1.135E3,2.361E3,2.115E3,2.046E3,1.71E2,1.092E3,1.42E2,2.55E2,1.64E2,9.3E1],"tree_param":{"num_deleted":"0","num_feature":"9","num_nodes":"127","size_leaf_vector":"0"}},{"base_weights":[2.1346584E1,1.734633E1,2.6168976E1,1.5293293E1,2.3299429E1,2.4419445E1,3.1607952E1,1.736175E1,1.1339951E1,2.0992327E1,2.8739874E1,1.846397E1,2.583492E1,3.0115751E1,3.868475E1,1.6301601E1,2.0660103E1,1.3176234E1,9.291888E0,2.2503834E1,1.5162729E1,3.0360134E1,2.1105387E1,2.1329958E1,1.3621404E1,2.6356817E1,1.7800287E1,3.1904985E1,2.4900227E1,4.008615E1,2.0633427E1,1.5237559E1,1.9260618E1,1.7157114E1,2.1848118E1,1.2792987E1,2.3090492E1,1.1504367E1,8.395892E0,2.3629286E1,1.5762873E1,1.8547815E1,9.15774E0,4.1140564E1,2.8816889E1,2.7939255E1,1.6306698E1,3.408819E1,1.9944511E1,2.35402E1,1.1696291E1,2.5813671E1,3.4781918E1,1.3903546E1,2.1215305E1,3.3099648E1,2.3794312E1,2.7819998E1,2.2044962E1,2.738148E1,4.2699482E1,2.8556313E1,1.2359879E1,1.7324976E1,1.3883465E1,1.5489157E1,2.0472137E1,1.561064E1,2.2410034E1,3.4422607E1,2.1066414E1,1.478243E1,1.1530762E1,2.0084322E1,2.820778E1,1.0399003E1,1.6881931E1,1.2783004E1,8.023637E0,1.8065313E1,2.4814596E1,2.0738655E1,1.288726E1,9.090135E0,2.1081863E1,5.840414E0,1.0832018E1,3.449758E1,5.166567E1,2.9655529E1,1.9661438E1,3.763328E1,2.4233952E1,2.2052235E1,1.4383075E1,4.074754E1,2.3993563E1,3.1110249E1,1.8333582E1,9.927474E0,2.8539968E1,1.064202E1,2.4776457E1,2.6503683E1,1.782603E1,3.28007E1,5.2980038E1,2.390029E1,1.279402E1,2.2105537E1,1.4911589E1,3.1534798E1,3.918429E1,3.1741533E1,2.178953E1,3.0538706E1,2.5944777E1,2.372402E1,1.6825289E1,2.2631119E1,4.651314E1,3.6259613E1,4.6091766E1,3.9680813E1,2.4149714E1,1.594828E1,3.3350825E0],"categories":[],"categories_nodes":[],"categories_segments":[],"categories_sizes":[],"default_left":[1,1,1,1,1,1,1,1,1,1,1,1,1,1,1,1,1,1,1,1,1,1,1,1,1,1,1,1,1,1,1,1,1,1,1,1,1,1,1,1,1,1,1,1,1,1,1,1,1,1,1,1,1,1,1,1,1,1,1,1,1,1,1,0,0,0,0,0,0,0,0,0,0,0,0,0,0,0,0,0,0,0,0,0,0,0,0,0,0,0,0,0,0,0,0,0,0,0,0,0,0,0,0,0,0,0,0,0,0,0,0,0,0,0,0,0,0,0,0,0,0,0,0,0,0,0,0],"id":12,"left_children":[1,3,5,7,9,11,13,15,17,19,21,23,25,27,29,31,33,35,37,39,41,43,45,47,49,51,53,55,57,59,61,63,65,67,69,71,73,75,77,79,81,83,85,87,89,91,93,95,97,99,101,103,105,107,109,111,113,115,117,119,121,123,125,-1,-1,-1,-1,-1,-1,-1,-1,-1,-1,-1,-1,-1,-1,-1,-1,-1,-1,-1,-1,-1,-1,-1,-1,-1,-1,-1,-1,-1,-1,-1,-1,-1,-1,-1,-1,-1,-1,-1,-1,-1,-1,-1,-1,-1,-1,-1,-1,-1,-1,-1,-1,-1,-1,-1,-1,-1,-1,-1,-1,-1,-1,-1,-1],"loss_changes":[6.106336E6,2.114468E6,1.365024E6,1.051946E6,5.56314E5,9.15024E5,3.67684E5,2.95026E5,1.66102E5,2.74234E5,1.62765E5,2.89206E5,3.67468E5,2.68434E5,1.52954E5,2.0098E5,8.5112E4,8.824325E4,4.1331E4,1.87343E5,1.3031175E5,1.80073E5,7.549431E4,2.30909E5,1.4786212E5,3.76128E5,7.0966375E4,2.07324E5,6.0862E4,1.86087E5,2.8489219E4,1.32676E5,7.69205E4,4.1949125E4,1.500205E5,5.61715E4,1.2755531E4,3.561425E4,2.4195125E4,1.39373E5,5.04275E4,9.816575E4,1.2800094E4,9.3446E4,7.262E4,3.3355062E4,1.4747031E4,8.5203125E4,2.120565E5,8.5472875E4,8.935781E4,4.26152E5,1.780655E5,2.7467719E4,1.5675E4,1.7699E5,4.329775E4,1.777525E4,3.2317125E4,8.664875E4,1.0048E5,1.0022469E4,6.9742656E3,0E0,0E0,0E0,0E0,0E0,0E0,0E0,0E0,0E0,0E0,0E0,0E0,0E0,0E0,0E0,0E0,0E0,0E0,0E0,0E0,0E0,0E0,0E0,0E0,0E0,0E0,0E0,0E0,0E0,0E0,0E0,0E0,0E0,0E0,0E0,0E0,0E0,0E0,0E0,0E0,0E0,0E0,0E0,0E0,0E0,0E0,0E0,0E0,0E0,0E0,0E0,0E0,0E0,0E0,0E0,0E0,0E0,0E0,0E0,0E0,0E0,0E0,0E0,0E0],"parents":[2147483647,0,0,1,1,2,2,3,3,4,4,5,5,6,6,7,7,8,8,9,9,10,10,11,11,12,12,13,13,14,14,15,15,16,16,17,17,18,18,19,19,20,20,21,21,22,22,23,23,24,24,25,25,26,26,27,27,28,28,29,29,30,30,31,31,32,32,33,33,34,34,35,35,36,36,37,37,38,38,39,39,40,40,41,41,42,42,43,43,44,44,45,45,46,46,47,47,48,48,49,49,50,50,